svm_type nu_svc
kernel_type rbf
gamma 0.0333333
nr_class 19
total_sv 184
rho 0.0170103 0.0356497 0.00464571 0.00465012 0.00441698 -0.0153299 0.00497892 0.0128208 0.0422449 0.0200801 0.017833 0.029713 -0.00128423 0.0378202 -0.0557508 0.0314347 0.0136796 0.00578867 0.00395212 0.129324 -0.100056 0.018853 -0.00529984 -0.0102308 -0.0337699 0.00193438 0.0167714 0.00422215 -0.032524 0.019803 0.0154474 0.0116559 -0.0315923 -0.0156559 -0.007547 -0.0248885 -0.0202307 -0.00742895 -0.0109957 0.00687704 0.013637 0.0146807 0.00505566 -0.0299608 0.0293042 0.0112625 0.0238624 -0.0351168 0.0353256 0.00861761 0.00876952 0.0602335 0.0346631 -0.00722429 -0.00950218 -0.039152 -0.10465 0.00223514 0.0305451 -0.0432949 -0.0153581 -0.0366832 0.0150996 -0.0276239 -0.0269188 -0.0094521 0.0106524 0.0101977 -0.0140206 -0.0448229 0.0233639 -0.030732 0.0159904 -0.0222623 0.0231791 -0.00565893 0.00273676 -0.0237267 -0.00424613 -0.012453 0.00777882 0.00246359 -0.00148196 0.00880781 -0.00206203 -0.010142 -0.00144746 -0.00727365 -0.000860119 -0.0404259 -0.0151441 0.00845523 0.00882115 0.0071965 -0.0165417 -0.00524067 9.30387e-05 0.0164287 0.00687036 -0.0213268 -0.00240905 0.00346313 -0.0389394 -0.00172258 -0.00381451 -0.018033 -0.00228728 -0.0148584 0.00479444 -0.0016646 -0.0266366 0.00638755 -0.00948797 -0.0124348 0.00434687 -0.00993147 0.02235 0.00812913 0.0175606 -0.003319 0.00813172 0.0367983 -0.000737682 0.00692715 0.0223065 0.016011 -0.0162222 -0.0158345 -0.0223334 0.0123398 0.0131831 -0.0126644 -0.0322837 0.00173923 0.00302768 0.00355901 0.0277572 0.0158394 0.0159914 -0.00137449 0.00653402 0.00997432 0.00256207 0.0123536 0.0122587 0.0172164 -0.0148868 0.00223929 0.000498388 0.00680191 -0.0120533 0.0151208 -0.0147036 0.0150923 0.0173357 -0.00832229 0.0198862 0.00231435 0.010463 0.0087293 0.038958 -0.0093912 -0.0456728 0.0148414 -0.00534947 -0.00423673 0.00798139 0.0141361 -0.00735427 0.00436717 0.0069974
label 1 2 3 4 5 6 7 8 9 10 11 14 15 16 17 18 19 20 23
probA -2.42817 -2.43719 -2.43151 -2.41841 -2.40547 -2.42043 -2.40492 -2.45611 -2.40845 -2.41974 -2.50997 -2.41171 -2.49947 -2.38157 -2.43325 -2.414 -2.39651 -2.41938 -2.41701 -2.50781 -2.5087 -2.39632 -2.41043 -2.40816 -2.43919 -2.44752 -2.46901 -2.44546 -2.42226 -2.41048 -2.4202 -2.42367 -2.43247 -2.42384 -2.41271 -2.43502 -2.43634 -2.43206 -2.39915 -2.40543 -2.4361 -2.40436 -2.40208 -2.38464 -2.43219 -2.42988 -2.39615 -2.43776 -2.41893 -2.39579 -2.40005 -2.49574 -2.41104 -2.39307 -2.39139 -2.45233 -2.48523 -2.40291 -2.43448 -2.41909 -2.38954 -2.49365 -2.42971 -2.46079 -2.41776 -2.40135 -2.43735 -2.44217 -2.42482 -2.43019 -2.38896 -2.44402 -2.47496 -2.43784 -2.44639 -2.45587 -2.4396 -2.47428 -2.44285 -2.4093 -2.41715 -2.40653 -2.43155 -2.40175 -2.41472 -2.41658 -2.42505 -2.42011 -2.39402 -2.43509 -2.44093 -2.41212 -2.42773 -2.40059 -2.42909 -2.42291 -2.43202 -2.43186 -2.3962 -2.41811 -2.41597 -2.42625 -2.44373 -2.3982 -2.41854 -2.41949 -2.41712 -2.39376 -2.40942 -2.41333 -2.39694 -2.39607 -2.41797 -2.40764 -2.40351 -2.41306 -2.43097 -2.42867 -2.42255 -2.45323 -2.42769 -2.42675 -2.42908 -2.46229 -2.43926 -2.43765 -2.39442 -2.3912 -2.39821 -2.41905 -2.40522 -2.40178 -2.37112 -2.42578 -2.40979 -2.38815 -2.41094 -2.42253 -2.38157 -2.40392 -2.4368 -2.39934 -2.39105 -2.40572 -2.40983 -2.40721 -2.47549 -2.45949 -2.41174 -2.41927 -2.39702 -2.45242 -2.41709 -2.39872 -2.43406 -2.40842 -2.42111 -2.44082 -2.44132 -2.41521 -2.44739 -2.40735 -2.40892 -2.43913 -2.40714 -2.43214 -2.41198 -2.41524 -2.42396 -2.40517 -2.4016
probB -0.0138383 -0.0356531 -0.0217431 0.0462081 -0.011576 0.0259504 -0.00291429 -0.0200607 -0.0365688 -0.0185419 -0.102194 -0.013332 0.0033722 -0.0119419 0.00307603 -0.0141896 -0.000897206 -0.00712058 -0.0281852 -0.0374942 0.185904 -0.0120187 0.00168337 -0.0109092 0.0409945 -0.0145975 0.00514822 -0.00615721 0.0424326 0.00187333 -0.1358 -0.00301566 0.0518019 -0.00157968 0.010758 0.024644 0.0798924 -0.00895401 0.0251427 -0.00501389 -0.0293243 0.0019571 -0.0205732 0.0242807 -0.0127846 -0.00307903 -0.00878363 0.0379705 -0.0102836 -0.00302244 0.00786891 0.0316651 -0.0400282 0.0146081 0.00103098 0.0348799 0.0863657 -0.0449575 -0.0551285 0.0243995 -0.00547867 -0.062151 -0.00736013 0.056496 0.0343601 -0.00558765 -0.0499324 -0.0278082 -0.00928167 0.0194428 -0.0317354 0.0215939 -0.0808433 0.00684737 -0.0273101 -0.115618 -0.0188455 0.0322866 -0.00094206 -0.00157509 -0.000946788 -0.00480977 0.00954459 -0.00290882 0.00231631 -0.00269029 0.0168348 0.0198837 0.019458 0.0682787 0.0555323 -0.0150895 -0.00798826 -0.0444079 0.0108424 -0.00445698 -0.00727976 -0.0205294 -0.00738324 -0.000530131 -0.00949364 -0.00920605 0.0596042 -0.00120815 -0.0235571 0.0307557 0.00648585 -0.00289886 0.00293248 0.0270879 0.015215 0.0107881 0.0161325 0.026664 0.0121717 0.0221522 -0.0355539 0.00136617 -0.0312505 0.0259267 -0.00724974 -0.0574322 0.00378035 -0.00122673 -0.0241795 -0.0213672 1.72795e-05 0.00528981 0.0160453 0.000618216 -0.0601305 0.015989 0.054401 0.00231395 -0.00735276 0.00978747 -0.0157942 0.000667124 0.000413933 0.000892942 -0.011061 0.0022786 0.0157271 0.0135965 0.00122909 -0.019106 0.0247361 0.0210359 0.00708319 0.000378319 -0.00485273 -0.0679617 0.0105787 -0.0108675 -0.0267758 -0.0069116 -0.0152864 -0.0150735 -0.011968 -0.00863323 -0.0422439 0.0134146 0.0269756 -0.000206173 2.96024e-05 0.0149555 -0.0124748 -0.014129 -0.0199264 -0.0207516 -0.0103105
nr_sv 9 10 10 10 10 9 10 10 10 10 9 10 9 9 10 9 10 10 10
SV
21.35324936982825 59.73999531757272 20.44116129448868 32.64613491142683 35.20405900071448 16.48195010484672 13.9867566452808 22.12821723543951 16.10331250097483 20.80973729858928 111.3154621801347 15.61014679043343 25.76481405905007 17.71691683996239 0 17.6830105314637 12.93878603173575 28.13580040391133 1:0.155599 2:0.0983073 3:0.121745 4:0.126302 5:0.120117 6:0.129232 7:0.170573 8:0.106337 9:0.0989583 10:0.125 11:0.125215 12:0.124141 13:0.118127 14:0.132517 15:0.274306 16:0.149306 17:0 18:0 19:0.222222 20:0.0364583 21:0.196181 22:0.199653 23:0.145833 24:0.0694444 25:0 26:0.131944 27:0 28:0.210069 29:0.173611 30:0.194444 
21.35324936982825 59.73999531757272 20.44116129448868 32.64613491142683 35.20405900071448 16.48195010484672 13.9867566452808 22.12821723543951 16.10331250097483 20.80973729858928 111.3154621801347 15.61014679043343 25.76481405905007 17.71691683996239 52.67910807446005 17.6830105314637 12.93878603173575 28.13580040391133 1:0.157552 2:0.0924479 3:0.123047 4:0.120443 5:0.125977 6:0.126628 7:0.167969 8:0.107205 9:0.0967882 10:0.125434 11:0.124141 12:0.123282 13:0.118342 14:0.130584 15:0.270833 16:0.145833 17:0 18:0 19:0.211806 20:0.0434028 21:0.194444 22:0.192708 23:0.159722 24:0.0677083 25:0 26:0.154514 27:0 28:0.201389 29:0.166667 30:0.180556 
0 0 0 0 0 0 0 0 0 0 0 0 0 0 52.67910807446005 0 0 0 1:0.172852 2:0.101562 3:0.144857 4:0.158203 5:0.113932 6:0.147135 7:0.186198 8:0.110677 9:0.114149 10:0.148003 11:0.137672 12:0.140679 13:0.141967 14:0.136383 15:0.350694 16:0.197917 17:0.0868056 18:0 19:0.196181 20:0 21:0.149306 22:0.220486 23:0.125 24:0.0694444 25:0 26:0.175347 27:0 28:0.248264 29:0.175347 30:0.241319 
21.35324936982825 59.73999531757272 20.44116129448868 32.64613491142683 0 0 0 22.12821723543951 16.10331250097483 20.80973729858928 111.3154621801347 15.61014679043343 0 17.71691683996239 0 17.6830105314637 12.93878603173575 28.13580040391133 1:0.164388 2:0.0917969 3:0.126302 4:0.121745 5:0.129883 6:0.130859 7:0.168403 8:0.112413 9:0.0980903 10:0.131076 11:0.127577 12:0.126289 13:0.119201 14:0.135954 15:0.276042 16:0.164931 17:0 18:0 19:0.215278 20:0.0173611 21:0.204861 22:0.1875 23:0.170139 24:0.0694444 25:0 26:0.157986 27:0 28:0.210069 29:0.161458 30:0.204861 
0 59.73999531757272 0 0 0 16.48195010484672 13.9867566452808 0 0 0 0 0 25.76481405905007 0 52.67910807446005 0 0 0 1:0.170247 2:0.0986328 3:0.126953 4:0.143555 5:0.114258 6:0.138021 7:0.18099 8:0.111979 9:0.0985243 10:0.136285 11:0.133376 12:0.129081 13:0.127792 14:0.135739 15:0.321181 16:0.197917 17:0.0486111 18:0 19:0.204861 20:0 21:0.175347 22:0.170139 23:0.130208 24:0.0850694 25:0 26:0.149306 27:0 28:0.232639 29:0.177083 30:0.21875 
0 0 0 0 35.20405900071448 0 0 0 0 0 0 0 0 0 52.67910807446005 0 0 0 1:0.168294 2:0.0904948 3:0.130859 4:0.139323 5:0.116211 6:0.134115 7:0.176215 8:0.110243 9:0.104167 10:0.128906 11:0.130584 12:0.127792 13:0.126074 14:0.132947 15:0.307292 16:0.192708 17:0.046875 18:0 19:0.204861 20:0 21:0.161458 22:0.208333 23:0.145833 24:0.0677083 25:0 26:0.133681 27:0 28:0.227431 29:0.168403 30:0.213542 
21.35324936982825 0 20.44116129448868 32.64613491142683 35.20405900071448 16.48195010484672 13.9867566452808 22.12821723543951 16.10331250097483 20.80973729858928 111.3154621801347 15.61014679043343 25.76481405905007 17.71691683996239 0 17.6830105314637 12.93878603173575 28.13580040391133 1:0.154297 2:0.0973307 3:0.129232 4:0.131185 5:0.117839 6:0.131836 7:0.166233 8:0.106771 9:0.102865 10:0.131944 11:0.122852 12:0.12994 13:0.122208 14:0.131658 15:0.272569 16:0.184028 17:0.0138889 18:0 19:0.208333 20:0 21:0.182292 22:0.215278 23:0.125 24:0.0850694 25:0 26:0.163194 27:0 28:0.217014 29:0.177083 30:0.1875 
21.35324936982825 0 20.44116129448868 32.64613491142683 35.20405900071448 16.48195010484672 13.9867566452808 22.12821723543951 16.10331250097483 20.80973729858928 0 15.61014679043343 25.76481405905007 17.71691683996239 52.67910807446005 17.6830105314637 12.93878603173575 28.13580040391133 1:0.157878 2:0.0950521 3:0.123698 4:0.135742 5:0.113281 6:0.127604 7:0.168837 8:0.107639 9:0.103299 10:0.122396 11:0.126503 12:0.123497 13:0.119201 14:0.131443 15:0.270833 16:0.1875 17:0.0399306 18:0 19:0.217014 20:0 21:0.159722 22:0.213542 23:0.125 24:0.0954861 25:0 26:0.125 27:0 28:0.210069 29:0.168403 30:0.196181 
0 59.73999531757272 0 0 0 0 0 0 0 0 111.3154621801347 0 0 0 0 0 0 0 1:0.163411 2:0.094401 3:0.133464 4:0.135417 5:0.118815 6:0.137044 7:0.172309 8:0.109375 9:0.103733 10:0.136285 11:0.128007 12:0.131658 13:0.127363 14:0.133162 15:0.288194 16:0.190972 17:0.0190972 18:0 19:0.210069 20:0 21:0.190972 22:0.204861 23:0.154514 24:0.0555556 25:0 26:0.166667 27:0 28:0.227431 29:0.170139 30:0.208333 
-21.35324936982825 22.52989903506881 140.5427122207842 172.7601782464197 33.48157609042723 16.7230583754511 16.4303266216194 33.86418772512169 78.57978365896898 30.03284111637598 38.85679081827035 24.44945496939668 23.8956535238941 0 18.66905910633476 48.0481248312989 0 22.88510840004433 1:0.0872396 2:0.0709635 3:0.0924479 4:0.0403646 5:0.132487 6:0.0777995 7:0.0820312 8:0.0855035 9:0.0885417 10:0.078125 11:0.0867698 12:0.0798969 13:0.0829038 14:0.0837629 15:0 16:0 17:0.0451389 18:0.00173611 19:0.164931 20:0.163194 21:0.107639 22:0.199653 23:0.206597 24:0.128472 25:0.015625 26:0.170139 27:0 28:0.00694444 29:0.0798611 30:0.046875 
-21.35324936982825 22.52989903506881 0 172.7601782464197 33.48157609042723 0 0 33.86418772512169 78.57978365896898 30.03284111637598 38.85679081827035 24.44945496939668 23.8956535238941 0 18.66905910633476 0 0 22.88510840004433 1:0.0878906 2:0.0680339 3:0.0901693 4:0.0400391 5:0.129557 6:0.0764974 7:0.0828993 8:0.0820312 9:0.0842014 10:0.0789931 11:0.0861254 12:0.0773196 13:0.0805412 14:0.0833333 15:0 16:0 17:0.0399306 18:0 19:0.166667 20:0.164931 21:0.112847 22:0.184028 23:0.210069 24:0.118056 25:0.0260417 26:0.189236 27:0 28:0 29:0.0746528 30:0.0260417 
-21.35324936982825 22.52989903506881 0 172.7601782464197 33.48157609042723 0 0 33.86418772512169 0 30.03284111637598 38.85679081827035 24.44945496939668 23.8956535238941 0 18.66905910633476 0 0 0 1:0.0875651 2:0.0680339 3:0.0911458 4:0.0406901 5:0.130208 6:0.0758464 7:0.0824653 8:0.0837674 9:0.0846354 10:0.078125 11:0.0863402 12:0.0775344 13:0.080756 14:0.0831186 15:0 16:0 17:0.0434028 18:0 19:0.164931 20:0.164931 21:0.104167 22:0.190972 23:0.211806 24:0.123264 25:0.0138889 26:0.180556 27:0 28:0 29:0.0798611 30:0.0381944 
-21.35324936982825 22.52989903506881 140.5427122207842 172.7601782464197 0 0 0 0 78.57978365896898 0 38.85679081827035 0 23.8956535238941 165.3094622856003 0 48.0481248312989 0 0 1:0.0859375 2:0.0651042 3:0.0875651 4:0.0377604 5:0.127279 6:0.0735677 7:0.0815972 8:0.0811632 9:0.0802951 10:0.0750868 11:0.0831186 12:0.0753866 13:0.0779639 14:0.0805412 15:0 16:0 17:0.0260417 18:0 19:0.157986 20:0.168403 21:0.107639 22:0.1875 23:0.206597 24:0.118056 25:0.0486111 26:0.190972 27:0 28:0 29:0.0416667 30:0.0190972 
-21.35324936982825 22.52989903506881 0 172.7601782464197 33.48157609042723 16.7230583754511 0 0 78.57978365896898 30.03284111637598 38.85679081827035 0 0 165.3094622856003 18.66905910633476 48.0481248312989 44.96478603341026 0 1:0.0875651 2:0.0634766 3:0.0875651 4:0.038737 5:0.128906 6:0.0709635 7:0.0824653 8:0.0798611 9:0.0807292 10:0.0750868 11:0.084622 12:0.0738832 13:0.0783935 14:0.0803265 15:0 16:0 17:0.0451389 18:0 19:0.163194 20:0.166667 21:0.09375 22:0.184028 23:0.208333 24:0.111111 25:0.0538194 26:0.194444 27:0 28:0 29:0.0381944 30:0.0138889 
-0 0 140.5427122207842 0 0 16.7230583754511 16.4303266216194 33.86418772512169 0 30.03284111637598 0 24.44945496939668 23.8956535238941 165.3094622856003 0 48.0481248312989 44.96478603341026 22.88510840004433 1:0.0849609 2:0.0683594 3:0.0869141 4:0.0403646 5:0.124674 6:0.0751953 7:0.0802951 8:0.0824653 9:0.0833333 10:0.0742188 11:0.0848368 12:0.0747423 13:0.0790378 14:0.0805412 15:0 16:0 17:0.0451389 18:0 19:0.151042 20:0.170139 21:0.111111 22:0.177083 23:0.208333 24:0.121528 25:0.0503472 26:0.190972 27:0 28:0 29:0.0416667 30:0.0138889 
-0 0 0 0 33.48157609042723 16.7230583754511 0 33.86418772512169 0 0 0 0 0 0 18.66905910633476 0 44.96478603341026 0 1:0.0859375 2:0.0634766 3:0.0891927 4:0.0384115 5:0.123698 6:0.0764974 7:0.0772569 8:0.0855035 9:0.0789931 10:0.0763889 11:0.0820447 12:0.0764605 13:0.0766753 14:0.0818299 15:0 16:0 17:0.0520833 18:0 19:0.15625 20:0.152778 21:0.0746528 22:0.189236 23:0.213542 24:0.128472 25:0.0399306 26:0.197917 27:0 28:0 29:0.0572917 30:0.0104167 
-0 0 0 0 0 0 16.4303266216194 0 0 0 0 0 0 0 0 0 44.96478603341026 0 1:0.085612 2:0.0641276 3:0.0869141 4:0.0397135 5:0.124023 6:0.0729167 7:0.0798611 8:0.0789931 9:0.0807292 10:0.0759549 11:0.0833333 12:0.0738832 13:0.0777491 14:0.0794674 15:0 16:0 17:0.0451389 18:0 19:0.152778 20:0.166667 21:0.0972222 22:0.180556 23:0.206597 24:0.109375 25:0.0555556 26:0.197917 27:0 28:0 29:0.0399306 30:0.0104167 
-0 0 140.5427122207842 0 0 16.7230583754511 16.4303266216194 0 78.57978365896898 0 0 24.44945496939668 0 165.3094622856003 0 48.0481248312989 44.96478603341026 22.88510840004433 1:0.085612 2:0.0664062 3:0.0885417 4:0.0380859 5:0.12793 6:0.0745443 7:0.078559 8:0.0863715 9:0.078125 10:0.077691 11:0.0833333 12:0.0764605 13:0.0783935 14:0.0814003 15:0 16:0 17:0.0243056 18:0 19:0.145833 20:0.168403 21:0.121528 22:0.166667 23:0.217014 24:0.128472 25:0.0902778 26:0.220486 27:0 28:0 29:0 30:0 
-0 0 140.5427122207842 0 0 0 16.4303266216194 0 0 0 0 0 0 165.3094622856003 0 0 0 22.88510840004433 1:0.0826823 2:0.0638021 3:0.0865885 4:0.0351562 5:0.122721 6:0.0751953 7:0.0759549 8:0.0820312 9:0.078559 10:0.0742188 11:0.0792526 12:0.0753866 13:0.0751718 14:0.0798969 15:0 16:0 17:0.0225694 18:0 19:0.140625 20:0.163194 21:0.112847 22:0.178819 23:0.210069 24:0.116319 25:0.0538194 26:0.197917 27:0 28:0.00173611 29:0.0416667 30:0.00347222 
-59.73999531757272 -0 0 0 0 0 0 0 0 0 0 27.53839436665955 0 0 37.59444370373441 0 0 0 1:0.154948 2:0.16862 3:0.12793 4:0.139648 5:0.170573 6:0.141276 7:0.217448 8:0.111979 9:0.113715 10:0.158854 11:0.176332 12:0.123497 13:0.13488 14:0.164948 15:0.157986 16:0.229167 17:0.102431 18:0 19:0.303819 20:0.178819 21:0.260417 22:0.0920139 23:0.220486 24:0.0607639 25:0 26:0.192708 27:0 28:0.166667 29:0.197917 30:0.244792 
-59.73999531757272 -0 0 0 0 0 0 0 0 28.54447671401617 0 0 0 0 37.59444370373441 0 0 0 1:0.15625 2:0.168945 3:0.128581 4:0.141927 5:0.167969 6:0.14388 7:0.21224 8:0.117622 9:0.120226 10:0.154948 11:0.176976 12:0.123926 13:0.134021 14:0.167526 15:0.152778 16:0.229167 17:0.112847 18:0 19:0.307292 20:0.159722 21:0.263889 22:0.104167 23:0.229167 24:0.0607639 25:0 26:0.185764 27:0 28:0.180556 29:0.192708 30:0.241319 
-59.73999531757272 -22.52989903506881 22.76152934560598 34.15320600772748 35.54461027384273 15.24702807422754 14.81289306371396 21.15305285547407 20.84386435822112 28.54447671401617 69.19630905527033 27.53839436665955 22.30991998744692 18.66275106566641 37.59444370373441 20.79926310288975 13.11051603872464 22.72776546147526 1:0.145508 2:0.163737 3:0.117513 4:0.128581 5:0.165365 6:0.132812 7:0.192274 8:0.116753 9:0.115885 10:0.144097 11:0.167526 12:0.116409 13:0.128866 14:0.153995 15:0.116319 16:0.21875 17:0.0972222 18:0 19:0.298611 20:0.135417 21:0.279514 22:0.0868056 23:0.225694 24:0.0659722 25:0 26:0.196181 27:0.00173611 28:0.173611 29:0.178819 30:0.201389 
-0 -0 0 0 35.54461027384273 0 14.81289306371396 0 0 28.54447671401617 69.19630905527033 0 0 0 37.59444370373441 0 0 0 1:0.147461 2:0.169271 3:0.11556 4:0.130534 5:0.167318 6:0.13444 7:0.198785 8:0.119358 9:0.115017 10:0.143229 11:0.170103 12:0.117053 13:0.130799 14:0.155713 15:0.111111 16:0.237847 17:0.0954861 18:0 19:0.314236 20:0.131944 21:0.272569 22:0.0920139 23:0.227431 24:0.0659722 25:0 26:0.189236 27:0.00173611 28:0.182292 29:0.182292 30:0.201389 
-59.73999531757272 -0 22.76152934560598 0 35.54461027384273 0 0 0 0 0 69.19630905527033 0 0 0 37.59444370373441 0 0 0 1:0.147786 2:0.16569 3:0.116862 4:0.127279 5:0.166016 6:0.137044 7:0.197483 8:0.121528 9:0.107639 10:0.147135 11:0.167526 12:0.118557 13:0.127363 14:0.157861 15:0.107639 16:0.239583 17:0.0833333 18:0 19:0.309028 20:0.133681 21:0.260417 22:0.0868056 23:0.227431 24:0.0746528 25:0.00173611 26:0.190972 27:0.00347222 28:0.180556 29:0.178819 30:0.217014 
-59.73999531757272 -0 0 0 0 15.24702807422754 0 0 0 0 0 0 0 0 0 0 0 0 1:0.151367 2:0.165039 3:0.11556 4:0.126628 5:0.167643 6:0.137695 7:0.197049 8:0.128472 9:0.102865 10:0.147569 11:0.16817 12:0.119201 13:0.127148 14:0.158935 15:0.119792 16:0.229167 17:0.0711806 18:0 19:0.322917 20:0.116319 21:0.267361 22:0.0729167 23:0.225694 24:0.09375 25:0.00520833 26:0.199653 27:0.00694444 28:0.1875 29:0.177083 30:0.208333 
-0 -22.52989903506881 22.76152934560598 34.15320600772748 0 0 14.81289306371396 21.15305285547407 20.84386435822112 28.54447671401617 0 27.53839436665955 22.30991998744692 18.66275106566641 0 20.79926310288975 13.11051603872464 22.72776546147526 1:0.145182 2:0.167643 3:0.116211 4:0.123698 5:0.169596 6:0.135742 7:0.200521 8:0.126302 9:0.0985243 10:0.146701 11:0.167096 12:0.117912 13:0.129081 14:0.155284 15:0.100694 16:0.217014 17:0.0694444 18:0 19:0.314236 20:0.170139 21:0.244792 22:0.0798611 23:0.21875 24:0.100694 25:0 26:0.197917 27:0.00520833 28:0.180556 29:0.178819 30:0.210069 
-0 -22.52989903506881 0 34.15320600772748 35.54461027384273 15.24702807422754 0 21.15305285547407 20.84386435822112 0 0 0 22.30991998744692 18.66275106566641 0 20.79926310288975 13.11051603872464 22.72776546147526 1:0.148763 2:0.161458 3:0.11556 4:0.125326 5:0.16276 6:0.137695 7:0.203993 8:0.125868 9:0.0911458 10:0.146701 11:0.165593 12:0.117053 13:0.125 14:0.157216 15:0.111111 16:0.227431 17:0.0659722 18:0 19:0.317708 20:0.159722 21:0.222222 22:0.0763889 23:0.220486 24:0.0902778 25:0 26:0.192708 27:0.00694444 28:0.185764 29:0.182292 30:0.211806 
-0 -22.52989903506881 22.76152934560598 34.15320600772748 0 15.24702807422754 14.81289306371396 21.15305285547407 20.84386435822112 28.54447671401617 69.19630905527033 27.53839436665955 22.30991998744692 18.66275106566641 0 20.79926310288975 13.11051603872464 22.72776546147526 1:0.145508 2:0.166016 3:0.110026 4:0.122396 5:0.165039 6:0.134115 7:0.197483 8:0.134115 9:0.0902778 10:0.140191 11:0.166452 12:0.113832 13:0.123926 14:0.155284 15:0.100694 16:0.229167 17:0.0572917 18:0 19:0.307292 20:0.152778 21:0.234375 22:0.0694444 23:0.227431 24:0.112847 25:0 26:0.189236 27:0.00520833 28:0.190972 29:0.175347 30:0.196181 
-0 -22.52989903506881 22.76152934560598 34.15320600772748 35.54461027384273 15.24702807422754 14.81289306371396 21.15305285547407 20.84386435822112 0 69.19630905527033 27.53839436665955 22.30991998744692 18.66275106566641 0 20.79926310288975 13.11051603872464 22.72776546147526 1:0.142578 2:0.161784 3:0.108398 4:0.120443 5:0.160482 6:0.131836 7:0.202257 8:0.125 9:0.0842014 10:0.138889 11:0.161942 12:0.111469 13:0.124356 14:0.14927 15:0.0972222 16:0.236111 17:0.0486111 18:0 19:0.295139 20:0.180556 21:0.217014 22:0.0711806 23:0.222222 24:0.09375 25:0 26:0.182292 27:0.00347222 28:0.180556 29:0.171875 30:0.201389 
-20.44116129448868 -0 -0 74.62892194912558 0 17.78610619473717 18.79844343676434 0 0 0 0 0 24.87668539523684 77.27323014708762 0 32.73256635760995 0 0 1:0.085612 2:0.0807292 3:0.0875651 4:0.046875 5:0.142904 6:0.0641276 7:0.0559896 8:0.113715 9:0.0729167 10:0.0959201 11:0.0854811 12:0.0833333 13:0.0824742 14:0.0863402 15:0 16:0.0538194 17:0.0121528 18:0 19:0.0381944 20:0.131944 21:0.170139 22:0.109375 23:0.274306 24:0.180556 25:0.105903 26:0.166667 27:0 28:0 29:0.0225694 30:0.0885417 
-0 -140.5427122207842 -0 74.62892194912558 0 17.78610619473717 18.79844343676434 32.44041203066109 62.77089311837532 0 0 0 24.87668539523684 77.27323014708762 0 32.73256635760995 42.70663462713314 24.76263262494253 1:0.0810547 2:0.0797526 3:0.0888672 4:0.046224 5:0.140625 6:0.0628255 7:0.0598958 8:0.106337 9:0.0724826 10:0.094184 11:0.0831186 12:0.0829038 13:0.0829038 14:0.0829038 15:0 16:0.0555556 17:0.0121528 18:0 19:0.0381944 20:0.145833 21:0.161458 22:0.116319 23:0.244792 24:0.180556 25:0.119792 26:0.184028 27:0 28:0 29:0.00520833 30:0.0677083 
-0 -140.5427122207842 -0 0 0 17.78610619473717 18.79844343676434 0 0 0 0 0 24.87668539523684 77.27323014708762 0 32.73256635760995 42.70663462713314 24.76263262494253 1:0.0817057 2:0.0807292 3:0.0875651 4:0.0455729 5:0.140625 6:0.0638021 7:0.0585938 8:0.106771 9:0.0703125 10:0.0976562 11:0.0831186 12:0.0829038 13:0.082689 14:0.0835481 15:0 16:0.0538194 17:0.0121528 18:0 19:0.03125 20:0.149306 21:0.161458 22:0.107639 23:0.251736 24:0.175347 25:0.125 26:0.175347 27:0 28:0 29:0.00694444 30:0.0833333 
-0 -140.5427122207842 -0 0 0 0 0 0 62.77089311837532 0 0 42.16085350944316 0 77.27323014708762 0 0 0 0 1:0.0859375 2:0.0761719 3:0.0813802 4:0.0397135 5:0.146484 6:0.0572917 7:0.0546875 8:0.114583 9:0.0690104 10:0.0863715 11:0.0839777 12:0.0779639 13:0.0779639 14:0.0835481 15:0 16:0.0138889 17:0 18:0 19:0.0138889 20:0.190972 21:0.180556 22:0.0954861 23:0.279514 24:0.178819 25:0.0711806 26:0.236111 27:0 28:0 29:0.03125 30:0.00694444 
-0 -140.5427122207842 -0 0 0 0 0 0 62.77089311837532 0 0 0 0 77.27323014708762 0 32.73256635760995 42.70663462713314 24.76263262494253 1:0.0836589 2:0.0777995 3:0.0869141 4:0.0432943 5:0.143555 6:0.0615234 7:0.0555556 8:0.111111 9:0.0711806 10:0.093316 11:0.0833333 12:0.0818299 13:0.0816151 14:0.0835481 15:0 16:0.0364583 17:0.00694444 18:0 19:0.0208333 20:0.164931 21:0.168403 22:0.109375 23:0.265625 24:0.178819 25:0.114583 26:0.217014 27:0 28:0 29:0.00347222 30:0.0381944 
-20.44116129448868 -0 -22.76152934560598 74.62892194912558 24.0538563167263 0 18.79844343676434 32.44041203066109 0 31.50548831986194 39.10501777557384 0 0 0 17.8740956262991 0 42.70663462713314 0 1:0.0865885 2:0.0807292 3:0.0898438 4:0.0481771 5:0.141927 6:0.0670573 7:0.0572917 8:0.115017 9:0.0755208 10:0.0950521 11:0.0867698 12:0.0841924 13:0.084622 14:0.0863402 15:0 16:0.0572917 17:0.0277778 18:0 19:0.03125 20:0.140625 21:0.159722 22:0.114583 23:0.276042 24:0.180556 25:0.0885417 26:0.164931 27:0 28:0.00347222 29:0.03125 30:0.0954861 
-20.44116129448868 -0 -22.76152934560598 74.62892194912558 24.0538563167263 17.78610619473717 0 32.44041203066109 62.77089311837532 31.50548831986194 39.10501777557384 42.16085350944316 24.87668539523684 0 17.8740956262991 32.73256635760995 0 24.76263262494253 1:0.0950521 2:0.0846354 3:0.0921224 4:0.0530599 5:0.144531 6:0.0742188 7:0.0659722 8:0.118056 9:0.078125 10:0.10026 11:0.0934278 12:0.0871993 13:0.088488 14:0.0921392 15:0 16:0.0798611 17:0.0277778 18:0 19:0.0694444 20:0.114583 21:0.173611 22:0.111111 23:0.300347 24:0.161458 25:0.0850694 26:0.161458 27:0 28:0.0104167 29:0.046875 30:0.107639 
-20.44116129448868 -140.5427122207842 -22.76152934560598 74.62892194912558 24.0538563167263 17.78610619473717 18.79844343676434 32.44041203066109 0 31.50548831986194 39.10501777557384 42.16085350944316 24.87668539523684 0 17.8740956262991 0 0 24.76263262494253 1:0.0914714 2:0.0852865 3:0.0895182 4:0.0494792 5:0.142253 6:0.0745443 7:0.0646701 8:0.115451 9:0.0755208 10:0.0993924 11:0.090421 12:0.086555 13:0.0878436 14:0.0893471 15:0 16:0.078125 17:0.0138889 18:0 19:0.0677083 20:0.112847 21:0.184028 22:0.104167 23:0.286458 24:0.163194 25:0.0711806 26:0.170139 27:0 28:0.0121528 29:0.0520833 30:0.104167 
-0 -0 -22.76152934560598 0 24.0538563167263 0 0 0 62.77089311837532 31.50548831986194 39.10501777557384 42.16085350944316 0 0 17.8740956262991 0 0 0 1:0.093099 2:0.0839844 3:0.0960286 4:0.0481771 5:0.151367 6:0.0735677 7:0.0598958 8:0.121528 9:0.077691 10:0.105035 11:0.0910653 12:0.090421 13:0.0897766 14:0.0917096 15:0 16:0.0625 17:0.0208333 18:0 19:0.03125 20:0.145833 21:0.171875 22:0.118056 23:0.309028 24:0.177083 25:0.104167 26:0.177083 27:0 28:0 29:0.0277778 30:0.111111 
-20.44116129448868 -0 -22.76152934560598 0 24.0538563167263 0 0 32.44041203066109 0 31.50548831986194 39.10501777557384 42.16085350944316 0 0 17.8740956262991 0 42.70663462713314 0 1:0.0895182 2:0.0846354 3:0.0934245 4:0.0494792 5:0.147135 6:0.0709635 7:0.0616319 8:0.115885 9:0.0772569 10:0.101997 11:0.0895619 12:0.0882732 13:0.0876289 14:0.090421 15:0 16:0.0694444 17:0.0243056 18:0 19:0.0277778 20:0.149306 21:0.166667 22:0.118056 23:0.28125 24:0.182292 25:0.0972222 26:0.154514 27:0 28:0 29:0.0364583 30:0.119792 
-32.64613491142683 -0 -34.15320600772748 -74.62892194912558 40.3016059660118 19.78309390893845 17.12083544764306 28.50525366112452 0 28.21292182941887 70.9111930843774 20.80665328106417 30.94208462164811 0 23.18361345757095 0 0 27.84666027370772 1:0.101562 2:0.069987 3:0.0908203 4:0.0605469 5:0.125326 6:0.0764974 7:0.100694 8:0.0833333 9:0.0763889 10:0.0894097 11:0.0899914 12:0.0841924 13:0.0835481 14:0.0908505 15:0 16:0.121528 17:0.00520833 18:0 19:0.244792 20:0.0364583 21:0.154514 22:0.145833 23:0.166667 24:0.118056 25:0 26:0.135417 27:0 28:0.0486111 29:0.118056 30:0.104167 
-32.64613491142683 -0 -34.15320600772748 -74.62892194912558 40.3016059660118 19.78309390893845 17.12083544764306 28.50525366112452 52.76181775440456 28.21292182941887 0 0 30.94208462164811 85.32107381014437 23.18361345757095 43.25184069956896 26.04449022218721 27.84666027370772 1:0.10026 2:0.0709635 3:0.0898438 4:0.0673828 5:0.12207 6:0.0716146 7:0.101128 8:0.0807292 9:0.0811632 10:0.0850694 11:0.0910653 12:0.0822595 13:0.0839777 14:0.0897766 15:0 16:0.131944 17:0.015625 18:0 19:0.246528 20:0.0260417 21:0.142361 22:0.166667 23:0.157986 24:0.15625 25:0.0399306 26:0.182292 27:0 28:0.00868056 29:0.09375 30:0.0243056 
-0 -172.7601782464197 -0 -74.62892194912558 0 0 17.12083544764306 0 52.76181775440456 28.21292182941887 0 20.80665328106417 0 85.32107381014437 0 43.25184069956896 26.04449022218721 0 1:0.0979818 2:0.0569661 3:0.0875651 4:0.0511068 5:0.116536 6:0.0748698 7:0.0889757 8:0.078559 9:0.0755208 10:0.0802951 11:0.0839777 12:0.0773196 13:0.0786082 14:0.0824742 15:0 16:0.0364583 17:0.00173611 18:0 19:0.223958 20:0.0954861 21:0.15625 22:0.144097 23:0.180556 24:0.126736 25:0.0520833 26:0.223958 27:0 28:0.00694444 29:0.0416667 30:0.00347222 
-32.64613491142683 -172.7601782464197 -0 -74.62892194912558 40.3016059660118 0 0 28.50525366112452 52.76181775440456 0 70.9111930843774 0 0 0 23.18361345757095 0 26.04449022218721 0 1:0.0957031 2:0.0556641 3:0.0888672 4:0.054362 5:0.110352 6:0.0755208 7:0.0859375 8:0.0772569 9:0.0768229 10:0.0802951 11:0.0818299 12:0.0779639 13:0.0794674 14:0.0801117 15:0 16:0.0746528 17:0 18:0 19:0.220486 20:0.0486111 21:0.154514 22:0.152778 23:0.185764 24:0.0920139 25:0.0104167 26:0.196181 27:0 28:0.03125 29:0.0833333 30:0.03125 
-32.64613491142683 -0 -34.15320600772748 -0 40.3016059660118 19.78309390893845 17.12083544764306 28.50525366112452 0 28.21292182941887 70.9111930843774 0 30.94208462164811 0 23.18361345757095 0 0 27.84666027370772 1:0.0999349 2:0.0703125 3:0.0904948 4:0.0696615 5:0.114258 6:0.0768229 7:0.100694 8:0.0828993 9:0.0794271 10:0.0846354 11:0.0899914 12:0.0833333 13:0.0869845 14:0.0863402 15:0.0121528 16:0.128472 17:0 18:0 19:0.241319 20:0.0208333 21:0.163194 22:0.154514 23:0.164931 24:0.09375 25:0 26:0.177083 27:0 28:0.0729167 29:0.104167 30:0.0572917 
-0 -172.7601782464197 -0 -0 0 19.78309390893845 0 0 0 0 0 20.80665328106417 0 85.32107381014437 0 43.25184069956896 0 27.84666027370772 1:0.100586 2:0.0625 3:0.0888672 4:0.0556641 5:0.127279 6:0.0690104 7:0.0959201 8:0.0820312 9:0.0759549 10:0.0820312 11:0.0869845 12:0.0803265 13:0.0824742 14:0.0850515 15:0 16:0.0902778 17:0 18:0 19:0.239583 20:0.0538194 21:0.15625 22:0.147569 23:0.163194 24:0.123264 25:0.00347222 26:0.222222 27:0 28:0.0416667 29:0.0833333 30:0.0190972 
-0 -0 -34.15320600772748 -0 0 0 0 0 52.76181775440456 0 0 0 30.94208462164811 0 0 43.25184069956896 0 27.84666027370772 1:0.102214 2:0.069987 3:0.0914714 4:0.0553385 5:0.129232 6:0.0791016 7:0.0980903 8:0.0815972 9:0.0759549 10:0.0959201 11:0.0893471 12:0.0859107 13:0.0829038 14:0.0921392 15:0 16:0.0954861 17:0 18:0 19:0.251736 20:0.0451389 21:0.15625 22:0.147569 23:0.168403 24:0.114583 25:0.0381944 26:0.237847 27:0 28:0.0434028 29:0.107639 30:0 
-32.64613491142683 -0 -34.15320600772748 -0 0 0 0 0 0 0 70.9111930843774 0 30.94208462164811 0 23.18361345757095 0 0 0 1:0.0970052 2:0.0647786 3:0.0891927 4:0.0579427 5:0.123047 6:0.069987 7:0.0963542 8:0.0759549 9:0.077691 10:0.0846354 11:0.0869845 12:0.0798969 13:0.0820447 14:0.084622 15:0 16:0.0902778 17:0 18:0 19:0.243056 20:0.0520833 21:0.163194 22:0.147569 23:0.151042 24:0.109375 25:0 26:0.210069 27:0 28:0.0434028 29:0.105903 30:0.0225694 
-0 -172.7601782464197 -0 -74.62892194912558 40.3016059660118 19.78309390893845 17.12083544764306 28.50525366112452 0 28.21292182941887 70.9111930843774 20.80665328106417 0 85.32107381014437 0 0 26.04449022218721 0 1:0.0950521 2:0.0589193 3:0.0846354 4:0.0498047 5:0.124674 6:0.0641276 7:0.0885417 8:0.077691 9:0.0737847 10:0.078125 11:0.0829038 12:0.0756014 13:0.0773196 14:0.0809708 15:0 16:0.0659722 17:0 18:0 19:0.229167 20:0.0590278 21:0.152778 22:0.142361 23:0.163194 24:0.104167 25:0 26:0.189236 27:0 28:0.0434028 29:0.0833333 30:0.0399306 
-0 -172.7601782464197 -0 -0 0 0 0 0 52.76181775440456 0 0 20.80665328106417 0 85.32107381014437 0 43.25184069956896 26.04449022218721 0 1:0.0999349 2:0.0592448 3:0.085612 4:0.054362 5:0.125 6:0.0654297 7:0.093316 8:0.0798611 9:0.0763889 10:0.0768229 11:0.0863402 12:0.0764605 13:0.0781787 14:0.084622 15:0 16:0.0677083 17:0 18:0 19:0.241319 20:0.0642361 21:0.157986 22:0.147569 23:0.170139 24:0.109375 25:0.00347222 26:0.197917 27:0 28:0.0399306 29:0.0833333 30:0.0225694 
-0 -33.48157609042723 -0 -24.0538563167263 -0 18.09455380032507 14.80247351732885 45.8096930336824 19.92590797881185 28.19489298699509 0 14.82791265369775 17.82980286987371 20.71845699681947 72.50732432531717 22.62628638397771 22.36583405210051 20.36034692361206 1:0.124674 2:0.0924479 3:0.129883 4:0.111328 5:0.0983073 6:0.13737 7:0.111979 8:0.119792 9:0.111545 10:0.119358 11:0.113402 12:0.116838 13:0.109107 14:0.121564 15:0 16:0.119792 17:0.196181 18:0.00868056 19:0.241319 20:0.0868056 21:0.00520833 22:0.236111 23:0.208333 24:0 25:0 26:0.133681 27:0.0920139 28:0.178819 29:0.166667 30:0.177083 
-35.20405900071448 -0 -35.54461027384273 -0 -0 18.09455380032507 14.80247351732885 0 0 28.19489298699509 54.67228578993462 0 0 0 72.50732432531717 0 0 0 1:0.125651 2:0.0924479 3:0.130859 4:0.116862 5:0.0924479 6:0.139648 7:0.111545 8:0.12066 9:0.113715 10:0.119358 11:0.114691 12:0.117053 13:0.11018 14:0.121564 15:0 16:0.138889 17:0.199653 18:0.00520833 19:0.25 20:0.0572917 21:0.0104167 22:0.239583 23:0.215278 24:0 25:0 26:0.130208 27:0.0815972 28:0.185764 29:0.166667 30:0.180556 
-35.20405900071448 -0 -35.54461027384273 -24.0538563167263 -40.3016059660118 18.09455380032507 14.80247351732885 45.8096930336824 0 0 54.67228578993462 0 0 20.71845699681947 72.50732432531717 22.62628638397771 22.36583405210051 20.36034692361206 1:0.125326 2:0.0849609 3:0.12793 4:0.116211 5:0.0891927 6:0.132812 7:0.114583 8:0.115885 9:0.109375 10:0.111111 11:0.112543 12:0.112113 13:0.11018 14:0.114261 15:0 16:0.149306 17:0.190972 18:0.00173611 19:0.253472 20:0.0555556 21:0.0104167 22:0.234375 23:0.190972 24:0 25:0 26:0.138889 27:0.0920139 28:0.180556 29:0.125 30:0.180556 
-35.20405900071448 -0 -35.54461027384273 -0 -40.3016059660118 18.09455380032507 14.80247351732885 45.8096930336824 0 28.19489298699509 54.67228578993462 14.82791265369775 17.82980286987371 0 72.50732432531717 22.62628638397771 0 20.36034692361206 1:0.123698 2:0.0891927 3:0.132812 4:0.117513 5:0.0908203 6:0.13737 7:0.115017 8:0.115885 9:0.111111 10:0.118924 11:0.112328 12:0.116838 13:0.111899 14:0.117912 15:0 16:0.144097 17:0.189236 18:0 19:0.248264 20:0.0677083 21:0.0138889 22:0.241319 23:0.192708 24:0 25:0 26:0.137153 27:0.0885417 28:0.182292 29:0.152778 30:0.185764 
-35.20405900071448 -33.48157609042723 -0 -24.0538563167263 -40.3016059660118 18.09455380032507 14.80247351732885 45.8096930336824 19.92590797881185 0 54.67228578993462 0 17.82980286987371 20.71845699681947 0 22.62628638397771 22.36583405210051 20.36034692361206 1:0.125326 2:0.0804036 3:0.12793 4:0.112956 5:0.0927734 6:0.12793 7:0.113281 8:0.115017 9:0.109809 10:0.106771 11:0.111254 12:0.110395 13:0.107388 14:0.114261 15:0 16:0.138889 17:0.180556 18:0.00173611 19:0.25 20:0.0642361 21:0.0104167 22:0.246528 23:0.199653 24:0 25:0 26:0.125 27:0.0885417 28:0.171875 29:0.128472 30:0.173611 
-0 -0 -0 -0 -0 0 0 45.8096930336824 0 0 0 0 17.82980286987371 0 72.50732432531717 0 0 0 1:0.125 2:0.0924479 3:0.135091 4:0.116862 5:0.0934245 6:0.142253 7:0.111545 8:0.119792 9:0.115451 10:0.123264 11:0.113617 12:0.12049 13:0.11104 14:0.123282 15:0 16:0.137153 17:0.199653 18:0.00520833 19:0.244792 20:0.0642361 21:0.0104167 22:0.246528 23:0.203125 24:0 25:0 26:0.130208 27:0.0920139 28:0.184028 29:0.178819 30:0.184028 
-0 -33.48157609042723 -35.54461027384273 -24.0538563167263 -40.3016059660118 0 0 0 19.92590797881185 28.19489298699509 0 14.82791265369775 17.82980286987371 20.71845699681947 0 22.62628638397771 22.36583405210051 20.36034692361206 1:0.126302 2:0.0888672 3:0.133138 4:0.114909 5:0.0986328 6:0.134766 7:0.113281 8:0.117188 9:0.110677 10:0.123264 11:0.114261 12:0.116838 13:0.113402 14:0.118127 15:0 16:0.137153 17:0.196181 18:0.00173611 19:0.25 20:0.0659722 21:0.0104167 22:0.234375 23:0.210069 24:0 25:0 26:0.170139 27:0.0833333 28:0.175347 29:0.15625 30:0.166667 
-0 -33.48157609042723 -0 -24.0538563167263 -40.3016059660118 0 0 0 19.92590797881185 0 0 14.82791265369775 0 20.71845699681947 0 0 22.36583405210051 0 1:0.124674 2:0.0826823 3:0.138997 4:0.113281 5:0.0996094 6:0.133464 7:0.111111 8:0.115017 9:0.111979 10:0.123698 11:0.112113 12:0.117698 13:0.113832 14:0.116194 15:0 16:0.128472 17:0.190972 18:0.00694444 19:0.25 20:0.0659722 21:0.00694444 22:0.243056 23:0.208333 24:0 25:0 26:0.166667 27:0.0833333 28:0.168403 29:0.151042 30:0.177083 
-35.20405900071448 -33.48157609042723 -35.54461027384273 -0 -0 0 0 0 19.92590797881185 28.19489298699509 54.67228578993462 14.82791265369775 0 0 0 0 0 0 1:0.125977 2:0.0882161 3:0.136068 4:0.114258 5:0.0992839 6:0.136719 7:0.111545 8:0.118056 9:0.111545 10:0.125868 11:0.113402 12:0.118986 13:0.113187 14:0.119416 15:0 16:0.130208 17:0.192708 18:0.00173611 19:0.251736 20:0.0642361 21:0.0138889 22:0.237847 23:0.213542 24:0 25:0 26:0.168403 27:0.0815972 28:0.177083 29:0.163194 30:0.171875 
-16.48195010484672 -16.7230583754511 -15.24702807422754 -17.78610619473717 -19.78309390893845 -18.09455380032507 0 21.2283095735255 13.56535941635018 17.78838330784709 16.67898511715253 12.14727137003847 20.66559174618738 18.41539927736651 14.127227191594 27.6717385988734 19.96894777545251 33.06480831842082 1:0.114258 2:0.137695 3:0.0677083 4:0.117513 5:0.121745 6:0.0804036 7:0.102865 8:0.169705 9:0.120226 10:0.0334201 11:0.104596 12:0.108677 13:0.101589 14:0.110395 15:0.0225694 16:0.234375 17:0.184028 18:0.0868056 19:0.154514 20:0 21:0.0850694 22:0.125 23:0.0520833 24:0.309028 25:0.133681 26:0 27:0 28:0.317708 29:0 30:0 
-16.48195010484672 -0 -15.24702807422754 -0 -0 -0 64.03456455568173 0 0 17.78838330784709 16.67898511715253 0 0 0 14.127227191594 0 0 0 1:0.111328 2:0.136393 3:0.0660807 4:0.117513 5:0.115885 6:0.0804036 7:0.10026 8:0.168837 9:0.111111 10:0.0381944 11:0.104811 12:0.104811 13:0.100301 14:0.108033 15:0.0329861 16:0.217014 17:0.217014 18:0.0625 19:0.151042 20:0 21:0.0763889 22:0.0885417 23:0.015625 24:0.338542 25:0.152778 26:0 27:0 28:0.321181 29:0 30:0 
-0 -0 -0 -0 -0 -18.09455380032507 0 0 13.56535941635018 0 0 0 0 0 14.127227191594 27.6717385988734 19.96894777545251 0 1:0.109701 2:0.135417 3:0.069987 4:0.114909 5:0.119141 6:0.0810547 7:0.0993924 8:0.166667 9:0.107205 10:0.046875 11:0.101804 12:0.108462 13:0.100515 14:0.108677 15:0.0138889 16:0.227431 17:0.199653 18:0.0746528 19:0.151042 20:0.00520833 21:0.0347222 22:0.119792 23:0.0173611 24:0.328125 25:0.1875 26:0 27:0 28:0.321181 29:0 30:0 
-16.48195010484672 -16.7230583754511 -15.24702807422754 -17.78610619473717 -19.78309390893845 -18.09455380032507 64.03456455568173 21.2283095735255 13.56535941635018 17.78838330784709 16.67898511715253 12.14727137003847 20.66559174618738 18.41539927736651 14.127227191594 0 0 33.06480831842082 1:0.104818 2:0.140299 3:0.0628255 4:0.120117 5:0.111003 6:0.0768229 7:0.103299 8:0.162326 9:0.121094 10:0.0238715 11:0.105455 12:0.100515 13:0.10073 14:0.103737 15:0.0381944 16:0.225694 17:0.208333 18:0.0711806 19:0.149306 20:0 21:0.126736 22:0.078125 23:0.0208333 24:0.321181 25:0.0954861 26:0 27:0 28:0.307292 29:0 30:0 
-16.48195010484672 -16.7230583754511 -15.24702807422754 -17.78610619473717 -19.78309390893845 -18.09455380032507 0 0 13.56535941635018 17.78838330784709 16.67898511715253 12.14727137003847 20.66559174618738 18.41539927736651 14.127227191594 27.6717385988734 19.96894777545251 33.06480831842082 1:0.104492 2:0.140951 3:0.0638021 4:0.115885 5:0.117188 6:0.0761719 7:0.101128 8:0.16276 9:0.111111 10:0.0373264 11:0.104811 12:0.102234 13:0.100945 14:0.104167 15:0.0277778 16:0.227431 17:0.208333 18:0.0625 19:0.149306 20:0 21:0.0815972 22:0.0920139 23:0.0208333 24:0.331597 25:0.149306 26:0 27:0 28:0.298611 29:0 30:0 
-0 -0 -0 -0 -0 -0 0 0 0 0 0 0 0 0 0 27.6717385988734 0 0 1:0.107747 2:0.136393 3:0.0644531 4:0.11556 5:0.113607 6:0.0794271 7:0.100694 8:0.166667 9:0.105035 10:0.0390625 11:0.103737 12:0.102878 13:0.0979381 14:0.106959 15:0.0138889 16:0.234375 17:0.190972 18:0.0763889 19:0.151042 20:0.00347222 21:0.0381944 22:0.114583 23:0.0138889 24:0.340278 25:0.15625 26:0 27:0 28:0.3125 29:0 30:0 
-0 -0 -0 -0 -0 -0 64.03456455568173 21.2283095735255 0 0 0 0 0 0 0 0 0 0 1:0.104818 2:0.136393 3:0.0608724 4:0.108073 5:0.113281 6:0.0807292 7:0.0911458 8:0.171441 9:0.10026 10:0.0399306 11:0.0998711 12:0.102234 13:0.0942869 14:0.106529 15:0.00347222 16:0.223958 17:0.197917 18:0.0642361 19:0.118056 20:0.0190972 21:0.046875 22:0.0920139 23:0.0121528 24:0.354167 25:0.159722 26:0 27:0 28:0.319444 29:0 30:0 
-16.48195010484672 -0 -15.24702807422754 -0 -19.78309390893845 -18.09455380032507 0 0 0 0 16.67898511715253 0 0 0 0 0 0 33.06480831842082 1:0.107422 2:0.131836 3:0.0628255 4:0.112956 5:0.111003 6:0.078125 7:0.0998264 8:0.16276 9:0.102431 10:0.0377604 11:0.103522 12:0.0987973 13:0.0968643 14:0.103737 15:0.00868056 16:0.237847 17:0.194444 18:0.0659722 19:0.144097 20:0.00868056 21:0.0625 22:0.0868056 23:0.0138889 24:0.322917 25:0.151042 26:0 27:0 28:0.314236 29:0 30:0 
-0 -16.7230583754511 -0 -17.78610619473717 -0 -0 64.03456455568173 21.2283095735255 0 0 0 12.14727137003847 20.66559174618738 18.41539927736651 0 0 19.96894777545251 33.06480831842082 1:0.0986328 2:0.13444 3:0.0615234 4:0.109701 5:0.108724 6:0.0761719 7:0.0928819 8:0.160156 9:0.101128 10:0.0386285 11:0.0977234 12:0.0992268 13:0.095146 14:0.100515 15:0.00173611 16:0.232639 17:0.192708 18:0.0642361 19:0.112847 20:0.0243056 21:0.0538194 22:0.09375 23:0.00868056 24:0.329861 25:0.154514 26:0 27:0 28:0.302083 29:0 30:0 
-0 -16.7230583754511 -0 -17.78610619473717 -19.78309390893845 -0 64.03456455568173 21.2283095735255 13.56535941635018 17.78838330784709 0 12.14727137003847 20.66559174618738 18.41539927736651 0 27.6717385988734 19.96894777545251 0 1:0.102539 2:0.133789 3:0.0628255 4:0.111003 5:0.113932 6:0.0742188 7:0.0976562 8:0.159288 9:0.102431 10:0.0394965 11:0.101804 12:0.0983677 13:0.097079 14:0.101804 15:0.00347222 16:0.229167 17:0.206597 18:0.0538194 19:0.140625 20:0.0173611 21:0.0659722 22:0.0833333 23:0.0104167 24:0.329861 25:0.157986 26:0 27:0 28:0.296875 29:0 30:0 
-13.9867566452808 -16.4303266216194 -14.81289306371396 -18.79844343676434 -17.12083544764306 -14.80247351732885 -0 22.47978727751802 11.7631230454717 19.5381352366961 16.26557028743114 16.55940190701606 20.63722278737304 16.98610259668271 12.37924936318005 18.39457763295522 17.00162038749454 35.56887524977077 1:0.0738932 2:0.144206 3:0.0436198 4:0.0999349 5:0.0878906 6:0.0738932 7:0.0898438 8:0.131944 9:0.107205 10:0.0199653 11:0.0880584 12:0.0859107 13:0.0869845 14:0.0869845 15:0 16:0.192708 17:0.227431 18:0 19:0 20:0.166667 21:0.201389 22:0 23:0 24:0.211806 25:0.0798611 26:0 27:0 28:0.315972 29:0 30:0 
-0 -0 -0 -0 -0 -14.80247351732885 -64.03456455568173 22.47978727751802 0 19.5381352366961 16.26557028743114 0 0 0 0 18.39457763295522 17.00162038749454 35.56887524977077 1:0.0696615 2:0.156576 3:0.0423177 4:0.0992839 5:0.0891927 6:0.0800781 7:0.0872396 8:0.142795 9:0.108073 10:0.0199653 11:0.0902062 12:0.088488 13:0.0882732 14:0.0902062 15:0 16:0.192708 17:0.227431 18:0 19:0 20:0.15625 21:0.204861 22:0 23:0 24:0.236111 25:0.0798611 26:0 27:0 28:0.335069 29:0 30:0 
-0 -0 -0 -0 -0 -0 -0 0 0 19.5381352366961 0 16.55940190701606 0 0 0 0 0 0 1:0.0830078 2:0.159505 3:0.0426432 4:0.107747 5:0.0957031 6:0.0817057 7:0.094184 8:0.148438 9:0.119792 10:0.0177951 11:0.0992268 12:0.0910653 13:0.0942869 14:0.0953608 15:0 16:0.201389 17:0.246528 18:0 19:0 20:0.175347 21:0.232639 22:0 23:0 24:0.25 25:0.0711806 26:0 27:0 28:0.34375 29:0 30:0 
-0 -0 -0 -18.79844343676434 -0 -0 -64.03456455568173 22.47978727751802 11.7631230454717 19.5381352366961 0 16.55940190701606 20.63722278737304 16.98610259668271 0 18.39457763295522 17.00162038749454 35.56887524977077 1:0.0751953 2:0.154948 3:0.0429688 4:0.100586 5:0.09375 6:0.078776 7:0.0911458 8:0.142361 9:0.108507 10:0.0221354 11:0.0934278 12:0.088488 13:0.0889175 14:0.0927835 15:0 16:0.199653 17:0.225694 18:0 19:0 20:0.164931 21:0.208333 22:0 23:0 24:0.236111 25:0.0885417 26:0 27:0 28:0.333333 29:0 30:0 
-13.9867566452808 -16.4303266216194 -14.81289306371396 -0 -17.12083544764306 -14.80247351732885 -0 22.47978727751802 0 19.5381352366961 0 16.55940190701606 0 0 12.37924936318005 0 0 0 1:0.0729167 2:0.155924 3:0.0403646 4:0.102214 5:0.0898438 6:0.0771484 7:0.0924479 8:0.138021 9:0.110677 10:0.0177951 11:0.0921392 12:0.0867698 13:0.0895619 14:0.0891323 15:0 16:0.199653 17:0.232639 18:0 19:0 20:0.170139 21:0.210069 22:0 23:0 24:0.223958 25:0.0711806 26:0 27:0 28:0.328125 29:0 30:0 
-0 -0 -0 -0 -0 -0 -0 0 0 0 0 0 0 0 12.37924936318005 0 0 0 1:0.0755208 2:0.155924 3:0.0390625 4:0.105469 5:0.086263 6:0.078776 7:0.0907118 8:0.141493 9:0.111979 10:0.0164931 11:0.0929983 12:0.0871993 13:0.0906357 14:0.0891323 15:0 16:0.210069 17:0.239583 18:0 19:0 20:0.152778 21:0.208333 22:0 23:0 24:0.229167 25:0.0659722 26:0 27:0 28:0.336806 29:0 30:0 
-13.9867566452808 -16.4303266216194 -14.81289306371396 -18.79844343676434 -17.12083544764306 -14.80247351732885 -64.03456455568173 22.47978727751802 11.7631230454717 0 16.26557028743114 0 20.63722278737304 16.98610259668271 12.37924936318005 18.39457763295522 17.00162038749454 35.56887524977077 1:0.0800781 2:0.144206 3:0.0410156 4:0.101237 5:0.0891927 6:0.0748698 7:0.0920139 8:0.134983 9:0.107205 10:0.0195312 11:0.092354 12:0.0844072 13:0.0891323 14:0.0874141 15:0 16:0.210069 17:0.220486 18:0 19:0 20:0.157986 21:0.208333 22:0 23:0 24:0.225694 25:0.078125 26:0 27:0 28:0.314236 29:0 30:0 
-13.9867566452808 -16.4303266216194 -14.81289306371396 -18.79844343676434 -17.12083544764306 -14.80247351732885 -64.03456455568173 0 11.7631230454717 0 16.26557028743114 0 20.63722278737304 16.98610259668271 12.37924936318005 0 17.00162038749454 0 1:0.0758464 2:0.150391 3:0.0384115 4:0.102214 5:0.0891927 6:0.0732422 7:0.0920139 8:0.135417 9:0.107639 10:0.0177951 11:0.0919244 12:0.0841924 13:0.088488 14:0.0874141 15:0 16:0.208333 17:0.225694 18:0 19:0 20:0.159722 21:0.204861 22:0 23:0 24:0.225694 25:0.0711806 26:0 27:0 28:0.315972 29:0 30:0 
-0 -0 -0 -0 -0 -0 -64.03456455568173 0 0 0 0 0 0 0 0 18.39457763295522 0 0 1:0.0800781 2:0.148112 3:0.0432943 4:0.10319 5:0.0895182 6:0.078776 7:0.0911458 8:0.142361 9:0.108941 10:0.0195312 11:0.0932131 12:0.0878436 13:0.0902062 14:0.090421 15:0 16:0.206597 17:0.227431 18:0 19:0 20:0.157986 21:0.208333 22:0 23:0 24:0.244792 25:0.078125 26:0 27:0 28:0.324653 29:0 30:0 
-13.9867566452808 -16.4303266216194 -14.81289306371396 -18.79844343676434 -17.12083544764306 -0 -0 0 11.7631230454717 0 16.26557028743114 16.55940190701606 20.63722278737304 16.98610259668271 0 0 0 35.56887524977077 1:0.077474 2:0.152344 3:0.0416667 4:0.0999349 5:0.0924479 6:0.0791016 7:0.0911458 8:0.140191 9:0.110677 10:0.0199653 11:0.0910653 12:0.0897766 13:0.0893471 14:0.0910653 15:0 16:0.199653 17:0.21875 18:0 19:0 20:0.164931 21:0.223958 22:0 23:0 24:0.234375 25:0.0798611 26:0 27:0 28:0.326389 29:0 30:0 
-0 -0 -0 -0 -0 -45.8096930336824 -0 -0 0 0 0 0 0 0 33.79180251677911 0 0 0 1:0.107747 2:0.107747 3:0.127279 4:0.0800781 5:0.0934245 6:0.169271 7:0.0750868 8:0.15842 9:0.101562 10:0.121962 11:0.109751 12:0.118986 13:0.107174 14:0.12049 15:0 16:0.114583 17:0.175347 18:0.00347222 19:0 20:0.185764 21:0.0121528 22:0.215278 23:0.102431 24:0.171875 25:0 26:0.147569 27:0.185764 28:0.173611 29:0.173611 30:0.166667 
-22.12821723543951 -0 -21.15305285547407 -0 -0 -45.8096930336824 -0 -0 0 0 29.12760415649397 22.71870175875722 23.92311676682035 0 33.79180251677911 0 0 33.25221920574855 1:0.114909 2:0.0983073 3:0.127604 4:0.0807292 5:0.0983073 6:0.161784 7:0.078559 8:0.151042 9:0.0972222 10:0.127604 11:0.11061 12:0.116409 13:0.109751 14:0.116624 15:0 16:0.128472 17:0.171875 18:0 19:0 20:0.185764 21:0.0225694 22:0.194444 23:0.0868056 24:0.168403 25:0 26:0.173611 27:0.1875 28:0.161458 29:0.170139 30:0.166667 
-0 -0 -0 -0 -0 -0 -21.2283095735255 -22.47978727751802 0 0 0 0 0 0 33.79180251677911 0 0 33.25221920574855 1:0.102865 2:0.115885 3:0.120768 4:0.0791016 5:0.0927734 6:0.167643 7:0.0737847 8:0.162326 9:0.0980903 10:0.11849 11:0.109966 12:0.116624 13:0.106744 14:0.118986 15:0 16:0.112847 17:0.177083 18:0 19:0 20:0.182292 21:0.0190972 22:0.196181 23:0.105903 24:0.180556 25:0 26:0.154514 27:0.185764 28:0.177083 29:0.166667 30:0.152778 
-0 -0 -0 -0 -0 -0 -21.2283095735255 -22.47978727751802 0 0 0 0 0 0 0 21.94455529722606 35.63183950693322 0 1:0.105143 2:0.111654 3:0.124349 4:0.0784505 5:0.0924479 6:0.170247 7:0.0746528 8:0.16059 9:0.10026 10:0.119358 11:0.109536 12:0.118342 13:0.106744 14:0.119845 15:0 16:0.107639 17:0.175347 18:0.00173611 19:0 20:0.190972 21:0.0121528 22:0.211806 23:0.100694 24:0.178819 25:0 26:0.154514 27:0.1875 28:0.175347 29:0.170139 30:0.152778 
-22.12821723543951 -33.86418772512169 -21.15305285547407 -32.44041203066109 -28.50525366112452 -45.8096930336824 -0 -0 18.15859969418571 35.3785127382726 29.12760415649397 0 23.92311676682035 24.52204372093873 33.79180251677911 21.94455529722606 35.63183950693322 0 1:0.0976562 2:0.102865 3:0.126628 4:0.0751953 5:0.0869141 6:0.165039 7:0.0651042 8:0.150608 9:0.0989583 10:0.121528 11:0.102663 12:0.11555 13:0.106529 14:0.110825 15:0 16:0.0989583 17:0.166667 18:0.00520833 19:0 20:0.161458 21:0.0121528 22:0.211806 23:0.125 24:0.152778 25:0 26:0.173611 27:0.161458 28:0.163194 29:0.164931 30:0.147569 
-22.12821723543951 -33.86418772512169 -21.15305285547407 -32.44041203066109 -28.50525366112452 -0 -21.2283095735255 -22.47978727751802 18.15859969418571 35.3785127382726 29.12760415649397 22.71870175875722 23.92311676682035 24.52204372093873 0 21.94455529722606 35.63183950693322 33.25221920574855 1:0.0940755 2:0.113607 3:0.118164 4:0.0719401 5:0.09375 6:0.160156 7:0.0703125 8:0.154514 9:0.0915799 10:0.118056 11:0.105026 12:0.112758 13:0.102234 14:0.114261 15:0 16:0.105903 17:0.154514 18:0 19:0 20:0.175347 21:0.0243056 22:0.1875 23:0.119792 24:0.184028 25:0 26:0.161458 27:0.154514 28:0.159722 29:0.163194 30:0.147569 
-22.12821723543951 -33.86418772512169 -21.15305285547407 -32.44041203066109 -28.50525366112452 -0 -21.2283095735255 -22.47978727751802 18.15859969418571 35.3785127382726 29.12760415649397 22.71870175875722 23.92311676682035 24.52204372093873 0 21.94455529722606 35.63183950693322 33.25221920574855 1:0.0966797 2:0.111328 3:0.117188 4:0.0735677 5:0.0957031 6:0.155924 7:0.0707465 8:0.159722 9:0.094184 10:0.108941 11:0.107603 12:0.109751 13:0.102878 14:0.113187 15:0 16:0.104167 17:0.157986 18:0 19:0 20:0.178819 21:0.0329861 22:0.185764 23:0.116319 24:0.182292 25:0 26:0.170139 27:0.168403 28:0.171875 29:0.138889 30:0.126736 
-22.12821723543951 -33.86418772512169 -21.15305285547407 -32.44041203066109 -28.50525366112452 -45.8096930336824 -21.2283095735255 -22.47978727751802 18.15859969418571 35.3785127382726 29.12760415649397 22.71870175875722 23.92311676682035 24.52204372093873 0 21.94455529722606 35.63183950693322 33.25221920574855 1:0.0908203 2:0.104492 3:0.119792 4:0.069987 5:0.0908203 6:0.154297 7:0.0694444 8:0.143663 9:0.0907118 10:0.116319 11:0.0992268 12:0.111469 13:0.102878 14:0.106314 15:0 16:0.09375 17:0.152778 18:0.00173611 19:0 20:0.184028 21:0.015625 22:0.192708 23:0.116319 24:0.15625 25:0 26:0.184028 27:0.147569 28:0.154514 29:0.142361 30:0.138889 
-0 -0 -0 -0 -0 -45.8096930336824 -0 -0 0 0 0 0 0 0 33.79180251677911 0 0 0 1:0.0999349 2:0.118164 3:0.124674 4:0.078125 5:0.0921224 6:0.172526 7:0.0742188 8:0.163628 9:0.0972222 10:0.121962 11:0.110395 12:0.118771 13:0.106314 14:0.121564 15:0 16:0.112847 17:0.170139 18:0.00173611 19:0 20:0.184028 21:0.00868056 22:0.208333 23:0.123264 24:0.180556 25:0 26:0.159722 27:0.178819 28:0.171875 29:0.170139 30:0.157986 
-0 -33.86418772512169 -0 -32.44041203066109 -28.50525366112452 -0 -0 -0 18.15859969418571 35.3785127382726 0 22.71870175875722 0 24.52204372093873 0 0 0 0 1:0.0904948 2:0.11556 3:0.122396 4:0.0735677 5:0.0901693 6:0.164714 7:0.0690104 8:0.151042 9:0.0928819 10:0.125 11:0.102663 12:0.116838 13:0.103737 14:0.114476 15:0 16:0.09375 17:0.173611 18:0.00173611 19:0 20:0.182292 21:0.0121528 22:0.184028 23:0.111111 24:0.171875 25:0 26:0.168403 27:0.157986 28:0.163194 29:0.168403 30:0.163194 
-16.10331250097483 -78.57978365896898 -20.84386435822112 -62.77089311837532 -52.76181775440456 -19.92590797881185 -13.56535941635018 -11.7631230454717 -18.15859969418571 21.70971826384014 23.44474252094464 0 15.17179711633762 73.25535452109224 13.66277597045321 67.14357722942762 33.34794154594749 16.37261591549626 1:0.153646 2:0.0807292 3:0.0960286 4:0.0843099 5:0.182617 6:0.0634766 7:0.131076 8:0.133681 9:0.0872396 10:0.0885417 11:0.135954 12:0.0835481 13:0.086555 14:0.132517 15:0 16:0 17:0 18:0 19:0.289931 20:0.234375 21:0.144097 22:0.204861 23:0.326389 24:0.208333 25:0.140625 26:0.213542 27:0 28:0 29:0 30:0 
-16.10331250097483 -0 -20.84386435822112 -0 -0 -19.92590797881185 -0 -0 -0 0 0 0 0 0 0 67.14357722942762 0 0 1:0.154948 2:0.0813802 3:0.0986328 4:0.061849 5:0.198568 6:0.0745443 7:0.125 8:0.143663 9:0.0915799 10:0.0863715 11:0.137457 12:0.0850515 13:0.0876289 14:0.13488 15:0 16:0 17:0 18:0 19:0.291667 20:0.208333 21:0.154514 22:0.211806 23:0.350694 24:0.223958 25:0.126736 26:0.21875 27:0 28:0 29:0 30:0 
-0 -0 -20.84386435822112 -0 -0 -0 -0 -0 -0 0 0 23.14633518778476 0 0 0 0 0 0 1:0.154948 2:0.0878906 3:0.0970052 4:0.0559896 5:0.204753 6:0.0791016 7:0.12283 8:0.149306 9:0.0872396 10:0.09375 11:0.139605 12:0.0861254 13:0.0863402 14:0.13939 15:0 16:0 17:0 18:0 19:0.276042 20:0.215278 21:0.159722 22:0.189236 23:0.355903 24:0.241319 25:0.154514 26:0.220486 27:0 28:0 29:0 30:0 
-0 -0 -20.84386435822112 -0 -0 -0 -0 -0 -0 0 0 0 0 0 0 67.14357722942762 0 0 1:0.158203 2:0.0849609 3:0.09375 4:0.055013 5:0.205729 6:0.0761719 7:0.12934 8:0.145833 9:0.0889757 10:0.0850694 11:0.140464 12:0.0833333 13:0.084622 14:0.13896 15:0 16:0 17:0 18:0 19:0.307292 20:0.210069 21:0.157986 22:0.197917 23:0.348958 24:0.234375 25:0.133681 26:0.206597 27:0 28:0 29:0 30:0 
-16.10331250097483 -0 -20.84386435822112 -0 -52.76181775440456 -0 -13.56535941635018 -0 -0 0 0 0 15.17179711633762 73.25535452109224 0 67.14357722942762 0 16.37261591549626 1:0.151367 2:0.0846354 3:0.0950521 4:0.0511068 5:0.204102 6:0.0758464 7:0.123264 8:0.143229 9:0.0876736 10:0.0872396 11:0.137242 12:0.082689 13:0.0859107 14:0.134021 15:0 16:0 17:0 18:0 19:0.295139 20:0.197917 21:0.154514 22:0.196181 23:0.342014 24:0.230903 25:0.128472 26:0.220486 27:0 28:0 29:0 30:0 
-0 -78.57978365896898 -0 -62.77089311837532 -0 -0 -0 -0 -0 0 23.44474252094464 23.14633518778476 0 0 13.66277597045321 0 33.34794154594749 0 1:0.139323 2:0.0875651 3:0.0970052 4:0.0442708 5:0.19694 6:0.0826823 7:0.106771 8:0.148003 9:0.0859375 10:0.0911458 11:0.128222 12:0.0869845 13:0.084622 14:0.130799 15:0 16:0 17:0 18:0 19:0.248264 20:0.178819 21:0.152778 22:0.190972 23:0.369792 24:0.222222 25:0.144097 26:0.220486 27:0 28:0 29:0 30:0 
-0 -0 -0 -62.77089311837532 -0 -0 -0 -11.7631230454717 -18.15859969418571 21.70971826384014 23.44474252094464 23.14633518778476 0 0 0 0 0 0 1:0.14388 2:0.0810547 3:0.0947266 4:0.0423177 5:0.201823 6:0.0755208 7:0.106337 8:0.153212 9:0.0842014 10:0.0824653 11:0.130584 12:0.0818299 13:0.0824742 14:0.129725 15:0 16:0 17:0 18:0 19:0.246528 20:0.178819 21:0.151042 22:0.185764 23:0.376736 24:0.236111 25:0.112847 26:0.217014 27:0 28:0 29:0 30:0 
-16.10331250097483 -78.57978365896898 -0 -0 -52.76181775440456 -19.92590797881185 -13.56535941635018 -11.7631230454717 -18.15859969418571 21.70971826384014 0 0 15.17179711633762 73.25535452109224 13.66277597045321 67.14357722942762 33.34794154594749 16.37261591549626 1:0.144206 2:0.0875651 3:0.0973307 4:0.0491536 5:0.201497 6:0.0784505 7:0.117622 8:0.143229 9:0.0889757 10:0.0889757 11:0.132947 12:0.0854811 13:0.0861254 14:0.132517 15:0 16:0 17:0.015625 18:0 19:0.276042 20:0.194444 21:0.138889 22:0.201389 23:0.340278 24:0.232639 25:0.140625 26:0.215278 27:0 28:0 29:0 30:0 
-16.10331250097483 -78.57978365896898 -0 -62.77089311837532 -52.76181775440456 -19.92590797881185 -13.56535941635018 -11.7631230454717 -18.15859969418571 21.70971826384014 23.44474252094464 23.14633518778476 15.17179711633762 73.25535452109224 13.66277597045321 0 33.34794154594749 16.37261591549626 1:0.141276 2:0.0820312 3:0.0953776 4:0.0439453 5:0.194661 6:0.0800781 7:0.107205 8:0.146701 9:0.0850694 10:0.0859375 11:0.128651 12:0.0829038 13:0.0824742 14:0.129296 15:0 16:0 17:0 18:0 19:0.239583 20:0.189236 21:0.138889 22:0.201389 23:0.354167 24:0.232639 25:0.135417 26:0.208333 27:0 28:0 29:0 30:0 
-0 -78.57978365896898 -0 -62.77089311837532 -52.76181775440456 -19.92590797881185 -13.56535941635018 -11.7631230454717 -18.15859969418571 21.70971826384014 23.44474252094464 23.14633518778476 15.17179711633762 73.25535452109224 13.66277597045321 0 33.34794154594749 16.37261591549626 1:0.137044 2:0.0833333 3:0.093099 4:0.0442708 5:0.193034 6:0.0761719 7:0.101128 8:0.148438 9:0.0833333 10:0.0850694 11:0.126289 12:0.0822595 13:0.0811856 14:0.126718 15:0 16:0 17:0 18:0 19:0.223958 20:0.180556 21:0.137153 22:0.196181 23:0.350694 24:0.243056 25:0.140625 26:0.199653 27:0 28:0 29:0 30:0 
-0 -0 -28.54447671401617 -0 -0 -28.19489298699509 -0 -0 -35.3785127382726 -0 0 36.97044572976135 0 0 22.2588169425931 0 0 0 1:0.077474 2:0.183594 3:0.137695 4:0.0813802 5:0.198893 6:0.11849 7:0.077691 8:0.130642 9:0.179688 10:0.143663 11:0.132947 12:0.133162 13:0.132517 14:0.131873 15:0 16:0 17:0.305556 18:0 19:0.140625 20:0.170139 21:0.244792 22:0.168403 23:0.161458 24:0.236111 25:0 26:0.1875 27:0 28:0.125 29:0.163194 30:0.223958 
-20.80973729858928 -30.03284111637598 -28.54447671401617 -31.50548831986194 -0 -28.19489298699509 -17.78838330784709 -19.5381352366961 -35.3785127382726 -21.70971826384014 24.95204114944187 36.97044572976135 0 0 22.2588169425931 24.70508345791616 22.12120754632397 16.84675096460641 1:0.078776 2:0.18099 3:0.133464 4:0.0804036 5:0.198242 6:0.114583 7:0.0733507 8:0.137587 9:0.176649 10:0.136719 11:0.130799 12:0.132517 13:0.12951 14:0.131229 15:0 16:0 17:0.288194 18:0 19:0.128472 20:0.164931 21:0.239583 22:0.178819 23:0.180556 24:0.237847 25:0 26:0.190972 27:0 28:0.131944 29:0.152778 30:0.203125 
-0 -0 -28.54447671401617 -0 -0 -0 -0 -0 -0 -0 0 0 0 0 22.2588169425931 0 0 0 1:0.0771484 2:0.189128 3:0.138021 4:0.0826823 5:0.198893 6:0.122721 7:0.0802951 8:0.126302 9:0.180556 10:0.15191 11:0.132088 12:0.138101 13:0.133806 14:0.134235 15:0 16:0 17:0.293403 18:0 19:0.151042 20:0.170139 21:0.256944 22:0.171875 23:0.149306 24:0.239583 25:0 26:0.1875 27:0 28:0.116319 29:0.180556 30:0.239583 
-20.80973729858928 -0 -28.54447671401617 -31.50548831986194 -28.21292182941887 -28.19489298699509 -0 -0 -35.3785127382726 -0 24.95204114944187 36.97044572976135 19.62928196737231 0 22.2588169425931 0 0 0 1:0.0729167 2:0.180339 3:0.129557 4:0.0794271 5:0.190104 6:0.113281 7:0.0664062 8:0.125 9:0.176215 10:0.142795 11:0.122852 12:0.132947 13:0.128007 14:0.125859 15:0 16:0 17:0.274306 18:0 19:0.133681 20:0.131944 21:0.267361 22:0.163194 23:0.157986 24:0.237847 25:0 26:0.185764 27:0 28:0.104167 29:0.170139 30:0.215278 
-20.80973729858928 -30.03284111637598 -0 -0 -28.21292182941887 -28.19489298699509 -17.78838330784709 -19.5381352366961 -35.3785127382726 -21.70971826384014 0 0 19.62928196737231 25.82955973922903 0 24.70508345791616 22.12120754632397 16.84675096460641 1:0.0703125 2:0.176432 3:0.126953 4:0.078125 5:0.191406 6:0.104167 7:0.0794271 8:0.116319 9:0.174045 10:0.128472 11:0.123926 12:0.126289 13:0.128866 14:0.119416 15:0 16:0 17:0.284722 18:0 19:0.159722 20:0.157986 21:0.243056 22:0.168403 23:0.118056 24:0.243056 25:0 26:0.175347 27:0 28:0.104167 29:0.137153 30:0.201389 
-0 -0 -0 -0 -0 -0 -17.78838330784709 -19.5381352366961 -0 -0 0 0 19.62928196737231 25.82955973922903 0 24.70508345791616 0 16.84675096460641 1:0.0696615 2:0.182292 3:0.125651 4:0.0791016 5:0.192708 6:0.105794 7:0.0681424 8:0.125868 9:0.179688 10:0.129774 11:0.121564 12:0.130584 13:0.128222 14:0.122208 15:0 16:0 17:0.288194 18:0 19:0.135417 20:0.137153 21:0.265625 22:0.164931 23:0.138889 24:0.255208 25:0 26:0.178819 27:0 28:0.109375 29:0.140625 30:0.199653 
-20.80973729858928 -30.03284111637598 -28.54447671401617 -31.50548831986194 -28.21292182941887 -28.19489298699509 -17.78838330784709 -19.5381352366961 -0 -21.70971826384014 24.95204114944187 0 0 25.82955973922903 22.2588169425931 24.70508345791616 22.12120754632397 16.84675096460641 1:0.0745443 2:0.179362 3:0.125 4:0.078776 5:0.192057 6:0.108073 7:0.0742188 8:0.123264 9:0.176215 10:0.13151 11:0.124785 12:0.128436 13:0.127148 14:0.124141 15:0 16:0 17:0.288194 18:0 19:0.142361 20:0.154514 21:0.260417 22:0.15625 23:0.152778 24:0.223958 25:0 26:0.178819 27:0 28:0.116319 29:0.137153 30:0.210069 
-0 -30.03284111637598 -0 -31.50548831986194 -28.21292182941887 -0 -0 -0 -0 -21.70971826384014 24.95204114944187 36.97044572976135 19.62928196737231 25.82955973922903 0 0 22.12120754632397 0 1:0.077474 2:0.176432 3:0.125 4:0.0768229 5:0.197591 6:0.104492 7:0.0698785 8:0.127604 9:0.174479 10:0.133247 11:0.12543 12:0.128007 13:0.125859 14:0.125644 15:0 16:0 17:0.274306 18:0 19:0.128472 20:0.151042 21:0.267361 22:0.15625 23:0.170139 24:0.244792 25:0 26:0.180556 27:0 28:0.0954861 29:0.154514 30:0.197917 
-20.80973729858928 -30.03284111637598 -0 -31.50548831986194 -28.21292182941887 -0 -17.78838330784709 -19.5381352366961 -35.3785127382726 -21.70971826384014 24.95204114944187 36.97044572976135 19.62928196737231 25.82955973922903 0 24.70508345791616 22.12120754632397 16.84675096460641 1:0.0748698 2:0.171875 3:0.12207 4:0.0768229 5:0.190104 6:0.101888 7:0.0672743 8:0.125 9:0.170139 10:0.12934 11:0.121349 12:0.12543 13:0.123926 14:0.120919 15:0 16:0 17:0.269097 18:0 19:0.116319 20:0.152778 21:0.262153 22:0.149306 23:0.171875 24:0.232639 25:0 26:0.178819 27:0 28:0.0954861 29:0.138889 30:0.199653 
-111.3154621801347 -0 -69.19630905527033 -0 -0 -0 -16.67898511715253 -16.26557028743114 -29.12760415649397 -0 -0 0 0 0 51.49919922032377 0 0 30.85499058380414 1:0.128255 2:0.085612 3:0.113607 4:0.0953776 5:0.103841 6:0.128255 7:0.12283 8:0.108073 9:0.0828993 10:0.12283 11:0.106529 12:0.110825 13:0.107818 14:0.109751 15:0.126736 16:0.164931 17:0 18:0 19:0.177083 20:0.0225694 21:0.199653 22:0.131944 23:0.222222 24:0 25:0 26:0.173611 27:0.0260417 28:0.184028 29:0.145833 30:0.171875 
-111.3154621801347 -0 -69.19630905527033 -0 -70.9111930843774 -54.67228578993462 -16.67898511715253 -0 -0 -0 -0 0 26.71957744847008 0 51.49919922032377 19.49864704236458 0 0 1:0.129232 2:0.0882161 3:0.110026 4:0.0970052 5:0.104492 6:0.125977 7:0.12283 8:0.108941 9:0.0855035 10:0.119358 11:0.107818 12:0.109321 13:0.10567 14:0.111899 15:0.119792 16:0.178819 17:0.0173611 18:0 19:0.192708 20:0 21:0.182292 22:0.142361 23:0.236111 24:0 25:0 26:0.163194 27:0.015625 28:0.184028 29:0.161458 30:0.152778 
-0 -38.85679081827035 -69.19630905527033 -39.10501777557384 -70.9111930843774 -54.67228578993462 -16.67898511715253 -16.26557028743114 -29.12760415649397 -23.44474252094464 -24.95204114944187 21.57935652491556 26.71957744847008 24.55570976569775 51.49919922032377 19.49864704236458 16.97780881110318 30.85499058380414 1:0.124349 2:0.0797526 3:0.105469 4:0.0986328 5:0.0947266 6:0.116211 7:0.119358 8:0.101997 9:0.0815972 10:0.109809 11:0.104811 12:0.100945 13:0.102234 14:0.103522 15:0.118056 16:0.149306 17:0 18:0 19:0.180556 20:0.0295139 21:0.194444 22:0.131944 23:0.215278 24:0 25:0 26:0.161458 27:0.0329861 28:0.159722 29:0.130208 30:0.147569 
-111.3154621801347 -38.85679081827035 -0 -39.10501777557384 -70.9111930843774 -54.67228578993462 -16.67898511715253 -16.26557028743114 -29.12760415649397 -23.44474252094464 -24.95204114944187 21.57935652491556 26.71957744847008 24.55570976569775 0 19.49864704236458 16.97780881110318 30.85499058380414 1:0.123047 2:0.0810547 3:0.110026 4:0.0976562 5:0.0976562 6:0.118815 7:0.117622 8:0.104601 9:0.0837674 10:0.112847 11:0.103737 12:0.104811 13:0.104596 14:0.103952 15:0.118056 16:0.154514 17:0 18:0 19:0.170139 20:0.0277778 21:0.190972 22:0.144097 23:0.227431 24:0 25:0 26:0.171875 27:0.0173611 28:0.173611 29:0.140625 30:0.138889 
-111.3154621801347 -0 -69.19630905527033 -0 -0 -54.67228578993462 -0 -0 -0 -0 -0 21.57935652491556 26.71957744847008 0 51.49919922032377 0 0 30.85499058380414 1:0.131185 2:0.0924479 3:0.111003 4:0.100911 5:0.10319 6:0.130534 7:0.128038 8:0.109809 9:0.0833333 10:0.125 11:0.109751 12:0.112113 13:0.107818 14:0.114691 15:0.138889 16:0.157986 17:0 18:0 19:0.180556 20:0.0347222 21:0.196181 22:0.137153 23:0.232639 24:0 25:0 26:0.166667 27:0.0260417 28:0.180556 29:0.168403 30:0.164931 
-0 -38.85679081827035 -69.19630905527033 -39.10501777557384 -70.9111930843774 -0 -0 -16.26557028743114 -0 -23.44474252094464 -24.95204114944187 21.57935652491556 0 24.55570976569775 0 0 0 0 1:0.125 2:0.0839844 3:0.110352 4:0.0960286 5:0.0999349 6:0.123372 7:0.119358 8:0.107205 9:0.0807292 10:0.11849 11:0.105026 12:0.106959 13:0.104381 14:0.107818 15:0.125 16:0.145833 17:0 18:0 19:0.173611 20:0.0329861 21:0.194444 22:0.128472 23:0.234375 24:0.00173611 25:0 26:0.168403 27:0.015625 28:0.177083 29:0.144097 30:0.161458 
-0 -0 -0 -39.10501777557384 -0 -0 -0 -16.26557028743114 -0 -0 -0 0 0 24.55570976569775 0 0 16.97780881110318 0 1:0.121745 2:0.0859375 3:0.109049 4:0.0950521 5:0.0992839 6:0.122396 7:0.115451 8:0.105903 9:0.0859375 10:0.115017 11:0.103522 12:0.106529 13:0.103522 14:0.106959 15:0.123264 16:0.152778 17:0 18:0 19:0.168403 20:0.0173611 21:0.194444 22:0.149306 23:0.234375 24:0 25:0 26:0.157986 27:0.0173611 28:0.171875 29:0.147569 30:0.154514 
-0 -38.85679081827035 -0 -0 -0 -0 -0 -0 -0 -23.44474252094464 -24.95204114944187 0 26.71957744847008 0 0 19.49864704236458 16.97780881110318 0 1:0.127604 2:0.0869141 3:0.109049 4:0.0966797 5:0.101562 6:0.125326 7:0.118924 8:0.109375 9:0.0850694 10:0.118056 11:0.106744 12:0.108033 13:0.102878 14:0.111899 15:0.130208 16:0.144097 17:0.00173611 18:0 19:0.171875 20:0.0295139 21:0.194444 22:0.144097 23:0.244792 24:0.00520833 25:0 26:0.163194 27:0.00868056 28:0.178819 29:0.161458 30:0.147569 
-0 -38.85679081827035 -0 -39.10501777557384 -70.9111930843774 -54.67228578993462 -0 -0 -29.12760415649397 -23.44474252094464 -24.95204114944187 21.57935652491556 0 24.55570976569775 0 19.49864704236458 16.97780881110318 0 1:0.124674 2:0.0817057 3:0.108398 4:0.0924479 5:0.102865 6:0.119466 7:0.117188 8:0.105035 9:0.0842014 10:0.113281 11:0.104596 12:0.104381 13:0.103952 14:0.105026 15:0.114583 16:0.140625 17:0 18:0 19:0.177083 20:0.0364583 21:0.192708 22:0.144097 23:0.241319 24:0.00347222 25:0 26:0.163194 27:0.0104167 28:0.164931 29:0.128472 30:0.161458 
-111.3154621801347 -0 -0 -0 -0 -0 -16.67898511715253 -0 -29.12760415649397 -0 -0 0 0 0 51.49919922032377 0 0 30.85499058380414 1:0.125 2:0.0875651 3:0.11263 4:0.0979818 5:0.101888 6:0.125326 7:0.12066 8:0.108073 9:0.0855035 10:0.119358 11:0.106744 12:0.109107 13:0.107603 14:0.108462 15:0.126736 16:0.166667 17:0.00173611 18:0 19:0.168403 20:0.0208333 21:0.192708 22:0.147569 23:0.234375 24:0.00173611 25:0 26:0.171875 27:0.0173611 28:0.178819 29:0.147569 30:0.157986 
-0 -24.44945496939668 -27.53839436665955 -42.16085350944316 -20.80665328106417 -14.82791265369775 -12.14727137003847 -16.55940190701606 -22.71870175875722 -23.14633518778476 -36.97044572976135 -0 0 21.73035063490547 11.78674724664818 17.89640337805332 17.46708734836745 17.71214259057205 1:0.120117 2:0.181966 3:0.0966797 4:0.0826823 5:0.194336 6:0.121745 7:0.124566 8:0.15842 9:0.107639 10:0.141059 11:0.152921 12:0.112758 13:0.135095 14:0.131658 15:0 16:0.128472 17:0.0902778 18:0 19:0 20:0.369792 21:0.300347 22:0.0399306 23:0.302083 24:0.253472 25:0.0486111 26:0.197917 27:0 28:0.078125 29:0.157986 30:0.159722 
-15.61014679043343 -24.44945496939668 -27.53839436665955 -42.16085350944316 -20.80665328106417 -14.82791265369775 -12.14727137003847 -16.55940190701606 -22.71870175875722 -23.14633518778476 -36.97044572976135 -21.57935652491556 19.79548274244788 21.73035063490547 14.05765599261212 17.89640337805332 17.46708734836745 17.71214259057205 1:0.0797526 2:0.193034 3:0.108073 4:0.0804036 5:0.209961 6:0.0904948 7:0.111545 8:0.137153 9:0.116319 10:0.142795 11:0.143256 12:0.11018 13:0.149914 14:0.105026 15:0 16:0.130208 17:0.104167 18:0 19:0 20:0.315972 21:0.309028 22:0.0520833 23:0.28125 24:0.232639 25:0.0364583 26:0.201389 27:0 28:0.0347222 29:0.128472 30:0.204861 
-0 -0 -27.53839436665955 -0 -0 -0 -0 -0 -0 -0 -0 -21.57935652491556 0 0 2.270908745963933 0 0 0 1:0.0934245 2:0.21224 3:0.114909 4:0.0914714 5:0.210938 6:0.118164 7:0.135851 8:0.15842 9:0.105035 10:0.161458 11:0.155928 12:0.124356 13:0.157216 14:0.123067 15:0 16:0.211806 17:0.0503472 18:0 19:0 20:0.331597 21:0.359375 22:0.0104167 23:0.321181 24:0.211806 25:0.0416667 26:0.243056 27:0 28:0.100694 29:0.166667 30:0.194444 
-15.61014679043343 -0 -27.53839436665955 -0 -0 -0 -12.14727137003847 -16.55940190701606 -22.71870175875722 -0 -36.97044572976135 -21.57935652491556 19.79548274244788 0 14.05765599261212 0 0 17.71214259057205 1:0.0745443 2:0.219401 3:0.109701 4:0.085612 5:0.19401 6:0.124023 7:0.119358 8:0.147135 9:0.11849 10:0.153212 11:0.145833 12:0.123282 13:0.155498 14:0.114476 15:0 16:0.154514 17:0.0729167 18:0 19:0 20:0.322917 21:0.361111 22:0.0399306 23:0.276042 24:0.234375 25:0.0555556 26:0.208333 27:0 28:0.078125 29:0.157986 30:0.190972 
-0 -24.44945496939668 -0 -42.16085350944316 -20.80665328106417 -0 -12.14727137003847 -16.55940190701606 -0 -23.14633518778476 -0 -21.57935652491556 19.79548274244788 21.73035063490547 0 17.89640337805332 17.46708734836745 17.71214259057205 1:0.0742188 2:0.214844 3:0.0983073 4:0.0768229 5:0.205729 6:0.104818 7:0.110243 8:0.146267 9:0.112413 10:0.147569 11:0.141108 12:0.116838 13:0.147122 14:0.111684 15:0 16:0.130208 17:0.0572917 18:0 19:0 20:0.310764 21:0.357639 22:0.0347222 23:0.286458 24:0.239583 25:0.0677083 26:0.227431 27:0 28:0.0590278 29:0.163194 30:0.131944 
-15.61014679043343 -0 -27.53839436665955 -0 -0 -14.82791265369775 -0 -0 -0 -0 -36.97044572976135 -0 0 0 14.05765599261212 0 0 0 1:0.0898438 2:0.21224 3:0.114583 4:0.0875651 5:0.210938 6:0.118164 7:0.117622 8:0.154948 9:0.11849 10:0.164497 11:0.152921 12:0.12457 13:0.15421 14:0.12543 15:0 16:0.157986 17:0.0902778 18:0 19:0 20:0.3125 21:0.342014 22:0.0416667 23:0.310764 24:0.237847 25:0.0607639 26:0.203125 27:0 28:0.0711806 29:0.15625 30:0.237847 
-0 -0 -0 -0 -0 -0 -0 -0 -0 -23.14633518778476 -0 -0 0 0 0 0 0 0 1:0.0810547 2:0.216471 3:0.102214 4:0.0807292 5:0.213216 6:0.105794 7:0.119358 8:0.152778 9:0.111545 10:0.149306 11:0.146907 12:0.119201 13:0.14884 14:0.119201 15:0 16:0.145833 17:0.0659722 18:0 19:0 20:0.331597 21:0.336806 22:0.0434028 23:0.302083 24:0.237847 25:0.0642361 26:0.201389 27:0 28:0.0711806 29:0.152778 30:0.178819 
-15.61014679043343 -24.44945496939668 -0 -42.16085350944316 -20.80665328106417 -14.82791265369775 -0 -0 -22.71870175875722 -0 -0 -0 19.79548274244788 21.73035063490547 0 17.89640337805332 17.46708734836745 0 1:0.0729167 2:0.219727 3:0.105143 4:0.0820312 5:0.209635 6:0.10612 7:0.116319 8:0.145833 9:0.114149 10:0.15408 11:0.144759 12:0.12006 13:0.151847 14:0.114691 15:0 16:0.138889 17:0.0711806 18:0 19:0 20:0.326389 21:0.336806 22:0.0486111 23:0.288194 24:0.229167 25:0.0677083 26:0.196181 27:0 28:0.0659722 29:0.159722 30:0.192708 
-15.61014679043343 -24.44945496939668 -0 -42.16085350944316 -20.80665328106417 -14.82791265369775 -12.14727137003847 -16.55940190701606 -22.71870175875722 -23.14633518778476 -36.97044572976135 -21.57935652491556 19.79548274244788 21.73035063490547 14.05765599261212 17.89640337805332 17.46708734836745 17.71214259057205 1:0.100911 2:0.171549 3:0.0960286 4:0.0729167 5:0.209961 6:0.085612 7:0.114149 8:0.144097 9:0.108941 10:0.124132 11:0.141323 12:0.104596 13:0.129725 14:0.116409 15:0 16:0.116319 17:0.0625 18:0 19:0 20:0.340278 21:0.303819 22:0.0694444 23:0.289931 24:0.244792 25:0.0277778 26:0.178819 27:0 28:0.0416667 29:0.135417 30:0.154514 
-25.76481405905007 -23.8956535238941 -22.30991998744692 -0 -30.94208462164811 -17.82980286987371 -0 -0 -0 -15.17179711633762 -19.62928196737231 -26.71957744847008 -0 0.1276686852224148 17.48627573803964 1.172953033958219 0 0 1:0.0973307 2:0.120443 3:0.111979 4:0.117839 5:0.115234 6:0.0966797 7:0.153212 8:0.0533854 9:0.0850694 10:0.148003 11:0.107388 12:0.111469 13:0.108462 14:0.110395 15:0.213542 16:0.204861 17:0.0451389 18:0 19:0.121528 20:0.0729167 21:0.166667 22:0.128472 23:0 24:0.213542 25:0.0850694 26:0.151042 27:0 28:0 29:0.355903 30:0 
-25.76481405905007 -0 -22.30991998744692 -0 -30.94208462164811 -17.82980286987371 -0 -0 -23.92311676682035 -15.17179711633762 -0 -26.71957744847008 -0 0 17.48627573803964 20.88895652013795 0 0 1:0.0914714 2:0.140299 3:0.0859375 4:0.111328 5:0.102865 6:0.103516 7:0.140625 8:0.0616319 9:0.0768229 10:0.144531 11:0.100515 12:0.110395 13:0.0996564 14:0.111469 15:0.163194 16:0.215278 17:0.0381944 18:0 19:0.111111 20:0.0729167 21:0.154514 22:0.114583 23:0 24:0.217014 25:0.123264 26:0.109375 27:0 28:0.0295139 29:0.345486 30:0 
-0 -0 -0 -0 -0 -0 -0 -0 -0 -0 -0 -0 -0 0 0 0 17.24198225261024 0 1:0.0755208 2:0.154948 3:0.0664062 4:0.102214 5:0.102214 6:0.0924479 7:0.12934 8:0.0538194 9:0.0720486 10:0.140625 11:0.0934278 12:0.103737 13:0.0940722 14:0.103308 15:0.135417 16:0.213542 17:0.0416667 18:0 19:0.0659722 20:0.102431 21:0.161458 22:0.0850694 23:0 24:0.206597 25:0.144097 26:0.0850694 27:0 28:0.00868056 29:0.333333 30:0 
-25.76481405905007 -23.8956535238941 -0 -24.87668539523684 -30.94208462164811 -17.82980286987371 -20.66559174618738 -20.63722278737304 -23.92311676682035 -15.17179711633762 -19.62928196737231 -0 -0 24.56318766781844 17.48627573803964 20.88895652013795 17.24198225261024 31.02958564560294 1:0.078776 2:0.158529 3:0.0605469 4:0.102539 5:0.101562 6:0.09375 7:0.12934 8:0.0577257 9:0.0733507 10:0.136719 11:0.0938574 12:0.104167 13:0.0942869 14:0.103737 15:0.147569 16:0.203125 17:0.0416667 18:0 19:0.0711806 20:0.0954861 21:0.159722 22:0.0920139 23:0 24:0.204861 25:0.151042 26:0.078125 27:0 28:0.0260417 29:0.317708 30:0 
-0 -0 -0 -0 -0 -0 -0 -0 -23.92311676682035 -0 -0 -0 -19.79548274244788 0 0 0 17.24198225261024 0 1:0.0755208 2:0.158529 3:0.0628255 4:0.100911 5:0.10319 6:0.0927734 7:0.130642 8:0.0542535 9:0.0716146 10:0.139323 11:0.0932131 12:0.104167 13:0.0953608 14:0.102234 15:0.140625 16:0.213542 17:0.0381944 18:0 19:0.0555556 20:0.112847 21:0.164931 22:0.0833333 23:0 24:0.201389 25:0.149306 26:0.0850694 27:0 28:0.015625 29:0.322917 30:0 
-0 -23.8956535238941 -0 -24.87668539523684 -0 -0 -20.66559174618738 -20.63722278737304 -0 -0 -0 -26.71957744847008 -19.79548274244788 24.56318766781844 0 19.71600348617973 0 31.02958564560294 1:0.0777995 2:0.159505 3:0.0579427 4:0.101237 5:0.100911 6:0.093099 7:0.130208 8:0.0581597 9:0.0707465 10:0.134549 11:0.0936426 12:0.102448 13:0.0947165 14:0.101589 15:0.138889 16:0.217014 17:0.0295139 18:0 19:0.0590278 20:0.105903 21:0.178819 22:0.0746528 23:0 24:0.199653 25:0.144097 26:0.0885417 27:0 28:0.0329861 29:0.305556 30:0 
-0 -0 -22.30991998744692 -24.87668539523684 -0 -0 -20.66559174618738 -20.63722278737304 -0 -0 -19.62928196737231 -0 -19.79548274244788 24.43551898259603 0 0 0 31.02958564560294 1:0.0784505 2:0.163411 3:0.0524089 4:0.0983073 5:0.0999349 6:0.0960286 7:0.13151 8:0.0590278 9:0.0690104 10:0.132812 11:0.0940722 12:0.101375 13:0.0940722 14:0.101804 15:0.145833 16:0.211806 17:0.0329861 18:0 19:0.0555556 20:0.112847 21:0.182292 22:0.0607639 23:0 24:0.201389 25:0.131944 26:0.0920139 27:0 28:0.0347222 29:0.307292 30:0 
-25.76481405905007 -23.8956535238941 -22.30991998744692 -24.87668539523684 -30.94208462164811 -17.82980286987371 -20.66559174618738 -20.63722278737304 -23.92311676682035 -15.17179711633762 -19.62928196737231 -26.71957744847008 -19.79548274244788 24.56318766781844 17.48627573803964 20.88895652013795 17.24198225261024 31.02958564560294 1:0.077474 2:0.159831 3:0.055013 4:0.104492 5:0.0979818 6:0.0898438 7:0.128038 8:0.0590278 9:0.0742188 10:0.128472 11:0.0938574 12:0.100301 13:0.0932131 14:0.101375 15:0.142361 16:0.201389 17:0.0503472 18:0 19:0.0694444 20:0.0989583 21:0.15625 22:0.0902778 23:0 24:0.196181 25:0.163194 26:0.0746528 27:0 28:0.0399306 29:0.276042 30:0 
-25.76481405905007 -23.8956535238941 -22.30991998744692 -24.87668539523684 -30.94208462164811 -17.82980286987371 -20.66559174618738 -20.63722278737304 -23.92311676682035 -15.17179711633762 -19.62928196737231 -26.71957744847008 -19.79548274244788 24.56318766781844 17.48627573803964 20.88895652013795 17.24198225261024 31.02958564560294 1:0.0843099 2:0.165365 3:0.0605469 4:0.104818 5:0.105469 6:0.0999349 7:0.137153 8:0.0646701 9:0.0755208 10:0.136285 11:0.0994416 12:0.106744 13:0.0996564 14:0.106744 15:0.152778 16:0.217014 17:0.0451389 18:0 19:0.078125 20:0.100694 21:0.178819 22:0.078125 23:0 24:0.210069 25:0.144097 26:0.107639 27:0 28:0.0486111 29:0.293403 30:0 
-0 -0 -18.66275106566641 -0 -0 -0 -0 -0 -0 -0 -0 -0 -0 -24.56318766781844 0 98.34587382909129 0 0 1:0.070638 2:0.0904948 3:0.0901693 4:0.0410156 5:0.168294 6:0.0419922 7:0.116319 8:0.0512153 9:0.0837674 10:0.0837674 11:0.0859107 12:0.0814003 13:0.0820447 14:0.0850515 15:0 16:0 17:0 18:0 19:0.239583 20:0.225694 21:0.144097 22:0.190972 23:0.0347222 24:0.170139 25:0.142361 26:0.192708 27:0 28:0 29:0 30:0 
-17.71691683996239 -165.3094622856003 -0 -77.27323014708762 -85.32107381014437 -20.71845699681947 -0 -0 -24.52204372093873 -0 -0 -0 -0 -0 13.62576411455906 98.34587382909129 39.79974889734859 0 1:0.0722656 2:0.0872396 3:0.0957031 4:0.0416667 5:0.169922 6:0.0436198 7:0.0972222 8:0.0733507 9:0.0885417 10:0.0811632 11:0.0852663 12:0.0844072 13:0.0835481 14:0.0861254 15:0 16:0 17:0 18:0 19:0.1875 20:0.201389 21:0.130208 22:0.223958 23:0.09375 24:0.199653 25:0.133681 26:0.190972 27:0 28:0 29:0 30:0 
-17.71691683996239 -165.3094622856003 -18.66275106566641 -77.27323014708762 -85.32107381014437 -20.71845699681947 -18.41539927736651 -16.98610259668271 -24.52204372093873 -73.25535452109224 -25.82955973922903 -24.55570976569775 -0 -0 13.62576411455906 98.34587382909129 39.79974889734859 24.57197465942469 1:0.0804036 2:0.0817057 3:0.0904948 4:0.0371094 5:0.171875 6:0.0436198 7:0.0980903 8:0.0763889 9:0.0807292 10:0.0815972 11:0.0871993 12:0.080756 13:0.0811856 14:0.0867698 15:0 16:0 17:0 18:0 19:0.199653 20:0.192708 21:0.133681 22:0.189236 23:0.0989583 24:0.206597 25:0.125 26:0.201389 27:0 28:0 29:0 30:0 
-17.71691683996239 -0 -18.66275106566641 -77.27323014708762 -85.32107381014437 -20.71845699681947 -18.41539927736651 -16.98610259668271 -0 -73.25535452109224 -0 -24.55570976569775 -21.73035063490547 -24.56318766781844 13.62576411455906 0 0 24.57197465942469 1:0.0784505 2:0.0830078 3:0.0908203 4:0.0361328 5:0.175781 6:0.0403646 7:0.0950521 8:0.0755208 9:0.078125 10:0.0876736 11:0.0854811 12:0.0824742 13:0.0811856 14:0.0867698 15:0 16:0 17:0 18:0 19:0.194444 20:0.185764 21:0.140625 22:0.171875 23:0.0989583 24:0.203125 25:0.149306 26:0.201389 27:0 28:0 29:0 30:0 
-17.71691683996239 -165.3094622856003 -18.66275106566641 -77.27323014708762 -85.32107381014437 -20.71845699681947 -18.41539927736651 -16.98610259668271 -24.52204372093873 -73.25535452109224 -25.82955973922903 -24.55570976569775 -21.73035063490547 -24.56318766781844 13.62576411455906 98.34587382909129 39.79974889734859 24.57197465942469 1:0.0813802 2:0.0804036 3:0.09375 4:0.0390625 5:0.172526 6:0.0439453 7:0.0872396 8:0.0846354 9:0.0824653 10:0.0863715 11:0.0859107 12:0.0839777 13:0.0831186 14:0.0867698 15:0 16:0 17:0 18:0 19:0.175347 20:0.173611 21:0.133681 22:0.196181 23:0.123264 24:0.215278 25:0.145833 26:0.199653 27:0 28:0 29:0 30:0 
-0 -165.3094622856003 -0 -77.27323014708762 -0 -0 -18.41539927736651 -16.98610259668271 -24.52204372093873 -73.25535452109224 -25.82955973922903 -24.55570976569775 -21.73035063490547 -24.56318766781844 13.62576411455906 0 39.79974889734859 24.57197465942469 1:0.0794271 2:0.085612 3:0.0917969 4:0.0406901 5:0.168294 6:0.0478516 7:0.0824653 8:0.0885417 9:0.0863715 10:0.0850694 11:0.0863402 12:0.0844072 13:0.082689 14:0.0880584 15:0 16:0 17:0 18:0 19:0.152778 20:0.177083 21:0.145833 22:0.199653 23:0.128472 24:0.225694 25:0.151042 26:0.189236 27:0 28:0 29:0 30:0 
-0 -0 -0 -0 -0 -0 -0 -0 -0 -73.25535452109224 -0 -0 -0 -0 0 98.34587382909129 0 0 1:0.0797526 2:0.0878906 3:0.0960286 4:0.0439453 5:0.17806 6:0.0416667 7:0.0993924 8:0.0742188 9:0.0915799 10:0.0863715 11:0.0902062 12:0.0852663 13:0.0863402 14:0.0891323 15:0 16:0 17:0 18:0 19:0.199653 20:0.197917 21:0.152778 22:0.213542 23:0.0989583 24:0.197917 25:0.154514 26:0.190972 27:0 28:0 29:0 30:0 
-0 -0 -0 -0 -0 -0 -18.41539927736651 -16.98610259668271 -24.52204372093873 -0 -0 -0 -0 -24.56318766781844 0 0 39.79974889734859 24.57197465942469 1:0.0751953 2:0.0859375 3:0.0898438 4:0.0432943 5:0.167969 6:0.0397135 7:0.0954861 8:0.0746528 9:0.0842014 10:0.0802951 11:0.086555 12:0.0805412 13:0.0814003 14:0.0854811 15:0 16:0 17:0 18:0 19:0.189236 20:0.192708 21:0.138889 22:0.197917 23:0.0868056 24:0.211806 25:0.131944 26:0.189236 27:0 28:0 29:0 30:0 
-0 -0 -0 -0 -0 -0 -0 -0 -0 -0 -25.82955973922903 -0 -21.73035063490547 -0 0 0 0 0 1:0.0794271 2:0.0865885 3:0.0927734 4:0.0436198 5:0.173828 6:0.0413411 7:0.0985243 8:0.078559 9:0.0859375 10:0.0820312 11:0.0910653 12:0.0809708 13:0.0839777 14:0.0880584 15:0 16:0 17:0 18:0 19:0.190972 20:0.203125 21:0.144097 22:0.199653 23:0.0954861 24:0.21875 25:0.125 26:0.203125 27:0 28:0 29:0 30:0 
-17.71691683996239 -165.3094622856003 -18.66275106566641 -0 -85.32107381014437 -20.71845699681947 -0 -0 -0 -0 -25.82955973922903 -24.55570976569775 -21.73035063490547 -0 0 0 0 0 1:0.0768229 2:0.0885417 3:0.0914714 4:0.0416667 5:0.17513 6:0.0400391 7:0.0998264 8:0.0755208 9:0.0863715 10:0.0807292 11:0.0906357 12:0.0801117 13:0.0833333 14:0.0874141 15:0 16:0 17:0 18:0 19:0.201389 20:0.197917 21:0.152778 22:0.192708 23:0.0972222 24:0.204861 25:0.125 26:0.197917 27:0 28:0 29:0 30:0 
-0 -0 -37.59444370373441 -0 -0 -0 -0 -0 -0 -0 -0 -0 -0 -0 -0 0 16.20151931347465 22.14213305829244 1:0.177083 2:0.0992839 3:0.140625 4:0.139974 5:0.103841 6:0.173177 7:0.139757 8:0.147569 9:0.116753 10:0.15191 11:0.141538 12:0.135095 13:0.130155 14:0.146692 15:0.184028 16:0.180556 17:0.213542 18:0 19:0.194444 20:0 21:0.0920139 22:0.161458 23:0.204861 24:0 25:0 26:0.190972 27:0.234375 28:0.151042 29:0.184028 30:0.232639 
-0 -18.66905910633476 -0 -0 -23.18361345757095 -72.50732432531717 -14.127227191594 -12.37924936318005 -33.79180251677911 -13.66277597045321 -0 -0 -0 -0 -13.62576411455906 14.18631892297994 16.20151931347465 0 1:0.171875 2:0.0966797 3:0.142253 4:0.138672 5:0.105143 6:0.166992 7:0.136719 8:0.143229 9:0.121528 10:0.146267 11:0.136168 12:0.136383 13:0.12951 14:0.143256 15:0.177083 16:0.178819 17:0.227431 18:0 19:0.190972 20:0 21:0.0590278 22:0.199653 23:0.204861 24:0 25:0 26:0.166667 27:0.208333 28:0.159722 29:0.182292 30:0.236111 
-0 -0 -0 -0 -0 -72.50732432531717 -0 -0 -33.79180251677911 -0 -22.2588169425931 -0 -0 -0 -0 0 0 0 1:0.172526 2:0.10319 3:0.148112 4:0.142904 5:0.109375 6:0.171549 7:0.139323 8:0.145399 9:0.126736 10:0.153646 11:0.138746 12:0.142182 13:0.13445 14:0.146907 15:0.189236 16:0.180556 17:0.230903 18:0 19:0.1875 20:0 21:0.0677083 22:0.208333 23:0.213542 24:0 25:0 26:0.184028 27:0.197917 28:0.170139 29:0.201389 30:0.229167 
-52.67910807446005 -18.66905910633476 -37.59444370373441 -17.8740956262991 -23.18361345757095 -72.50732432531717 -14.127227191594 -12.37924936318005 -33.79180251677911 -13.66277597045321 -22.2588169425931 -51.49919922032377 -14.05765599261212 -17.48627573803964 -13.62576411455906 14.18631892297994 0 22.14213305829244 1:0.173503 2:0.100911 3:0.140625 4:0.136393 5:0.108398 6:0.170247 7:0.137153 8:0.148872 9:0.116319 10:0.151042 11:0.138101 12:0.137672 13:0.130369 14:0.145189 15:0.182292 16:0.178819 17:0.210069 18:0 19:0.1875 20:0 21:0.109375 22:0.145833 23:0.213542 24:0 25:0 26:0.194444 27:0.208333 28:0.173611 29:0.180556 30:0.229167 
-52.67910807446005 -0 -37.59444370373441 -17.8740956262991 -0 -0 -0 -0 -0 -0 -22.2588169425931 -51.49919922032377 -14.05765599261212 -0 -0 0 0 0 1:0.17513 2:0.100586 3:0.144531 4:0.142904 5:0.105143 6:0.172201 7:0.136719 8:0.145833 9:0.121528 10:0.15625 11:0.138746 12:0.140249 13:0.134021 14:0.144974 15:0.190972 16:0.177083 17:0.211806 18:0 19:0.178819 20:0 21:0.0989583 22:0.175347 23:0.210069 24:0 25:0 26:0.201389 27:0.215278 28:0.157986 29:0.185764 30:0.237847 
-0 -0 -0 -0 -0 -72.50732432531717 -14.127227191594 -12.37924936318005 -33.79180251677911 -0 -22.2588169425931 -0 -0 -17.48627573803964 -0 14.18631892297994 16.20151931347465 22.14213305829244 1:0.171875 2:0.100911 3:0.138997 4:0.13737 5:0.104492 6:0.169922 7:0.133681 8:0.148872 9:0.120226 10:0.146267 11:0.135954 12:0.137457 13:0.128222 14:0.145189 15:0.182292 16:0.173611 17:0.222222 18:0 19:0.178819 20:0 21:0.078125 22:0.180556 23:0.210069 24:0 25:0 26:0.173611 27:0.204861 28:0.180556 29:0.189236 30:0.222222 
-52.67910807446005 -18.66905910633476 -37.59444370373441 -17.8740956262991 -23.18361345757095 -0 -0 -12.37924936318005 -0 -13.66277597045321 -0 -51.49919922032377 -14.05765599261212 -17.48627573803964 -13.62576411455906 0 0 22.14213305829244 1:0.17806 2:0.0957031 3:0.139323 4:0.138346 5:0.108073 6:0.166667 7:0.141493 8:0.147135 9:0.114583 10:0.147569 11:0.13896 12:0.135309 13:0.129081 14:0.145189 15:0.196181 16:0.182292 17:0.203125 18:0 19:0.1875 20:0 21:0.107639 22:0.147569 23:0.211806 24:0 25:0 26:0.1875 27:0.213542 28:0.163194 29:0.175347 30:0.227431 
-52.67910807446005 -18.66905910633476 -37.59444370373441 -17.8740956262991 -23.18361345757095 -72.50732432531717 -14.127227191594 -12.37924936318005 -33.79180251677911 -13.66277597045321 -22.2588169425931 -51.49919922032377 -14.05765599261212 -17.48627573803964 -13.62576411455906 14.18631892297994 16.20151931347465 22.14213305829244 1:0.16569 2:0.100911 3:0.134115 4:0.136068 5:0.101237 6:0.163411 7:0.134983 8:0.141493 9:0.115451 10:0.142361 11:0.132088 12:0.133806 13:0.126074 14:0.13982 15:0.182292 16:0.182292 17:0.190972 18:0 19:0.175347 20:0 21:0.0972222 22:0.173611 23:0.203125 24:0 25:0 26:0.175347 27:0.189236 28:0.173611 29:0.184028 30:0.210069 
-52.67910807446005 -18.66905910633476 -0 -17.8740956262991 -23.18361345757095 -0 -14.127227191594 -0 -0 -13.66277597045321 -0 -51.49919922032377 -14.05765599261212 -17.48627573803964 -13.62576411455906 14.18631892297994 16.20151931347465 0 1:0.174154 2:0.09375 3:0.137695 4:0.139323 5:0.105794 6:0.160482 7:0.138021 8:0.139757 9:0.117188 10:0.145833 11:0.137027 12:0.132088 13:0.127148 14:0.141967 15:0.211806 16:0.163194 17:0.217014 18:0 19:0.177083 20:0 21:0.0746528 22:0.177083 23:0.215278 24:0 25:0 26:0.184028 27:0.192708 28:0.151042 29:0.178819 30:0.220486 
-17.6830105314637 -0 -20.79926310288975 -0 -43.25184069956896 -22.62628638397771 -27.6717385988734 -18.39457763295522 -21.94455529722606 -0 -0 -19.49864704236458 -0 -20.88895652013795 -0 -14.18631892297994 0 24.0403538014744 1:0.113607 2:0.130859 3:0.085612 4:0.0999349 5:0.179688 6:0.0504557 7:0.152344 8:0.117188 9:0.0915799 10:0.0789931 11:0.118986 12:0.100086 13:0.0945017 14:0.124785 15:0 16:0.0815972 17:0.0885417 18:0 19:0.310764 20:0.217014 21:0.0607639 22:0.217014 23:0.0677083 24:0.296875 25:0.177083 26:0.138889 27:0.00520833 28:0.0989583 29:0 30:0 
-0 -0 -0 -0 -0 -0 -27.6717385988734 -18.39457763295522 -21.94455529722606 -0 -0 -0 -0 -20.88895652013795 -0 -0 0 24.0403538014744 1:0.11849 2:0.134766 3:0.0924479 4:0.10319 5:0.189453 6:0.0530599 7:0.153646 8:0.124566 9:0.0967882 10:0.0859375 11:0.121134 12:0.108462 13:0.102234 14:0.127577 15:0 16:0.0833333 17:0.0850694 18:0 19:0.3125 20:0.21875 21:0.0694444 22:0.232639 23:0.0833333 24:0.310764 25:0.197917 26:0.145833 27:0.00694444 28:0.0972222 29:0 30:0 
-17.6830105314637 -0 -20.79926310288975 -0 -0 -22.62628638397771 -27.6717385988734 -18.39457763295522 -21.94455529722606 -0 -0 -19.49864704236458 -0 -0 -0 -14.18631892297994 35.52158167137932 24.0403538014744 1:0.121419 2:0.14388 3:0.094401 4:0.113281 5:0.186523 6:0.0598958 7:0.154948 8:0.133247 9:0.111111 10:0.0802951 11:0.126718 12:0.111899 13:0.107174 14:0.131658 15:0 16:0.111111 17:0.128472 18:0 19:0.317708 20:0.190972 21:0.0434028 22:0.272569 23:0.0868056 24:0.277778 25:0.208333 26:0.112847 27:0.0190972 28:0.149306 29:0 30:0 
-17.6830105314637 -48.0481248312989 -20.79926310288975 -32.73256635760995 -43.25184069956896 -22.62628638397771 -27.6717385988734 -18.39457763295522 -21.94455529722606 -67.14357722942762 -24.70508345791616 -19.49864704236458 -17.89640337805332 -20.88895652013795 -98.34587382909129 -14.18631892297994 35.52158167137932 24.0403538014744 1:0.116211 2:0.118164 3:0.085612 4:0.094401 5:0.176758 6:0.0488281 7:0.140625 8:0.118924 9:0.0963542 10:0.0707465 11:0.113617 12:0.0987973 13:0.0945017 14:0.117912 15:0 16:0.0677083 17:0.0763889 18:0 19:0.298611 20:0.196181 21:0.0763889 22:0.232639 23:0.100694 24:0.293403 25:0.147569 26:0.135417 27:0 28:0.0815972 29:0 30:0 
-0 -48.0481248312989 -0 -32.73256635760995 -43.25184069956896 -0 -27.6717385988734 -0 -0 -67.14357722942762 -24.70508345791616 -0 -0 -20.88895652013795 -98.34587382909129 -0 35.52158167137932 0 1:0.122396 2:0.123047 3:0.0833333 4:0.0885417 5:0.192708 6:0.047526 7:0.148872 8:0.122396 9:0.0954861 10:0.0716146 11:0.119416 12:0.099012 13:0.095146 14:0.123067 15:0 16:0.0642361 17:0.0711806 18:0 19:0.317708 20:0.213542 21:0.0833333 22:0.227431 23:0.104167 24:0.315972 25:0.159722 26:0.126736 27:0 28:0.0694444 29:0 30:0 
-0 -0 -0 -0 -0 -0 -0 -18.39457763295522 -0 -0 -24.70508345791616 -0 -17.89640337805332 -0 -0 -0 0 24.0403538014744 1:0.114583 2:0.139648 3:0.093099 4:0.0976562 5:0.203776 6:0.0458984 7:0.157118 8:0.116753 9:0.10026 10:0.0889757 11:0.123067 12:0.107388 13:0.10567 14:0.124785 15:0 16:0.0607639 17:0.0920139 18:0 19:0.314236 20:0.253472 21:0.0885417 22:0.220486 23:0.0659722 24:0.284722 25:0.196181 26:0.159722 27:0.00173611 28:0.114583 29:0 30:0 
-0 -48.0481248312989 -0 -32.73256635760995 -0 -0 -0 -0 -0 -0 -24.70508345791616 -0 -17.89640337805332 -0 -98.34587382909129 -0 0 0 1:0.121419 2:0.125 3:0.0960286 4:0.0898438 5:0.208984 6:0.0436198 7:0.146701 8:0.119358 9:0.0993924 10:0.0911458 11:0.118557 12:0.108892 13:0.104811 14:0.122637 15:0 16:0.046875 17:0.0746528 18:0 19:0.315972 20:0.223958 21:0.102431 22:0.220486 23:0.0954861 24:0.300347 25:0.194444 26:0.170139 27:0.00520833 28:0.0763889 29:0 30:0 
-17.6830105314637 -48.0481248312989 -20.79926310288975 -32.73256635760995 -43.25184069956896 -22.62628638397771 -0 -0 -21.94455529722606 -67.14357722942762 -24.70508345791616 -19.49864704236458 -17.89640337805332 -0 -98.34587382909129 -14.18631892297994 35.52158167137932 0 1:0.135091 2:0.108724 3:0.0934245 4:0.09375 5:0.198568 6:0.0449219 7:0.141927 8:0.12717 9:0.0946181 10:0.0859375 11:0.119845 12:0.104596 13:0.101375 14:0.122423 15:0 16:0.0659722 17:0.0763889 18:0 19:0.302083 20:0.199653 21:0.0746528 22:0.227431 23:0.147569 24:0.295139 25:0.173611 26:0.170139 27:0 28:0.0659722 29:0 30:0 
-0 -0 -0 -0 -0 -0 -0 -0 -0 -67.14357722942762 -0 -0 -0 -0 -0 -0 35.52158167137932 0 1:0.134115 2:0.115885 3:0.0963542 4:0.0888672 5:0.210938 6:0.0465495 7:0.150608 8:0.128038 9:0.0967882 10:0.0863715 11:0.122637 12:0.107174 13:0.101375 14:0.128866 15:0 16:0.0503472 17:0.0868056 18:0 19:0.321181 20:0.230903 21:0.0677083 22:0.232639 23:0.130208 24:0.314236 25:0.173611 26:0.171875 27:0 28:0.0677083 29:0 30:0 
-17.6830105314637 -48.0481248312989 -20.79926310288975 -32.73256635760995 -43.25184069956896 -22.62628638397771 -0 -0 -0 -67.14357722942762 -0 -19.49864704236458 -17.89640337805332 -20.88895652013795 -98.34587382909129 -14.18631892297994 0 0 1:0.141602 2:0.110352 3:0.0898438 4:0.0807292 5:0.216797 6:0.0442708 7:0.143663 8:0.127604 9:0.0946181 10:0.0898438 11:0.121564 12:0.106529 13:0.103308 14:0.123497 15:0 16:0.0659722 17:0.0555556 18:0 19:0.328125 20:0.180556 21:0.114583 22:0.208333 23:0.154514 24:0.286458 25:0.199653 26:0.159722 27:0 28:0.0694444 29:0 30:0 
-12.93878603173575 -0 -13.11051603872464 -0 -26.04449022218721 -22.36583405210051 -19.96894777545251 -0 -35.63183950693322 -0 -0 -16.97780881110318 -0 -0 -0 -16.20151931347465 -35.52158167137932 20.60769753983961 1:0.115885 2:0.0976562 3:0.101237 4:0.093099 5:0.147786 6:0.0738932 7:0.0681424 8:0.15408 9:0.126302 10:0.0711806 11:0.126289 12:0.0837629 13:0.10073 14:0.108247 15:0 16:0.0277778 17:0.1875 18:0.105903 19:0.0555556 20:0.189236 21:0 22:0.211806 23:0.225694 24:0.208333 25:0.192708 26:0.0920139 27:0.182292 28:0 29:0 30:0 
-12.93878603173575 -44.96478603341026 -13.11051603872464 -42.70663462713314 -26.04449022218721 -22.36583405210051 -19.96894777545251 -17.00162038749454 -0 -33.34794154594749 -22.12120754632397 -16.97780881110318 -17.46708734836745 -17.24198225261024 -39.79974889734859 -16.20151931347465 -35.52158167137932 20.60769753983961 1:0.11263 2:0.094401 3:0.0957031 4:0.085612 5:0.150716 6:0.0664062 7:0.0638021 8:0.150608 9:0.119358 10:0.0698785 11:0.122852 12:0.078823 13:0.0947165 14:0.106314 15:0 16:0.0173611 17:0.1875 18:0.0885417 19:0.0642361 20:0.173611 21:0 22:0.201389 23:0.232639 24:0.203125 25:0.196181 26:0.0833333 27:0.166667 28:0 29:0 30:0 
-12.93878603173575 -44.96478603341026 -13.11051603872464 -42.70663462713314 -26.04449022218721 -22.36583405210051 -19.96894777545251 -0 -35.63183950693322 -33.34794154594749 -0 -16.97780881110318 -17.46708734836745 -17.24198225261024 -39.79974889734859 -16.20151931347465 -35.52158167137932 20.60769753983961 1:0.113932 2:0.0940755 3:0.0947266 4:0.0830078 5:0.14974 6:0.069987 7:0.0633681 8:0.154948 9:0.11849 10:0.0668403 11:0.121778 12:0.0809708 13:0.0932131 14:0.107818 15:0 16:0.0138889 17:0.164931 18:0.102431 19:0.0572917 20:0.182292 21:0 22:0.206597 23:0.230903 24:0.213542 25:0.182292 26:0.0850694 27:0.175347 28:0 29:0 30:0 
-0 -0 -0 -0 -0 -0 -0 -0 -0 -33.34794154594749 -0 -0 -0 -0 -0 -0 -0 0 1:0.113281 2:0.0986328 3:0.0924479 4:0.0846354 5:0.154948 6:0.0647786 7:0.0642361 8:0.153646 9:0.119792 10:0.0681424 11:0.124356 12:0.078823 13:0.095146 14:0.106959 15:0 16:0.015625 17:0.180556 18:0.0868056 19:0.0520833 20:0.189236 21:0 22:0.211806 23:0.230903 24:0.204861 25:0.199653 26:0.0729167 27:0.178819 28:0 29:0 30:0 
-0 -44.96478603341026 -0 -42.70663462713314 -0 -0 -0 -0 -35.63183950693322 -0 -22.12120754632397 -0 -17.46708734836745 -0 -0 -16.20151931347465 -0 0 1:0.110026 2:0.0989583 3:0.0979818 4:0.0898438 5:0.14388 6:0.0732422 7:0.0625 8:0.152344 9:0.125434 10:0.0690104 11:0.123926 12:0.0820447 13:0.0968643 14:0.106744 15:0 16:0.00520833 17:0.184028 18:0.111111 19:0.0451389 20:0.199653 21:0.00520833 22:0.201389 23:0.220486 24:0.206597 25:0.182292 26:0.09375 27:0.182292 28:0 29:0 30:0 
-0 -0 -0 -0 -0 -0 -19.96894777545251 -17.00162038749454 -0 -0 -0 -0 -0 -17.24198225261024 -0 -0 -35.52158167137932 0 1:0.111328 2:0.0957031 3:0.0924479 4:0.0833333 5:0.155924 6:0.0602214 7:0.0664062 8:0.148003 9:0.117188 10:0.0677083 11:0.123282 12:0.0771048 13:0.0938574 14:0.105026 15:0 16:0.0121528 17:0.182292 18:0.0920139 19:0.0590278 20:0.194444 21:0 22:0.194444 23:0.211806 24:0.203125 25:0.206597 26:0.0642361 27:0.177083 28:0 29:0 30:0 
-0 -0 -0 -0 -0 -0 -0 -17.00162038749454 -0 -0 -22.12120754632397 -0 -0 -0 -39.79974889734859 -0 -0 0 1:0.108724 2:0.0950521 3:0.0947266 4:0.0878906 5:0.149089 6:0.0615234 7:0.0633681 8:0.146701 9:0.125 10:0.062934 11:0.123926 12:0.0760309 13:0.0966495 14:0.101589 15:0 16:0.00347222 17:0.194444 18:0.0590278 19:0.046875 20:0.203125 21:0.00868056 22:0.237847 23:0.217014 24:0.201389 25:0.189236 26:0.0625 27:0.168403 28:0 29:0 30:0 
-0 -0 -0 -0 -0 -22.36583405210051 -0 -0 -0 -0 -0 -0 -0 -0 -0 -0 -0 0 1:0.110352 2:0.0963542 3:0.102214 4:0.0927734 5:0.140951 6:0.0751953 7:0.0651042 8:0.147569 9:0.12934 10:0.0698785 11:0.124141 12:0.0833333 13:0.0994416 14:0.105885 15:0 16:0.00694444 17:0.185764 18:0.119792 19:0.0503472 20:0.203125 21:0.00173611 22:0.210069 23:0.213542 24:0.197917 25:0.182292 26:0.0972222 27:0.178819 28:0 29:0 30:0 
-12.93878603173575 -44.96478603341026 -13.11051603872464 -42.70663462713314 -26.04449022218721 -22.36583405210051 -19.96894777545251 -17.00162038749454 -35.63183950693322 -33.34794154594749 -22.12120754632397 -16.97780881110318 -17.46708734836745 -17.24198225261024 -39.79974889734859 -16.20151931347465 -35.52158167137932 20.60769753983961 1:0.107096 2:0.0963542 3:0.0963542 4:0.0869141 5:0.147461 6:0.0654297 7:0.0633681 8:0.145833 9:0.121094 10:0.0694444 11:0.12049 12:0.0805412 13:0.0957904 14:0.103308 15:0 16:0.00694444 17:0.182292 18:0.09375 19:0.0503472 20:0.196181 21:0.00347222 22:0.204861 23:0.213542 24:0.203125 25:0.182292 26:0.0954861 27:0.166667 28:0 29:0 30:0 
-12.93878603173575 -44.96478603341026 -13.11051603872464 -42.70663462713314 -26.04449022218721 -0 -0 -17.00162038749454 -35.63183950693322 -33.34794154594749 -22.12120754632397 -16.97780881110318 -17.46708734836745 -17.24198225261024 -39.79974889734859 -0 -0 20.60769753983961 1:0.108724 2:0.094401 3:0.0953776 4:0.0836589 5:0.143555 6:0.0712891 7:0.0607639 8:0.14974 9:0.116319 10:0.0711806 11:0.118771 12:0.0818299 13:0.0927835 14:0.105455 15:0 16:0 17:0.166667 18:0.102431 19:0.0416667 20:0.201389 21:0.0104167 22:0.185764 23:0.220486 24:0.199653 25:0.175347 26:0.109375 27:0.178819 28:0 29:0 30:0 
-28.13580040391133 -22.88510840004433 -22.72776546147526 -24.76263262494253 -27.84666027370772 -20.36034692361206 -0 -35.56887524977077 -33.25221920574855 -16.37261591549626 -16.84675096460641 -30.85499058380414 -17.71214259057205 -31.02958564560294 -24.57197465942469 -22.14213305829244 -24.0403538014744 -20.60769753983961 1:0.164388 2:0.09375 3:0.0660807 4:0.0940755 5:0.101562 6:0.128581 7:0.137153 8:0.153646 9:0.0655382 10:0.0759549 11:0.097079 12:0.118127 13:0.106959 14:0.108677 15:0.137153 16:0.206597 17:0 18:0 19:0.0625 20:0.142361 21:0.180556 22:0.0815972 23:0.0173611 24:0.163194 25:0.0920139 26:0.164931 27:0.175347 28:0.258681 29:0.046875 30:0 
-0 -22.88510840004433 -22.72776546147526 -24.76263262494253 -27.84666027370772 -20.36034692361206 -33.06480831842082 -35.56887524977077 -33.25221920574855 -0 -16.84675096460641 -30.85499058380414 -17.71214259057205 -31.02958564560294 -0 -0 -0 -0 1:0.148438 2:0.104818 3:0.0660807 4:0.0940755 5:0.0973307 6:0.12793 7:0.133247 8:0.151476 9:0.0668403 10:0.0742188 11:0.0942869 12:0.117698 13:0.106959 14:0.105026 15:0.100694 16:0.246528 17:0 18:0 19:0.046875 20:0.138889 21:0.184028 22:0.0833333 23:0.0104167 24:0.166667 25:0.09375 26:0.15625 27:0.157986 28:0.270833 29:0.046875 30:0 
-0 -0 -22.72776546147526 -0 -0 -0 -0 -0 -0 -0 -0 -0 -17.71214259057205 -31.02958564560294 -0 -22.14213305829244 -0 -0 1:0.159505 2:0.105143 3:0.070638 4:0.103516 5:0.10026 6:0.13151 7:0.143229 8:0.157552 9:0.0690104 10:0.0772569 11:0.10073 12:0.121778 13:0.112328 14:0.11018 15:0.126736 16:0.251736 17:0.00173611 18:0 19:0.0625 20:0.131944 21:0.177083 22:0.0972222 23:0.0138889 24:0.168403 25:0.104167 26:0.163194 27:0.190972 28:0.256944 29:0.0416667 30:0 
-28.13580040391133 -0 -0 -0 -0 -0 -33.06480831842082 -35.56887524977077 -33.25221920574855 -0 -16.84675096460641 -0 -0 -0 -0 -0 -24.0403538014744 -20.60769753983961 1:0.156901 2:0.102539 3:0.0725911 4:0.103841 5:0.0970052 6:0.131185 7:0.136719 8:0.15842 9:0.0716146 10:0.0759549 11:0.0977234 12:0.122637 13:0.111899 14:0.108677 15:0.137153 16:0.234375 17:0.00694444 18:0 19:0.0520833 20:0.123264 21:0.168403 22:0.111111 23:0.0121528 24:0.178819 25:0.112847 26:0.159722 27:0.178819 28:0.263889 29:0.03125 30:0 
-28.13580040391133 -22.88510840004433 -22.72776546147526 -24.76263262494253 -27.84666027370772 -0 -33.06480831842082 -35.56887524977077 -33.25221920574855 -16.37261591549626 -16.84675096460641 -30.85499058380414 -17.71214259057205 -31.02958564560294 -24.57197465942469 -0 -24.0403538014744 -20.60769753983961 1:0.153971 2:0.10026 3:0.0670573 4:0.101562 5:0.0950521 6:0.124674 7:0.138889 8:0.15191 9:0.0677083 10:0.0698785 11:0.0975086 12:0.11555 13:0.107603 14:0.1061 15:0.142361 16:0.220486 17:0.00173611 18:0 19:0.0520833 20:0.140625 21:0.175347 22:0.09375 23:0.0104167 24:0.173611 25:0.105903 26:0.144097 27:0.161458 28:0.262153 29:0.0295139 30:0 
-28.13580040391133 -0 -22.72776546147526 -0 -0 -20.36034692361206 -33.06480831842082 -0 -0 -0 -0 -30.85499058380414 -0 -0 -0 -22.14213305829244 -0 -0 1:0.169922 2:0.0934245 3:0.0703125 4:0.106771 5:0.100586 6:0.126302 7:0.147135 8:0.153646 9:0.0707465 10:0.0733507 11:0.102663 12:0.118771 13:0.114046 14:0.107388 15:0.151042 16:0.25 17:0.0104167 18:0 19:0.0815972 20:0.105903 21:0.161458 22:0.111111 23:0.0138889 24:0.163194 25:0.118056 26:0.152778 27:0.184028 28:0.253472 29:0.0225694 30:0 
-0 -0 -0 -24.76263262494253 -0 -0 -0 -0 -0 -16.37261591549626 -16.84675096460641 -0 -0 -0 -24.57197465942469 -0 -24.0403538014744 -20.60769753983961 1:0.158203 2:0.102214 3:0.0709635 4:0.102214 5:0.0996094 6:0.129557 7:0.141927 8:0.15408 9:0.0698785 10:0.0759549 11:0.099012 12:0.120919 13:0.112113 14:0.107818 15:0.140625 16:0.230903 17:0.00520833 18:0 19:0.0642361 20:0.131944 21:0.177083 22:0.0972222 23:0.0104167 24:0.173611 25:0.118056 26:0.15625 27:0.184028 28:0.248264 29:0.0295139 30:0 
