svm_type nu_svc
kernel_type rbf
gamma 0.0135135
nr_class 17
total_sv 165
rho -0.0348665 -0.0491317 -0.0671645 -0.000230463 -0.0224539 -0.133434 -0.0398095 0.0288398 -0.0695355 -0.0616454 -0.0708823 -0.0784105 -0.0633698 -0.0560196 -0.0510391 -0.0551611 -0.0180553 0.00136071 0.00351489 0.0299644 0.00407368 -0.0122782 0.0499538 0.000732671 -0.00118796 0.0162046 0.00121248 0.00550913 -0.00202836 -0.00201052 0.000928922 -0.0018538 -0.00147998 0.0268466 0.00608555 0.0212575 0.00664872 0.0051404 0.0182612 0.0209629 0.00939491 0.0298833 -0.0317944 -0.0331853 -0.044705 0.000232101 0.0320602 0.0329381 0.0342601 0.0184797 0.00371521 -0.00574654 0.00427211 0.0289357 -0.00755173 -0.0154452 -0.0143645 -0.0180155 -0.00789447 -8.81701e-05 -0.00425602 -0.0108175 -0.00136011 -0.000797495 -0.030407 -0.0109206 -0.00569661 -0.00622401 -0.00378417 -0.00636143 0.0132095 -0.0750611 -0.00506824 -0.0135637 -0.0703997 -0.00908717 -0.0529399 -0.0203287 -0.0199361 -0.0206431 -0.0171968 0.0296078 -0.0156429 -0.0226151 -0.00680947 -0.0191068 -0.00268647 -0.00117931 0.00439003 0.00533733 0.0105557 0.0204021 -0.0170469 0.0340515 -0.00401348 0.00758247 -0.0257942 -0.0283362 -0.0240447 -0.0235112 -0.10226 -0.00877229 -0.0205073 -0.0525455 -0.0146968 -0.0230983 -0.0235438 -0.0222543 -0.000781573 -0.00390974 -0.0259693 0.00158557 -0.00653966 -0.00511284 -0.0029722 0.0530129 -0.00791796 -0.00465174 -0.0087363 -0.00460152 -0.00561071 -0.103488 -0.00655006 -0.00490801 -0.00674917 -0.00624619 -0.00614139 -0.0153003 -0.0187261 -0.0171325 -0.0134542 -0.0104796 -0.0372913 -0.0315434 0.0224266 -0.00578443
label 1 2 3 4 5 6 7 8 9 10 11 12 13 14 15 16 17
probA -2.4132 -2.40079 -2.44969 -2.4064 -2.4209 -2.4172 -2.40959 -2.48747 -2.43205 -2.41825 -2.46779 -2.43236 -2.42912 -2.4077 -2.43716 -2.43462 -2.43112 -2.42685 -2.39969 -2.42837 -2.42453 -2.398 -2.53979 -2.40232 -2.41417 -2.47466 -2.43758 -2.41676 -2.4049 -2.4013 -2.40398 -2.41035 -2.40664 -2.48148 -2.40565 -2.42703 -2.41685 -2.41133 -2.44272 -2.42641 -2.40965 -2.42466 -2.40428 -2.40201 -2.40727 -2.4 -2.46717 -2.48566 -2.42656 -2.44814 -2.39321 -2.42852 -2.46991 -2.43133 -2.4016 -2.40046 -2.40616 -2.40396 -2.44993 -2.4113 -2.40974 -2.45802 -2.40443 -2.40836 -2.44741 -2.42681 -2.40308 -2.40639 -2.40704 -2.40596 -2.42255 -2.45909 -2.48382 -2.43435 -2.44354 -2.44078 -2.46677 -2.45148 -2.43126 -2.43166 -2.4429 -2.42284 -2.46145 -2.40517 -2.42326 -2.4514 -2.4984 -2.41165 -2.42442 -2.42056 -2.41367 -2.41794 -2.44086 -2.5026 -2.48748 -2.48685 -2.43175 -2.42008 -2.41409 -2.42092 -2.52791 -2.51811 -2.5823 -2.49986 -2.42353 -2.42294 -2.40774 -2.41406 -2.41981 -2.51877 -2.46905 -2.39968 -2.40538 -2.3912 -2.39425 -2.47894 -2.39216 -2.4052 -2.40134 -2.3886 -2.38956 -2.4996 -2.40588 -2.41162 -2.39793 -2.39659 -2.43358 -2.41812 -2.4118 -2.41696 -2.39618 -2.39991 -2.47009 -2.37297 -2.45159 -2.42543
probB 0.0102294 0.000952647 -0.0335117 0.00305855 0.00115576 -0.00321356 0.00432519 -0.00856296 0.00295889 0.0060406 0.015351 -0.00782956 -0.0162882 -0.0078592 -0.032623 -0.0327088 0.0221967 0.011071 -0.00620846 0.0255996 0.000293371 0.0291193 0.317985 0.00302749 0.0182701 0.0573759 0.0235002 -0.0091154 -0.000916514 0.000585535 -0.00808802 0.00100939 -0.000289653 0.0120476 0.0184273 0.0240103 0.0265993 -0.0131711 -0.0301722 -0.0167277 0.00584768 -0.0110306 0.00338493 0.0087476 0.00240132 -0.00702878 0.0275587 -0.0442495 0.022012 0.0685471 -0.0188627 -0.00699653 0.0611168 0.0252638 -0.00292082 -0.00124295 -0.00734446 -0.0040076 0.0693544 -0.00692543 0.00715148 0.0729802 -0.00694236 -0.00739828 0.0640758 0.0212844 0.00619961 -0.00192165 0.000571777 0.002123 -0.00522553 -0.00552519 0.0406243 -0.0366051 -0.0216838 -0.00629525 0.0142968 -0.0403688 -0.0407152 -0.0360936 -0.0482293 0.0219712 0.0854865 0.0154136 -0.00310875 0.0542848 0.087134 -0.00974558 -0.0230613 -0.0162683 -0.0186423 0.00138606 0.00078433 -0.130991 5.95331e-05 0.0770386 -0.00890979 -0.0117593 -0.0103887 -0.0274802 -0.167698 -0.220252 -0.190258 -0.0420834 -0.0402946 -0.0325909 -0.0142697 -0.0247835 -0.00983952 0.0814912 0.0536028 0.00281526 0.00617177 0.00427115 0.00147376 -0.0812878 -0.0441525 0.0104516 0.011829 0.0077653 0.00795721 -0.0643393 0.00027683 -0.00904686 -0.00401267 -0.000511468 -0.0285017 -0.0133479 -0.0149944 -0.0137955 -0.00777228 -0.0128869 -0.0571965 -0.00375968 -0.00906274 0.0135699
nr_sv 10 10 10 10 9 10 10 10 10 10 10 10 10 10 9 9 8
SV
0 8.7171697919126 22.94100258800102 0 2.002918530636872 28.39994627260305 12.44957231377461 0 0 0 0 0 9.391030284635647 4.335700526975931 4.388898928563907 4.314748244812302 1:0.472789 2:0.253763 3:0.494624 4:0.251613 5:0.32043 6:0.378495 7:0.301075 8:0.152688 9:0.350538 10:0.292473 11:0.204301 12:0.529032 13:0.47957 14:0.455914 15:0.554839 16:0 17:0.0473118 18:0.116129 19:0.0946237 20:0.0258065 21:0.0795699 22:0.00645161 23:0.0752688 24:0.109677 25:0.105376 26:0.12043 27:0.0322581 28:0.0365591 29:0.0989247 30:0.0516129 31:0 32:0.503263 33:0.4 34:0 35:0.160377 36:0.132075 37:0 38:0.575472 39:0.132075 40:0 41:0 42:0 43:0.125 44:0.0881853 45:0.125 46:0.0827851 47:0.125 48:0.112647 49:0 50:0 51:0.375 52:0.43281 53:0.25 54:0.283572 55:0 56:0 57:0 58:0 59:0 60:0 61:0 62:0 63:0 64:0.0162162 65:0.189189 66:0.113514 67:0.0864865 68:0.162162 69:0.227027 70:0 71:0.0324324 72:0.12973 73:0.0432432 74:0 
0 5.639005770620221 0 0 0 28.39994627260305 12.44957231377461 13.44057585715991 0 0 0 0 0 0 0 0 1:0.463087 2:0.261506 3:0.470711 4:0.267782 5:0.322176 6:0.389121 7:0.288703 8:0.156904 9:0.341004 10:0.286611 11:0.215481 12:0.520921 13:0.481172 14:0.458159 15:0.552301 16:0 17:0.0460251 18:0.0983264 19:0.110879 20:0.0271967 21:0.083682 22:0.0083682 23:0.0690377 24:0.108787 25:0.0878661 26:0.15272 27:0.0271967 28:0.0439331 29:0.100418 30:0.0355649 31:0 32:0.514505 33:0.2 34:0 35:0.134021 36:0.113402 37:0 38:0.618557 39:0.134021 40:0 41:0 42:0 43:0.25 44:0.173637 45:0 46:0 47:0 48:0 49:0 50:0 51:0.25 52:0.307236 53:0.5 54:0.519127 55:0 56:0 57:0 58:0 59:0 60:0 61:0 62:0 63:0 64:0.0285714 65:0.152381 66:0 67:0.190476 68:0.257143 69:0.0857143 70:0 71:0.047619 72:0.238095 73:0 74:0 
8.288874193485436 9.891079684877941 0 13.03384235093879 10.87634206774362 28.39994627260305 12.44957231377461 13.44057585715991 21.48168999837708 11.24092913186934 15.73500407156863 17.04502959362051 11.13106738962995 7.188734639889204 6.831318284378511 0 1:0.466443 2:0.284768 3:0.470199 4:0.245033 5:0.313466 6:0.388521 7:0.298013 8:0.172185 9:0.359823 10:0.264901 11:0.203091 12:0.543046 13:0.463576 14:0.439294 15:0.569536 16:0 17:0.0529801 18:0.0993377 19:0.0883002 20:0.0264901 21:0.0927152 22:0.00441501 23:0.0728477 24:0.116998 25:0.108168 26:0.11479 27:0.0286976 28:0.0485651 29:0.0860927 30:0.0596026 31:0 32:0.503308 33:0.2 34:0 35:0.151261 36:0.092437 37:0 38:0.579832 39:0.176471 40:0 41:0 42:0 43:0.25 44:0.165517 45:0 46:0 47:0 48:0 49:0 50:0 51:0.25 52:0.308742 53:0.5 54:0.525741 55:0 56:0 57:0 58:0 59:0 60:0 61:0 62:0 63:0 64:0.0306122 65:0.122449 66:0 67:0.193878 68:0.27551 69:0.0918367 70:0 71:0.0510204 72:0.234694 73:0 74:0 
0 9.891079684877941 26.3339020231136 0 12.87926059838049 28.39994627260305 0 0 0 0 0 12.28340614903894 11.13106738962995 11.52443516686514 11.22021721294242 11.4489270076312 1:0.466667 2:0.263736 3:0.483516 4:0.252747 5:0.320513 6:0.386447 7:0.29304 8:0.163004 9:0.336996 10:0.29304 11:0.20696 12:0.542125 13:0.465201 14:0.465201 15:0.545788 16:0 17:0.047619 18:0.130037 19:0.0787546 20:0.0274725 21:0.0879121 22:0.003663 23:0.0805861 24:0.108059 25:0.0952381 26:0.120879 27:0.0311355 28:0.0421245 29:0.0915751 30:0.0549451 31:0 32:0.497809 33:0.4 34:0 35:0.210526 36:0.131579 37:0 38:0.480263 39:0.177632 40:0 41:0 42:0 43:0.125 44:0.0902141 45:0.125 46:0.0796801 47:0.125 48:0.110558 49:0 50:0 51:0.375 52:0.440613 53:0.25 54:0.278935 55:0 56:0 57:0 58:0 59:0 60:0 61:0 62:0 63:0 64:0.0204082 65:0.179592 66:0.0938776 67:0.122449 68:0.138776 69:0.22449 70:0 71:0.0204082 72:0.163265 73:0.0367347 74:0 
8.288874193485436 0 0 11.28515804990522 12.87926059838049 0 0 13.44057585715991 21.48168999837708 11.24092913186934 15.73500407156863 17.04502959362051 0 11.52443516686514 11.22021721294242 11.4489270076312 1:0.466216 2:0.259179 3:0.473002 4:0.267819 5:0.343413 6:0.360691 7:0.295896 8:0.153348 9:0.343413 10:0.302376 11:0.200864 12:0.544276 13:0.462203 14:0.477322 15:0.535637 16:0 17:0.0518359 18:0.12095 19:0.103672 20:0.0215983 21:0.0799136 22:0.00431965 23:0.0734341 24:0.11879 25:0.0907127 26:0.12095 27:0.0280778 28:0.0453564 29:0.0885529 30:0.0518359 31:0 32:0.494668 33:0.2 34:0 35:0.208 36:0.144 37:0 38:0.456 39:0.192 40:0 41:0 42:0 43:0.25 44:0.162344 45:0 46:0 47:0 48:0 49:0 50:0 51:0.25 52:0.311557 53:0.5 54:0.526099 55:0 56:0 57:0 58:0 59:0 60:0 61:0 62:0 63:0 64:0.045045 65:0.126126 66:0 67:0.189189 68:0.261261 69:0.0810811 70:0 71:0.036036 72:0.261261 73:0 74:0 
0 9.891079684877941 26.3339020231136 1.748684301033571 12.87926059838049 19.38736390778903 0 0 0 11.24092913186934 15.73500407156863 15.93395297712392 11.13106738962995 11.52443516686514 11.22021721294242 11.4489270076312 1:0.46 2:0.258182 3:0.46 4:0.281818 5:0.332727 6:0.381818 7:0.285455 8:0.158182 9:0.330909 10:0.309091 11:0.201818 12:0.545455 13:0.46 14:0.48 15:0.530909 16:0 17:0.04 18:0.116364 19:0.105455 20:0.0218182 21:0.0963636 22:0.00909091 23:0.0781818 24:0.109091 25:0.0909091 26:0.114545 27:0.0345455 28:0.0418182 29:0.0890909 30:0.0527273 31:0 32:0.498146 33:0.4 34:0 35:0.166667 36:0.146667 37:0 38:0.46 39:0.226667 40:0 41:0 42:0 43:0.125 44:0.0904192 45:0.125 46:0.076625 47:0.125 48:0.111053 49:0 50:0 51:0.375 52:0.437823 53:0.25 54:0.28408 55:0 56:0 57:0 58:0 59:0 60:0 61:0 62:0 63:0 64:0.0152091 65:0.155894 66:0.0874525 67:0.0684411 68:0.159696 69:0.262357 70:0 71:0.026616 72:0.136882 73:0.0874525 74:0 
8.288874193485436 5.42598380722306 26.3339020231136 0 12.87926059838049 0 7.725301504361521 0 21.48168999837708 11.24092913186934 15.73500407156863 17.04502959362051 6.703336840294156 11.52443516686514 11.22021721294242 11.4489270076312 1:0.466216 2:0.268398 3:0.467532 4:0.264069 5:0.32684 6:0.37013 7:0.30303 8:0.158009 9:0.344156 10:0.296537 11:0.201299 12:0.538961 13:0.469697 14:0.469697 15:0.54329 16:0 17:0.0497835 18:0.114719 19:0.0974026 20:0.0238095 21:0.0844156 22:0.004329 23:0.0800866 24:0.123377 25:0.0995671 26:0.114719 27:0.0281385 28:0.0454545 29:0.0757576 30:0.0584416 31:0 32:0.499733 33:0.4 34:0 35:0.179487 36:0.162393 37:0 38:0.42735 39:0.230769 40:0 41:0 42:0 43:0.125 44:0.0903452 45:0.125 46:0.0764843 47:0.125 48:0.110718 49:0 50:0 51:0.375 52:0.439934 53:0.25 54:0.282518 55:0 56:0 57:0 58:0 59:0 60:0 61:0 62:0 63:0 64:0.0149254 65:0.174129 66:0.0447761 67:0.0945274 68:0.144279 69:0.253731 70:0 71:0.0199005 72:0.134328 73:0.119403 74:0 
8.288874193485436 0 26.3339020231136 13.03384235093879 0 0 6.199700271226154 13.44057585715991 21.48168999837708 11.24092913186934 15.73500407156863 5.872700061078162 0 0 0 7.1341787628189 1:0.466667 2:0.262172 3:0.485019 4:0.252809 5:0.32397 6:0.38015 7:0.29588 8:0.170412 9:0.325843 10:0.286517 11:0.217228 12:0.535581 13:0.47191 14:0.466292 15:0.543071 16:0 17:0.0468165 18:0.106742 19:0.0973783 20:0.0205993 21:0.102996 22:0.00561798 23:0.076779 24:0.108614 25:0.0805243 26:0.129213 27:0.0299625 28:0.0486891 29:0.088015 30:0.0580524 31:0 32:0.505076 33:0.2 34:0 35:0.183099 36:0.105634 37:0 38:0.535211 39:0.176056 40:0 41:0 42:0 43:0.25 44:0.166846 45:0 46:0 47:0 48:0 49:0 50:0 51:0.25 52:0.30724 53:0.5 54:0.525914 55:0 56:0 57:0 58:0 59:0 60:0 61:0 62:0 63:0 64:0.0264901 65:0.139073 66:0 67:0.145695 68:0.278146 69:0.119205 70:0 71:0.0662252 72:0.225166 73:0 74:0 
0 0 0 13.03384235093879 0 9.01258236481401 10.97414285196154 0 0 0 0 0 0 0 0 0 1:0.463087 2:0.258621 3:0.49569 4:0.24569 5:0.321121 6:0.37931 7:0.299569 8:0.163793 9:0.344828 10:0.280172 11:0.211207 12:0.525862 13:0.480603 14:0.456897 15:0.551724 16:0 17:0.0517241 18:0.116379 19:0.0883621 20:0.0237069 21:0.0883621 22:0.00431034 23:0.0711207 24:0.107759 25:0.0969828 26:0.122845 27:0.0258621 28:0.0431034 29:0.0969828 30:0.0625 31:0 32:0.512474 33:0.2 34:0 35:0.134021 36:0.113402 37:0 38:0.618557 39:0.134021 40:0 41:0 42:0 43:0.25 44:0.168021 45:0 46:0 47:0 48:0 49:0 50:0 51:0.25 52:0.307466 53:0.5 54:0.524513 55:0 56:0 57:0 58:0 59:0 60:0 61:0 62:0 63:0 64:0.0194175 65:0.15534 66:0 67:0.165049 68:0.262136 69:0.0873786 70:0 71:0.0582524 72:0.252427 73:0 74:0 
8.288874193485436 0 3.392899435112576 13.03384235093879 0 0 0 13.44057585715991 21.48168999837708 0 0 0 6.167767654330087 0 0 0 1:0.453947 2:0.252847 3:0.46697 4:0.280182 5:0.341686 6:0.366743 7:0.291572 8:0.157175 9:0.321185 10:0.314351 11:0.207289 12:0.537585 13:0.46697 14:0.482916 15:0.530752 16:0 17:0.0410023 18:0.113895 19:0.116173 20:0.0182232 21:0.0979499 22:0.00683371 23:0.0774487 24:0.107062 25:0.0933941 26:0.116173 27:0.0296128 28:0.047836 29:0.0728929 30:0.0615034 31:0 32:0.515552 33:0.2 34:0 35:0.169811 36:0.0754717 37:0 38:0.575472 39:0.179245 40:0 41:0 42:0 43:0.25 44:0.174804 45:0 46:0 47:0 48:0 49:0 50:0 51:0.25 52:0.305851 53:0.5 54:0.519345 55:0 56:0 57:0 58:0 59:0 60:0 61:0 62:0 63:0 64:0.029703 65:0.118812 66:0 67:0.188119 68:0.257426 69:0.128713 70:0 71:0.029703 72:0.247525 73:0 74:0 
-0 0 0 0 0 0 0 0 0 0 0 0 9.893801489623938 0 0 8.952880051922513 1:0.974359 2:0.425414 3:0.357274 4:0.217311 5:0.403315 6:0.438306 7:0.158379 8:0.392265 9:0.244936 10:0.209945 11:0.152855 12:0.703499 13:0.305709 14:0.406998 15:0.600368 16:0.0239411 17:0.0165746 18:0 19:0.014733 20:0.151013 21:0.200737 22:0.117864 23:0.0773481 24:0.13628 25:0.108656 26:0.06814 27:0.0755064 28:0 29:0 30:0.0092081 31:0 32:0.910527 33:0.2 34:0 35:0.0666667 36:0.104762 37:0 38:0.190476 39:0.504762 40:0 41:0.0666667 42:0.0666667 43:0 44:0 45:0 46:0 47:0 48:0 49:0 50:0 51:0 52:0 53:0.5 54:0.504998 55:0.5 56:0.495002 57:0 58:0 59:0 60:0 61:0 62:0 63:0.193878 64:0.214286 65:0.0714286 66:0 67:0.234694 68:0.153061 69:0.132653 70:0 71:0 72:0 73:0 74:0 
-0 0 0 0 14.52188706796601 0 22.69463114597484 0 0 19.1365300900011 23.65869698340338 14.24258130622662 0 0 0 0 1:0.974359 2:0.435424 3:0.352399 4:0.212177 5:0.391144 6:0.442804 7:0.166052 8:0.380074 9:0.258303 10:0.212177 11:0.149446 12:0.708487 13:0.300738 14:0.389299 15:0.618081 16:0.0221402 17:0.0166052 18:0 19:0.00922509 20:0.143911 21:0.197417 22:0.119926 23:0.0830258 24:0.145756 25:0.112546 26:0.0701107 27:0.0701107 28:0 29:0 30:0.00922509 31:0 32:0.915401 33:0.2 34:0 35:0.0471698 36:0.0754717 37:0 38:0.188679 39:0.528302 40:0 41:0.0471698 42:0.113208 43:0 44:0 45:0 46:0 47:0 48:0 49:0 50:0 51:0 52:0 53:0.5 54:0.509567 55:0.5 56:0.490433 57:0 58:0 59:0 60:0 61:0 62:0 63:0.212766 64:0.191489 65:0.117021 66:0 67:0.202128 68:0.159574 69:0.117021 70:0 71:0 72:0 73:0 74:0 
-0 10.77923477220591 0 0 14.52188706796601 0 0 0 15.8149662403317 19.1365300900011 23.65869698340338 14.24258130622662 0 0 0 0 1:0.974359 2:0.423792 3:0.360595 4:0.215613 5:0.395911 6:0.444238 7:0.159851 8:0.384758 9:0.258364 10:0.200743 11:0.156134 12:0.695167 13:0.310409 14:0.407063 15:0.600372 16:0.0223048 17:0.0167286 18:0 19:0.00743494 20:0.144981 21:0.200743 22:0.113383 23:0.0799257 24:0.141264 25:0.1171 26:0.063197 27:0.0817844 28:0 29:0 30:0.0111524 31:0 32:0.912768 33:0.2 34:0 35:0.0471698 36:0.0754717 37:0 38:0.188679 39:0.528302 40:0 41:0.0471698 42:0.113208 43:0 44:0 45:0 46:0 47:0 48:0 49:0 50:0 51:0 52:0 53:0.5 54:0.511919 55:0.5 56:0.488081 57:0 58:0 59:0 60:0 61:0 62:0 63:0.215909 64:0.159091 65:0.102273 66:0 67:0.238636 68:0.159091 69:0.125 70:0 71:0 72:0 73:0 74:0 
-8.288874193485436 0 0 6.980774303824751 0 10.93826045301236 22.69463114597484 40.58252085280078 15.8149662403317 19.1365300900011 23.65869698340338 14.24258130622662 0 7.741611526025395 7.912968373177708 0 1:0.95 2:0.427256 3:0.370166 4:0.202578 5:0.390424 6:0.45488 7:0.154696 8:0.401473 9:0.254144 10:0.191529 11:0.152855 12:0.712707 13:0.292818 14:0.401473 15:0.609576 16:0.0294659 17:0.0184162 18:0 19:0 20:0.127072 21:0.226519 22:0.112339 23:0.0791897 24:0.139963 25:0.11418 26:0.053407 27:0.0773481 28:0 29:0 30:0.0220994 31:0 32:0.89294 33:0.2 34:0 35:0.0666667 36:0.104762 37:0 38:0.190476 39:0.504762 40:0 41:0.0666667 42:0.0666667 43:0 44:0 45:0 46:0 47:0 48:0 49:0 50:0 51:0 52:0 53:0.5 54:0.511553 55:0.5 56:0.488447 57:0 58:0 59:0 60:0 61:0 62:0 63:0.184466 64:0.262136 65:0.0776699 66:0 67:0.213592 68:0.135922 69:0.126214 70:0 71:0 72:0 73:0 74:0 
-0 10.77923477220591 13.92852600450635 0 14.52188706796601 0 0 0 0 0 0 0 0 0 0 0 1:0.980769 2:0.4 3:0.355769 4:0.244231 5:0.382692 6:0.448077 7:0.169231 8:0.371154 9:0.251923 10:0.205769 11:0.171154 12:0.680769 13:0.326923 14:0.419231 15:0.588462 16:0.0269231 17:0.0173077 18:0.00192308 19:0.0173077 20:0.128846 21:0.198077 22:0.105769 23:0.0807692 24:0.136538 25:0.115385 26:0.0730769 27:0.0865385 28:0 29:0 30:0.0115385 31:0 32:0.916242 33:0.2 34:0 35:0.0392157 36:0.0980392 37:0 38:0.186275 39:0.539216 40:0 41:0.0392157 42:0.0980392 43:0 44:0 45:0 46:0 47:0 48:0 49:0 50:0 51:0 52:0 53:0.5 54:0.511205 55:0.5 56:0.488795 57:0 58:0 59:0 60:0 61:0 62:0 63:0.135135 64:0.324324 65:0.0900901 66:0 67:0.216216 68:0.135135 69:0.0990991 70:0 71:0 72:0 73:0 74:0 
-8.288874193485436 10.77923477220591 13.92852600450635 6.980774303824751 0 10.93826045301236 22.69463114597484 40.58252085280078 0 0 0 0 9.893801489623938 7.741611526025395 7.912968373177708 8.952880051922513 1:0.980769 2:0.415507 3:0.345924 4:0.238569 5:0.397614 6:0.427435 7:0.17495 8:0.355865 9:0.256461 10:0.2167 11:0.170974 12:0.681909 13:0.328032 14:0.431412 15:0.576541 16:0.0238569 17:0.0218688 18:0.00397614 19:0.0178926 20:0.133201 21:0.176938 22:0.119284 23:0.0755467 24:0.131213 25:0.125249 26:0.0775348 27:0.0815109 28:0 29:0 30:0.0119284 31:0 32:0.92867 33:0.2 34:0 35:0.04 36:0.12 37:0 38:0.24 39:0.44 40:0 41:0.04 42:0.12 43:0 44:0 45:0 46:0 47:0 48:0 49:0 50:0 51:0 52:0 53:0.5 54:0.519721 55:0.5 56:0.480279 57:0 58:0 59:0 60:0 61:0 62:0 63:0.22449 64:0.204082 65:0.0918367 66:0 67:0.285714 68:0.0918367 69:0.102041 70:0 71:0 72:0 73:0 74:0 
-8.288874193485436 0 13.92852600450635 6.980774303824751 14.52188706796601 10.93826045301236 0 40.58252085280078 15.8149662403317 0 23.65869698340338 14.24258130622662 9.893801489623938 7.741611526025395 7.912968373177708 8.952880051922513 1:0.962025 2:0.412548 3:0.355513 4:0.231939 5:0.391635 6:0.448669 7:0.159696 8:0.380228 9:0.247148 10:0.209125 11:0.163498 12:0.690114 13:0.323194 14:0.425856 15:0.581749 16:0.0304183 17:0.026616 18:0.00380228 19:0.0285171 20:0.127376 21:0.195817 22:0.108365 23:0.0684411 24:0.131179 25:0.11597 26:0.0760456 27:0.0798479 28:0 29:0 30:0.00760456 31:0 32:0.894398 33:0.2 34:0 35:0.0747664 36:0.102804 37:0 38:0.214953 39:0.495327 40:0 41:0.0560748 42:0.0560748 43:0 44:0 45:0 46:0 47:0 48:0 49:0 50:0 51:0 52:0 53:0.5 54:0.520957 55:0.5 56:0.479043 57:0 58:0 59:0 60:0 61:0 62:0 63:0.176471 64:0.252101 65:0.0756303 66:0 67:0.252101 68:0.142857 69:0.10084 70:0 71:0 72:0 73:0 74:0 
-8.288874193485436 10.77923477220591 13.92852600450635 6.980774303824751 14.52188706796601 10.93826045301236 0 40.58252085280078 15.8149662403317 19.1365300900011 23.65869698340338 14.24258130622662 9.893801489623938 7.741611526025395 7.912968373177708 8.952880051922513 1:0.962025 2:0.391813 3:0.368421 4:0.239766 5:0.393762 6:0.436647 7:0.169591 8:0.346979 9:0.255361 10:0.230019 11:0.167641 12:0.674464 13:0.339181 14:0.430799 15:0.575049 16:0.0409357 17:0.00389864 18:0.00194932 19:0.0292398 20:0.111111 21:0.191033 22:0.124756 23:0.0740741 24:0.1423 25:0.11306 26:0.0760234 27:0.0838207 28:0 29:0 30:0.00779727 31:0 32:0.899002 33:0.2 34:0 35:0.0666667 36:0.104762 37:0 38:0.190476 39:0.504762 40:0 41:0.0666667 42:0.0666667 43:0 44:0 45:0 46:0 47:0 48:0 49:0 50:0 51:0 52:0 53:0.5 54:0.516037 55:0.5 56:0.483963 57:0 58:0 59:0 60:0 61:0 62:0 63:0.192308 64:0.173077 65:0.0769231 66:0 67:0.298077 68:0.163462 69:0.0961538 70:0 71:0 72:0 73:0 74:0 
-0 0 0 0 0 0 22.69463114597484 0 15.8149662403317 19.1365300900011 0 0 0 0 0 0 1:0.980769 2:0.414538 3:0.361493 4:0.223969 5:0.35167 6:0.481336 7:0.166994 8:0.367387 9:0.277014 10:0.192534 11:0.163065 12:0.693517 13:0.316306 14:0.37721 15:0.628684 16:0.0255403 17:0.00392927 18:0.00392927 19:0.0176817 20:0.131631 21:0.206287 22:0.104126 23:0.0667976 24:0.141454 25:0.13556 26:0.0687623 27:0.0805501 28:0 29:0 30:0.0137525 31:0 32:0.916242 33:0.2 34:0 35:0.0392157 36:0.0980392 37:0 38:0.186275 39:0.539216 40:0 41:0.0392157 42:0.0980392 43:0 44:0 45:0 46:0 47:0 48:0 49:0 50:0 51:0 52:0 53:0.5 54:0.508675 55:0.5 56:0.491325 57:0 58:0 59:0 60:0 61:0 62:0 63:0.174757 64:0.252427 65:0.0873786 66:0 67:0.23301 68:0.145631 69:0.106796 70:0 71:0 72:0 73:0 74:0 
-8.288874193485436 10.77923477220591 13.92852600450635 6.980774303824751 0 10.93826045301236 22.69463114597484 40.58252085280078 0 0 0 0 9.893801489623938 7.741611526025395 7.912968373177708 8.952880051922513 1:0.980769 2:0.410678 3:0.36961 4:0.219713 5:0.394251 6:0.441478 7:0.164271 8:0.386037 9:0.250513 10:0.213552 11:0.149897 12:0.714579 13:0.295688 14:0.406571 15:0.601643 16:0.0246407 17:0.0164271 18:0.00410678 19:0.0184805 20:0.131417 21:0.213552 22:0.11499 23:0.0759754 24:0.131417 25:0.119097 26:0.073922 27:0.063655 28:0 29:0 30:0.0123203 31:0 32:0.910527 33:0.2 34:0 35:0.0576923 36:0.0865385 37:0 38:0.259615 39:0.451923 40:0 41:0.0576923 42:0.0865385 43:0 44:0 45:0 46:0 47:0 48:0 49:0 50:0 51:0 52:0 53:0.5 54:0.51783 55:0.5 56:0.48217 57:0 58:0 59:0 60:0 61:0 62:0 63:0.193548 64:0.301075 65:0.0860215 66:0 67:0.172043 68:0.150538 69:0.0967742 70:0 71:0 72:0 73:0 74:0 
-3.404964595235112 -10.77923477220591 12.25560090076813 0.5904599264997078 12.0294030762524 0 0 0 8.585092874341843 7.743573192775081 8.484098651345557 7.409672618538274 0 0 0 0 1:0.999999 2:0.288056 3:0.428571 4:0.283372 5:0.24356 6:0.592506 7:0.163934 8:0.323185 9:0.220141 10:0.259953 11:0.196721 12:0.608899 13:0.400468 14:0.484778 15:0.529274 16:0 17:0 18:0 19:0 20:0.124122 21:0.199063 22:0.140515 23:0.119438 24:0.0983607 25:0.12178 26:0.100703 27:0.0960187 28:0 29:0 30:0 31:0 32:0.88474 33:0 34:0 35:0.0555556 36:0.0648148 37:0 38:0.361111 39:0.435185 40:0 41:0.0462963 42:0.037037 43:0 44:0 45:0 46:0 47:0 48:0 49:0 50:0 51:0 52:0 53:0 54:0 55:0 56:0 57:0 58:0 59:0 60:0 61:0 62:0 63:0 64:0 65:0 66:0 67:0 68:0 69:0 70:0 71:0 72:0 73:0 74:0 
-0 -10.77923477220591 0 0 12.0294030762524 0 11.35765909454011 9.500034894922399 8.585092874341843 7.743573192775081 8.484098651345557 7.409672618538274 0 0 0 0 1:0.999999 2:0.315668 3:0.407834 4:0.276498 5:0.225806 6:0.617512 7:0.156682 8:0.292627 9:0.253456 10:0.262673 11:0.191244 12:0.624424 13:0.389401 14:0.476959 15:0.532258 16:0 17:0 18:0 19:0 20:0.12212 21:0.170507 22:0.154378 23:0.108295 24:0.129032 25:0.124424 26:0.0921659 27:0.0990783 28:0 29:0 30:0 31:0 32:0.889222 33:0 34:0 35:0.0555556 36:0.0740741 37:0 38:0.296296 39:0.407407 40:0 41:0.0740741 42:0.0925926 43:0 44:0 45:0 46:0 47:0 48:0 49:0 50:0 51:0 52:0 53:0 54:0 55:0 56:0 57:0 58:0 59:0 60:0 61:0 62:0 63:0 64:0 65:0 66:0 67:0 68:0 69:0 70:0 71:0 72:0 73:0 74:0 
-9.891079684877941 -0 12.25560090076813 7.4532364380768 12.0294030762524 0 11.35765909454011 0 0 0 0 0 125.4730119080784 5.585763128207802 0 19.08507863817356 1:0.999999 2:0.282222 3:0.437778 4:0.28 5:0.26 6:0.571111 7:0.168889 8:0.308889 9:0.215556 10:0.275556 11:0.2 12:0.617778 13:0.395556 14:0.495556 15:0.517778 16:0 17:0 18:0 19:0 20:0.12 21:0.188889 22:0.168889 23:0.106667 24:0.102222 25:0.113333 26:0.104444 27:0.0955556 28:0 29:0 30:0 31:0 32:0.903116 33:0 34:0 35:0.0803571 36:0.0446429 37:0 38:0.508929 39:0.205357 40:0 41:0.107143 42:0.0535714 43:0 44:0 45:0 46:0 47:0 48:0 49:0 50:0 51:0 52:0 53:0 54:0 55:0 56:0 57:0 58:0 59:0 60:0 61:0 62:0 63:0 64:0 65:0 66:0 67:0 68:0 69:0 70:0 71:0 72:0 73:0 74:0 
-9.891079684877941 -0 12.25560090076813 7.4532364380768 0 11.35595051896269 11.35765909454011 9.500034894922399 0 0 8.484098651345557 7.409672618538274 125.4730119080784 20.00160593485849 20.46549270046975 34.77677670670525 1:0.999999 2:0.31384 3:0.387914 4:0.298246 5:0.243665 6:0.584795 7:0.17154 8:0.296296 9:0.226121 10:0.249513 11:0.22807 12:0.596491 13:0.415205 14:0.469786 15:0.54386 16:0 17:0 18:0 19:0 20:0.116959 21:0.179337 22:0.136452 23:0.11306 24:0.11501 25:0.111111 26:0.118908 27:0.109162 28:0 29:0 30:0 31:0 32:0.90411 33:0 34:0 35:0.078125 36:0.0390625 37:0 38:0.492188 39:0.25 40:0 41:0.0703125 42:0.0703125 43:0 44:0 45:0 46:0 47:0 48:0 49:0 50:0 51:0 52:0 53:0 54:0 55:0 56:0 57:0 58:0 59:0 60:0 61:0 62:0 63:0 64:0 65:0 66:0 67:0 68:0 69:0 70:0 71:0 72:0 73:0 74:0 
-9.891079684877941 -0 0 7.4532364380768 0 11.35595051896269 11.35765909454011 9.500034894922399 0 0 0 7.409672618538274 125.4730119080784 0 0 0 1:0.999999 2:0.309859 3:0.420188 4:0.269953 5:0.239437 6:0.605634 7:0.15493 8:0.300469 9:0.241784 10:0.248826 11:0.20892 12:0.624413 13:0.387324 14:0.474178 15:0.539906 16:0 17:0 18:0 19:0 20:0.119718 21:0.180751 22:0.143192 23:0.105634 24:0.124413 25:0.117371 26:0.107981 27:0.100939 28:0 29:0 30:0 31:0 32:0.90411 33:0 34:0 35:0.0909091 36:0.0454545 37:0 38:0.536364 39:0.172727 40:0 41:0.109091 42:0.0454545 43:0 44:0 45:0 46:0 47:0 48:0 49:0 50:0 51:0 52:0 53:0 54:0 55:0 56:0 57:0 58:0 59:0 60:0 61:0 62:0 63:0 64:0 65:0 66:0 67:0 68:0 69:0 70:0 71:0 72:0 73:0 74:0 
-0 -10.77923477220591 0 0 0 11.35595051896269 0 9.500034894922399 0 0 0 0 125.4730119080784 20.00160593485849 20.46549270046975 34.77677670670525 1:0.999999 2:0.309133 3:0.423888 4:0.266979 5:0.266979 6:0.576112 7:0.156909 8:0.323185 9:0.23185 10:0.236534 11:0.208431 12:0.632319 13:0.377049 14:0.477752 15:0.529274 16:0 17:0 18:0 19:0 20:0.124122 21:0.199063 22:0.133489 23:0.103044 24:0.114754 25:0.117096 26:0.103044 27:0.105386 28:0 29:0 30:0 31:0 32:0.926014 33:0 34:0 35:0.0964912 36:0.0614035 37:0 38:0.45614 39:0.22807 40:0 41:0.0964912 42:0.0614035 43:0 44:0 45:0 46:0 47:0 48:0 49:0 50:0 51:0 52:0 53:0 54:0 55:0 56:0 57:0 58:0 59:0 60:0 61:0 62:0 63:0 64:0 65:0 66:0 67:0 68:0 69:0 70:0 71:0 72:0 73:0 74:0 
-0 -10.77923477220591 12.25560090076813 0 12.0294030762524 0 0 0 8.585092874341843 7.743573192775081 8.484098651345557 0 0 14.41584280665069 15.40456543559464 34.77677670670525 1:0.999999 2:0.285714 3:0.428571 4:0.285714 5:0.264977 6:0.580645 7:0.154378 8:0.315668 9:0.209677 10:0.281106 11:0.193548 12:0.608295 13:0.40553 14:0.506912 15:0.502304 16:0 17:0 18:0 19:0 20:0.124424 21:0.191244 22:0.16129 23:0.119816 24:0.0990783 25:0.110599 26:0.09447 27:0.0990783 28:0 29:0 30:0 31:0 32:0.913648 33:0 34:0 35:0.0701754 36:0.0789474 37:0 38:0.307018 39:0.385965 40:0 41:0.0789474 42:0.0789474 43:0 44:0 45:0 46:0 47:0 48:0 49:0 50:0 51:0 52:0 53:0 54:0 55:0 56:0 57:0 58:0 59:0 60:0 61:0 62:0 63:0 64:0 65:0 66:0 67:0 68:0 69:0 70:0 71:0 72:0 73:0 74:0 
-0 -10.77923477220591 12.25560090076813 0 12.0294030762524 0 0 0 8.585092874341843 7.743573192775081 8.484098651345557 7.409672618538274 0 20.00160593485849 20.46549270046975 15.69169806853169 1:0.999999 2:0.31643 3:0.403651 4:0.279919 5:0.251521 6:0.586207 7:0.162272 8:0.302231 9:0.225152 10:0.26572 11:0.206897 12:0.610548 13:0.401623 14:0.464503 15:0.545639 16:0 17:0 18:0 19:0 20:0.127789 21:0.174442 22:0.146045 23:0.119675 24:0.107505 25:0.117647 26:0.117647 27:0.0892495 28:0 29:0 30:0 31:0 32:0.917356 33:0 34:0 35:0.0547945 36:0.0684932 37:0 38:0.294521 39:0.424658 40:0 41:0.0616438 42:0.0958904 43:0 44:0 45:0 46:0 47:0 48:0 49:0 50:0 51:0 52:0 53:0 54:0 55:0 56:0 57:0 58:0 59:0 60:0 61:0 62:0 63:0 64:0 65:0 66:0 67:0 68:0 69:0 70:0 71:0 72:0 73:0 74:0 
-9.891079684877941 -0 0 6.862776511577092 0 11.35595051896269 11.35765909454011 0 8.585092874341843 7.743573192775081 0 0 0 0 5.060927264875104 0 1:0.999999 2:0.318982 3:0.407045 4:0.273973 5:0.227006 6:0.594912 7:0.178082 8:0.295499 9:0.248532 10:0.236791 11:0.219178 12:0.604697 13:0.410959 14:0.454012 15:0.555773 16:0 17:0 18:0 19:0 20:0.117417 21:0.178082 22:0.131115 23:0.105675 24:0.117417 25:0.131115 26:0.11546 27:0.103718 28:0 29:0 30:0 31:0 32:0.916667 33:0 34:0 35:0.075188 36:0.0451128 37:0 38:0.481203 39:0.233083 40:0 41:0.0977444 42:0.0676692 43:0 44:0 45:0 46:0 47:0 48:0 49:0 50:0 51:0 52:0 53:0 54:0 55:0 56:0 57:0 58:0 59:0 60:0 61:0 62:0 63:0 64:0 65:0 66:0 67:0 68:0 69:0 70:0 71:0 72:0 73:0 74:0 
-6.486115089642829 -0 0 7.4532364380768 0 11.35595051896269 0 9.500034894922399 0 0 0 0 125.4730119080784 20.00160593485849 20.46549270046975 34.77677670670525 1:0.999999 2:0.292411 3:0.424107 4:0.283482 5:0.272321 6:0.571429 7:0.15625 8:0.325893 9:0.209821 10:0.267857 11:0.196429 12:0.629464 13:0.383929 14:0.495536 15:0.520089 16:0 17:0 18:0 19:0 20:0.127232 21:0.198661 22:0.154018 23:0.113839 24:0.102679 25:0.107143 26:0.102679 27:0.09375 28:0 29:0 30:0 31:0 32:0.911088 33:0 34:0 35:0.10084 36:0.0504202 37:0 38:0.537815 39:0.151261 40:0 41:0.109244 42:0.0504202 43:0 44:0 45:0 46:0 47:0 48:0 49:0 50:0 51:0 52:0 53:0 54:0 55:0 56:0 57:0 58:0 59:0 60:0 61:0 62:0 63:0 64:0 65:0 66:0 67:0 68:0 69:0 70:0 71:0 72:0 73:0 74:0 
-0 -13.92852600450635 -12.25560090076813 8.960453269435535 17.60154474463952 37.19231191190027 0 14.15729525474702 18.21317549268132 11.56145990753432 20.4330765073493 14.79477512247592 0 11.76921181724466 11.50217286939251 12.57608397240823 1:0.65873 2:0.29863 3:0.405479 4:0.29589 5:0.383562 6:0.435616 7:0.180822 8:0.306849 9:0.210959 10:0.252055 11:0.230137 12:0.536986 13:0.468493 14:0.476712 15:0.528767 16:0.0493151 17:0.0739726 18:0.0739726 19:0.0821918 20:0.139726 21:0.0438356 22:0.00821918 23:0.0876712 24:0.0438356 25:0.123288 26:0.0986301 27:0.0739726 28:0 29:0.0438356 30:0.0575342 31:0 32:0.688604 33:0.2 34:0 35:0.13 36:0.13 37:0 38:0.35 39:0.39 40:0 41:0 42:0 43:0 44:0 45:0 46:0 47:0 48:0 49:0 50:0 51:0.5 52:0.399192 53:0.25 54:0.325971 55:0.25 56:0.274837 57:0 58:0 59:0 60:0 61:0 62:0 63:0.13253 64:0.216867 65:0.108434 66:0 67:0.060241 68:0.108434 69:0.277108 70:0 71:0 72:0 73:0.0963855 74:0 
-0 -13.92852600450635 -12.25560090076813 0 17.60154474463952 37.19231191190027 15.04369386545154 14.15729525474702 18.21317549268132 11.56145990753432 20.4330765073493 14.79477512247592 13.07030701621127 0 0 0 1:0.672 2:0.282209 3:0.407975 4:0.309816 5:0.380368 6:0.45092 7:0.168712 8:0.276074 9:0.217791 10:0.279141 11:0.226994 12:0.555215 13:0.45092 14:0.5 15:0.506135 16:0.0337423 17:0.0736196 18:0.119632 19:0.0705521 20:0.131902 21:0.0368098 22:0.00306748 23:0.0858896 24:0.0552147 25:0.125767 26:0.101227 27:0.0797546 28:0 29:0.0368098 30:0.0460123 31:0 32:0.699985 33:0.2 34:0 35:0.0779221 36:0.0649351 37:0 38:0.454545 39:0.402597 40:0 41:0 42:0 43:0 44:0 45:0 46:0 47:0 48:0 49:0 50:0 51:0.5 52:0.395641 53:0.25 54:0.330729 55:0.25 56:0.273631 57:0 58:0 59:0 60:0 61:0 62:0 63:0.202899 64:0.231884 65:0.101449 66:0 67:0.057971 68:0.0869565 69:0.173913 70:0 71:0 72:0.0289855 73:0.115942 74:0 
-0 -13.92852600450635 -0 0 0 0 15.04369386545154 0 1.172945133540748 0 20.4330765073493 2.130544131526976 0 3.233738072769705 11.50217286939251 12.57608397240823 1:0.670635 2:0.302053 3:0.40176 4:0.296188 5:0.398827 6:0.44868 7:0.152493 8:0.322581 9:0.196481 10:0.26393 11:0.217009 12:0.580645 13:0.42522 14:0.498534 15:0.504399 16:0.0439883 17:0.0938416 18:0.102639 19:0.0791789 20:0.140762 21:0.0439883 22:0 23:0.0821114 24:0.058651 25:0.105572 26:0.0879765 27:0.0791789 28:0 29:0.0322581 30:0.0498534 31:0 32:0.702908 33:0.2 34:0 35:0.140845 36:0.140845 37:0 38:0.394366 39:0.323944 40:0 41:0 42:0 43:0 44:0 45:0 46:0 47:0 48:0 49:0 50:0 51:0.5 52:0.39312 53:0.25 54:0.327696 55:0.25 56:0.279184 57:0 58:0 59:0 60:0 61:0 62:0 63:0.261538 64:0.169231 65:0.0615385 66:0 67:0.0153846 68:0.0923077 69:0.323077 70:0 71:0 72:0 73:0.0769231 74:0 
-26.3339020231136 -0 -12.25560090076813 8.960453269435535 0 37.19231191190027 15.04369386545154 14.15729525474702 0 0 0 0 13.07030701621127 11.76921181724466 11.50217286939251 12.57608397240823 1:0.670635 2:0.28754 3:0.415335 4:0.297125 5:0.383387 6:0.440895 7:0.175719 8:0.28754 9:0.210863 10:0.271565 11:0.230032 12:0.546326 13:0.460064 14:0.492013 15:0.511182 16:0.0319489 17:0.0798722 18:0.102236 19:0.0830671 20:0.13738 21:0.0383387 22:0.00638978 23:0.0798722 24:0.0607029 25:0.102236 26:0.108626 27:0.0734824 28:0 29:0.0479233 30:0.0479233 31:0 32:0.696179 33:0.2 34:0 35:0.16 36:0.12 37:0 38:0.466667 39:0.253333 40:0 41:0 42:0 43:0 44:0 45:0 46:0 47:0 48:0 49:0 50:0 51:0.5 52:0.395169 53:0.25 54:0.326033 55:0.25 56:0.278798 57:0 58:0 59:0 60:0 61:0 62:0 63:0.241935 64:0.145161 65:0.0967742 66:0 67:0.0322581 68:0.129032 69:0.274194 70:0 71:0 72:0 73:0.0806452 74:0 
-26.3339020231136 -13.92852600450635 -12.25560090076813 2.627617412918553 17.60154474463952 0 0 0 18.21317549268132 11.56145990753432 20.4330765073493 14.79477512247592 0 11.76921181724466 11.50217286939251 12.57608397240823 1:0.649606 2:0.274725 3:0.406593 4:0.318681 5:0.39011 6:0.436813 7:0.173077 8:0.271978 9:0.214286 10:0.288462 11:0.225275 12:0.532967 13:0.472527 14:0.508242 15:0.494505 16:0.0412088 17:0.0796703 18:0.0989011 19:0.0796703 20:0.112637 21:0.0384615 22:0.00824176 23:0.101648 24:0.0604396 25:0.112637 26:0.0906593 27:0.0714286 28:0 29:0.0412088 30:0.0631868 31:0 32:0.693259 33:0.2 34:0 35:0.103448 36:0.103448 37:0 38:0.367816 39:0.425287 40:0 41:0 42:0 43:0 44:0 45:0 46:0 47:0 48:0 49:0 50:0 51:0.5 52:0.391953 53:0.25 54:0.32748 55:0.25 56:0.280566 57:0 58:0 59:0 60:0 61:0 62:0 63:0.144928 64:0.15942 65:0.217391 66:0 67:0.0434783 68:0.101449 69:0.15942 70:0 71:0 72:0 73:0.173913 74:0 
-26.3339020231136 -0 -12.25560090076813 8.960453269435535 0 37.19231191190027 15.04369386545154 14.15729525474702 0 0 0 12.66423099094895 13.07030701621127 11.76921181724466 11.50217286939251 12.57608397240823 1:0.666667 2:0.278125 3:0.4 4:0.321875 5:0.38125 6:0.440625 7:0.178125 8:0.265625 9:0.221875 10:0.28125 11:0.23125 12:0.546875 13:0.459375 14:0.503125 15:0.503125 16:0.03125 17:0.075 18:0.1125 19:0.08125 20:0.128125 21:0.03125 22:0.003125 23:0.084375 24:0.05625 25:0.125 26:0.084375 27:0.084375 28:0 29:0.040625 30:0.0625 31:0 32:0.695702 33:0.2 34:0 35:0.116883 36:0.0649351 37:0 38:0.506494 39:0.311688 40:0 41:0 42:0 43:0 44:0 45:0 46:0 47:0 48:0 49:0 50:0 51:0.5 52:0.400149 53:0.25 54:0.327773 55:0.25 56:0.272078 57:0 58:0 59:0 60:0 61:0 62:0 63:0.193548 64:0.193548 65:0.145161 66:0 67:0.0645161 68:0.112903 69:0.145161 70:0 71:0 72:0 73:0.145161 74:0 
-0 -0 -0 0 17.60154474463952 0 0 0 18.21317549268132 11.56145990753432 20.4330765073493 0 0 0 0 0 1:0.665354 2:0.280757 3:0.40694 4:0.312303 5:0.391167 6:0.451104 7:0.157729 8:0.280757 9:0.201893 10:0.283912 11:0.233438 12:0.548896 13:0.454259 14:0.501577 15:0.501577 16:0.0347003 17:0.0757098 18:0.113565 19:0.0788644 20:0.135647 21:0.0347003 22:0.00630915 23:0.0851735 24:0.0567823 25:0.11041 26:0.100946 27:0.0820189 28:0 29:0.0347003 30:0.0504732 31:0 32:0.689759 33:0.2 34:0 35:0.108108 36:0.0945946 37:0 38:0.418919 39:0.378378 40:0 41:0 42:0 43:0 44:0 45:0 46:0 47:0 48:0 49:0 50:0 51:0.5 52:0.406044 53:0.25 54:0.324097 55:0.25 56:0.269859 57:0 58:0 59:0 60:0 61:0 62:0 63:0.254237 64:0.135593 65:0.101695 66:0 67:0.0169492 68:0.135593 69:0.20339 70:0 71:0 72:0 73:0.152542 74:0 
-26.3339020231136 -13.92852600450635 -0 0 0 0 0 0 0 0 0 0 0 0 0 0 1:0.670635 2:0.271084 3:0.448795 4:0.28012 5:0.418675 6:0.418675 7:0.162651 8:0.319277 9:0.207831 10:0.256024 11:0.216867 12:0.563253 13:0.439759 14:0.512048 15:0.490964 16:0.0421687 17:0.120482 18:0.0933735 19:0.0843373 20:0.114458 21:0.0421687 22:0.00301205 23:0.0753012 24:0.060241 25:0.105422 26:0.0993976 27:0.0662651 28:0 29:0.0421687 30:0.0512048 31:0 32:0.700302 33:0.2 34:0 35:0.140845 36:0.140845 37:0 38:0.394366 39:0.323944 40:0 41:0 42:0 43:0 44:0 45:0 46:0 47:0 48:0 49:0 50:0 51:0.5 52:0.396994 53:0.25 54:0.326668 55:0.25 56:0.276338 57:0 58:0 59:0 60:0 61:0 62:0 63:0.213115 64:0.131148 65:0.0983607 66:0 67:0.0163934 68:0.131148 69:0.327869 70:0 71:0 72:0 73:0.0819672 74:0 
-0 -0 -0 6.332835856516982 0 0 0 0 0 0 0 0 13.07030701621127 0 0 0 1:0.672 2:0.276398 3:0.419255 4:0.304348 5:0.413043 6:0.425466 7:0.161491 8:0.28882 9:0.204969 10:0.295031 11:0.21118 12:0.571429 13:0.434783 14:0.521739 15:0.484472 16:0.0372671 17:0.0807453 18:0.127329 19:0.0745342 20:0.121118 21:0.0496894 22:0.00621118 23:0.0869565 24:0.0559006 25:0.114907 26:0.0900621 27:0.068323 28:0 29:0.0341615 30:0.052795 31:0 32:0.694076 33:0.2 34:0 35:0.134146 36:0.0853659 37:0 38:0.512195 39:0.268293 40:0 41:0 42:0 43:0 44:0 45:0 46:0 47:0 48:0 49:0 50:0 51:0.5 52:0.38876 53:0.25 54:0.3251 55:0.25 56:0.286139 57:0 58:0 59:0 60:0 61:0 62:0 63:0.149254 64:0.253731 65:0.164179 66:0 67:0.0447761 68:0.0298507 69:0.268657 70:0 71:0 72:0 73:0.0895522 74:0 
-26.3339020231136 -0 -0 8.960453269435535 17.60154474463952 37.19231191190027 15.04369386545154 14.15729525474702 17.04023035914057 11.56145990753432 0 14.79477512247592 13.07030701621127 8.535473744474952 0 0 1:0.666667 2:0.280864 3:0.432099 4:0.287037 5:0.388889 6:0.429012 7:0.182099 8:0.280864 9:0.219136 10:0.268519 11:0.231481 12:0.552469 13:0.453704 14:0.487654 15:0.518519 16:0.0432099 17:0.0740741 18:0.114198 19:0.0740741 20:0.123457 21:0.0401235 22:0.00617284 23:0.0740741 24:0.0524691 25:0.123457 26:0.095679 27:0.0740741 28:0 29:0.0432099 30:0.0617284 31:0 32:0.684249 33:0.2 34:0 35:0.116883 36:0.0649351 37:0 38:0.506494 39:0.311688 40:0 41:0 42:0 43:0 44:0 45:0 46:0 47:0 48:0 49:0 50:0 51:0.5 52:0.404315 53:0.25 54:0.324313 55:0.25 56:0.271373 57:0 58:0 59:0 60:0 61:0 62:0 63:0.166667 64:0.181818 65:0.121212 66:0 67:0.0454545 68:0.151515 69:0.212121 70:0 71:0 72:0 73:0.121212 74:0 
-13.03384235093879 -6.980774303824751 -7.4532364380768 -8.960453269435535 9.350478908398449 0 12.10715677646695 10.18502509708081 9.897589554717444 9.883472024852987 10.03358849570026 11.48055376114367 8.552228160131108 9.805755378864214 9.39237590965252 9.091475665903273 1:0.364198 2:0.31856 3:0.457064 4:0.224377 5:0.34903 6:0.285319 7:0.365651 8:0.301939 9:0.313019 10:0.204986 11:0.180055 12:0.468144 13:0.537396 14:0.534626 15:0.470914 16:0 17:0.188366 18:0.0110803 19:0 20:0 21:0.113573 22:0.116343 23:0.0775623 24:0 25:0.110803 26:0.0304709 27:0.0886427 28:0.0858726 29:0.116343 30:0.0609418 31:0 32:0.645405 33:0.2 34:0 35:0.101124 36:0.011236 37:0 38:0.47191 39:0.213483 40:0 41:0.157303 42:0.0449438 43:0 44:0 45:0 46:0 47:0 48:0 49:0 50:0 51:0 52:0 53:0.5 54:0.464537 55:0 56:0 57:0.5 58:0.535463 59:0 60:0.126437 61:0 62:0 63:0 64:0.264368 65:0.0574713 66:0 67:0 68:0.287356 69:0.0574713 70:0 71:0.0804598 72:0.126437 73:0 74:0 
-13.03384235093879 -6.980774303824751 -7.4532364380768 -8.960453269435535 9.350478908398449 9.131168303165905 1.607523544378052 10.18502509708081 9.897589554717444 9.883472024852987 0 0.122295454798661 8.552228160131108 9.805755378864214 9.39237590965252 9.091475665903273 1:0.356707 2:0.291785 3:0.458924 4:0.249292 5:0.342776 6:0.311615 7:0.345609 8:0.294618 9:0.303116 10:0.215297 11:0.186969 12:0.458924 13:0.546742 14:0.560907 15:0.444759 16:0 17:0.17847 18:0.00566572 19:0 20:0 21:0.116147 22:0.121813 23:0.0878187 24:0 25:0.11898 26:0.0396601 27:0.101983 28:0.0651558 29:0.11898 30:0.0453258 31:0 32:0.655172 33:0.2 34:0 35:0.113636 36:0.0227273 37:0 38:0.511364 39:0.147727 40:0 41:0.147727 42:0.0568182 43:0 44:0 45:0 46:0 47:0 48:0 49:0 50:0 51:0 52:0 53:0.5 54:0.471738 55:0 56:0 57:0.5 58:0.528262 59:0 60:0.120482 61:0 62:0 63:0 64:0.301205 65:0.060241 66:0 67:0 68:0.277108 69:0.060241 70:0 71:0.0481928 72:0.13253 73:0 74:0 
-13.03384235093879 -6.980774303824751 -7.4532364380768 -8.960453269435535 9.350478908398449 9.131168303165905 12.10715677646695 0 9.897589554717444 9.883472024852987 10.03358849570026 11.48055376114367 8.552228160131108 9.805755378864214 9.39237590965252 9.091475665903273 1:0.364198 2:0.322129 3:0.456583 4:0.221289 5:0.344538 6:0.302521 7:0.352941 8:0.313725 9:0.310924 10:0.196078 11:0.179272 12:0.484594 13:0.521008 14:0.532213 15:0.473389 16:0 17:0.184874 18:0.0196078 19:0 20:0 21:0.128852 22:0.10084 23:0.0756303 24:0 25:0.117647 26:0.0336134 27:0.092437 28:0.0784314 29:0.114846 30:0.0532213 31:0 32:0.649619 33:0.2 34:0 35:0.129412 36:0.0117647 37:0 38:0.470588 39:0.211765 40:0 41:0.141176 42:0.0352941 43:0 44:0 45:0 46:0 47:0 48:0 49:0 50:0 51:0 52:0 53:0.5 54:0.438169 55:0 56:0 57:0.5 58:0.561831 59:0 60:0.177778 61:0 62:0 63:0 64:0.155556 65:0.0222222 66:0 67:0 68:0.355556 69:0.0666667 70:0 71:0.0777778 72:0.144444 73:0 74:0 
-0 -0 -7.4532364380768 -8.960453269435535 9.350478908398449 9.131168303165905 12.10715677646695 10.18502509708081 9.897589554717444 9.883472024852987 10.03358849570026 11.48055376114367 8.552228160131108 0 0 0 1:0.356707 2:0.323034 3:0.44382 4:0.233146 5:0.328652 6:0.331461 7:0.339888 8:0.300562 9:0.320225 10:0.207865 11:0.171348 12:0.477528 13:0.52809 14:0.536517 15:0.47191 16:0 17:0.174157 18:0.00842697 19:0 20:0 21:0.126404 22:0.120787 23:0.0786517 24:0 25:0.126404 26:0.0393258 27:0.0926966 28:0.0786517 29:0.115169 30:0.0393258 31:0 32:0.637194 33:0.2 34:0 35:0.107527 36:0 37:0 38:0.537634 39:0.182796 40:0 41:0.129032 42:0.0430108 43:0 44:0 45:0 46:0 47:0 48:0 49:0 50:0 51:0 52:0 53:0.5 54:0.445225 55:0 56:0 57:0.5 58:0.554775 59:0 60:0.23913 61:0 62:0 63:0 64:0.228261 65:0.0543478 66:0 67:0 68:0.271739 69:0.0434783 70:0 71:0.0543478 72:0.108696 73:0 74:0 
-13.03384235093879 -6.980774303824751 -0 -8.960453269435535 0 9.131168303165905 12.10715677646695 10.18502509708081 9.897589554717444 0 10.03358849570026 11.48055376114367 0 0 0 0 1:0.361111 2:0.358333 3:0.441667 4:0.2 5:0.377778 6:0.272222 7:0.35 8:0.336111 9:0.319444 10:0.188889 11:0.155556 12:0.5 13:0.505556 14:0.533333 15:0.472222 16:0 17:0.2 18:0.00833333 19:0 20:0 21:0.136111 22:0.108333 23:0.0722222 24:0 25:0.116667 26:0.0416667 27:0.0722222 28:0.0833333 29:0.119444 30:0.0416667 31:0 32:0.627143 33:0.2 34:0 35:0.0779221 36:0 37:0 38:0.61039 39:0.194805 40:0 41:0.0909091 42:0.025974 43:0 44:0 45:0 46:0 47:0 48:0 49:0 50:0 51:0 52:0 53:0.5 54:0.460379 55:0 56:0 57:0.5 58:0.539621 59:0 60:0.0933333 61:0 62:0 63:0 64:0.293333 65:0.0533333 66:0 67:0 68:0.346667 69:0.0533333 70:0 71:0.0533333 72:0.106667 73:0 74:0 
-0 -0 -0 -0 0 9.131168303165905 10.4996332320889 0 0 0 0 0 0 0 0 0 1:0.361111 2:0.368421 3:0.434903 4:0.196676 5:0.351801 6:0.274238 7:0.373961 8:0.33795 9:0.33241 10:0.166205 11:0.163435 12:0.479224 13:0.520776 14:0.515235 15:0.490305 16:0 17:0.213296 18:0.0138504 19:0 20:0 21:0.124654 22:0.0747922 23:0.0775623 24:0 25:0.119114 26:0.0304709 27:0.0747922 28:0.0914127 29:0.121884 30:0.0581717 31:0 32:0.653261 33:0.2 34:0 35:0.0549451 36:0 37:0 38:0.571429 39:0.175824 40:0 41:0.186813 42:0.010989 43:0 44:0 45:0 46:0 47:0 48:0 49:0 50:0 51:0 52:0 53:0.5 54:0.429001 55:0 56:0 57:0.5 58:0.570999 59:0 60:0.11828 61:0 62:0 63:0 64:0.16129 65:0.0215054 66:0 67:0 68:0.365591 69:0.0430108 70:0 71:0.0860215 72:0.204301 73:0 74:0 
-0 -0 -7.4532364380768 -0 0 0 0 0 0 0 0 0 8.552228160131108 9.805755378864214 9.39237590965252 9.091475665903273 1:0.361963 2:0.33815 3:0.445087 4:0.216763 5:0.369942 6:0.286127 7:0.343931 8:0.317919 9:0.309249 10:0.202312 11:0.17052 12:0.49422 13:0.511561 14:0.543353 15:0.459538 16:0 17:0.190751 18:0.00867052 19:0 20:0 21:0.127168 22:0.130058 23:0.0635838 24:0 25:0.118497 26:0.0317919 27:0.0867052 28:0.0780347 29:0.112717 30:0.0520231 31:0 32:0.645405 33:0.2 34:0 35:0.113636 36:0.0340909 37:0 38:0.511364 39:0.125 40:0 41:0.181818 42:0.0340909 43:0 44:0 45:0 46:0 47:0 48:0 49:0 50:0 51:0 52:0 53:0.5 54:0.437889 55:0 56:0 57:0.5 58:0.562111 59:0 60:0.23913 61:0 62:0 63:0 64:0.206522 65:0.0652174 66:0 67:0 68:0.23913 69:0.0652174 70:0 71:0.0543478 72:0.130435 73:0 74:0 
-13.03384235093879 -0 -0 -0 0 0 0 0 0 0 0 0 0 0 0 0 1:0.356707 2:0.309589 3:0.468493 4:0.221918 5:0.356164 6:0.287671 7:0.356164 8:0.309589 9:0.320548 10:0.208219 11:0.161644 12:0.465753 13:0.536986 14:0.542466 15:0.465753 16:0 17:0.186301 18:0.0109589 19:0 20:0 21:0.123288 22:0.115068 23:0.0821918 24:0 25:0.109589 26:0.0383562 27:0.0821918 28:0.0739726 29:0.136986 30:0.0410959 31:0 32:0.645059 33:0.2 34:0 35:0.107527 36:0 37:0 38:0.537634 39:0.182796 40:0 41:0.129032 42:0.0430108 43:0 44:0 45:0 46:0 47:0 48:0 49:0 50:0 51:0 52:0 53:0.5 54:0.428596 55:0 56:0 57:0.5 58:0.571404 59:0 60:0.232323 61:0 62:0 63:0 64:0.131313 65:0.040404 66:0 67:0 68:0.323232 69:0.030303 70:0 71:0.0808081 72:0.161616 73:0 74:0 
-0 -6.980774303824751 -0 -0 9.350478908398449 0 0 10.18502509708081 0 9.883472024852987 10.03358849570026 11.35825830634501 0 9.805755378864214 9.39237590965252 9.091475665903273 1:0.361111 2:0.340909 3:0.465909 4:0.193182 5:0.392045 6:0.252841 7:0.355114 8:0.34375 9:0.301136 10:0.181818 11:0.173295 12:0.502841 13:0.502841 14:0.545455 15:0.460227 16:0 17:0.213068 18:0.0170455 19:0 20:0 21:0.130682 22:0.105114 23:0.0596591 24:0 25:0.102273 26:0.0426136 27:0.0795455 28:0.0852273 29:0.113636 30:0.0511364 31:0 32:0.649521 33:0.2 34:0 35:0.091954 36:0 37:0 38:0.528736 39:0.218391 40:0 41:0.126437 42:0.0344828 43:0 44:0 45:0 46:0 47:0 48:0 49:0 50:0 51:0 52:0 53:0.5 54:0.436637 55:0 56:0 57:0.5 58:0.563363 59:0 60:0.148936 61:0 62:0 63:0 64:0.202128 65:0.0957447 66:0 67:0 68:0.308511 69:0.0744681 70:0 71:0.0531915 72:0.117021 73:0 74:0 
-12.87926059838049 -14.52188706796601 -12.0294030762524 -17.60154474463952 -9.350478908398449 13.29948931553934 25.2589505934693 12.60810755481836 12.43018863042753 0 17.79005374015811 5.423269017597268 11.67499506357335 10.57836365659758 10.27477865829115 11.31117153426647 1:0.608392 2:0.189759 3:0.496988 4:0.313253 5:0.195783 6:0.554217 7:0.25 8:0.183735 9:0.222892 10:0.35241 11:0.240964 12:0.557229 13:0.454819 14:0.512048 15:0.493976 16:0 17:0 18:0.126506 19:0 20:0.0572289 21:0.126506 22:0.174699 23:0.0512048 24:0.0783133 25:0.111446 26:0 27:0.0813253 28:0 29:0.0331325 30:0.0813253 31:0.0783133 32:0.576658 33:0.4 34:0 35:0 36:0 37:0 38:0.285714 39:0.467532 40:0 41:0.0909091 42:0.155844 43:0.125 44:0.104374 45:0 46:0 47:0 48:0 49:0.125 50:0.0843813 51:0.125 52:0.073456 53:0.125 54:0.143239 55:0.375 56:0.449375 57:0.125 58:0.145175 59:0 60:0 61:0.0609756 62:0 63:0.0609756 64:0.054878 65:0.121951 66:0 67:0.231707 68:0.243902 69:0.170732 70:0 71:0 72:0.0121951 73:0.0426829 74:0 
-0 -14.52188706796601 -0 -0 -0 0 0 0 0 24.57434111198304 0 21.05052580974901 0 10.57836365659758 10.27477865829115 0 1:0.604895 2:0.230978 3:0.486413 4:0.282609 5:0.182065 6:0.576087 7:0.241848 8:0.217391 9:0.209239 10:0.336957 11:0.236413 12:0.603261 13:0.407609 14:0.48913 15:0.519022 16:0 17:0 18:0.11413 19:0 20:0.0788043 21:0.138587 22:0.184783 23:0.0380435 24:0.0869565 25:0.100543 26:0 27:0.0679348 28:0 29:0.0217391 30:0.0978261 31:0.0706522 32:0.572379 33:0.4 34:0 35:0 36:0 37:0 38:0.144737 39:0.447368 40:0 41:0.118421 42:0.289474 43:0.125 44:0.0885562 45:0 46:0 47:0 48:0 49:0.125 50:0.089055 51:0.125 52:0.0725708 53:0.125 54:0.132982 55:0.375 56:0.467594 57:0.125 58:0.149242 59:0 60:0 61:0.0709677 62:0 63:0.0774194 64:0.103226 65:0.141935 66:0 67:0.129032 68:0.245161 69:0.219355 70:0 71:0 72:0 73:0.0129032 74:0 
-12.87926059838049 -14.52188706796601 -12.0294030762524 -17.60154474463952 -9.350478908398449 0 25.2589505934693 12.60810755481836 12.43018863042753 24.57434111198304 17.79005374015811 15.62725679215174 11.67499506357335 10.57836365659758 10.27477865829115 11.31117153426647 1:0.604895 2:0.196629 3:0.519663 4:0.283708 5:0.227528 6:0.522472 7:0.25 8:0.196629 9:0.196629 10:0.379213 11:0.227528 12:0.609551 13:0.398876 14:0.519663 15:0.483146 16:0 17:0 18:0.154494 19:0 20:0.0646067 21:0.132022 22:0.179775 23:0.0449438 24:0.0730337 25:0.0955056 26:0 27:0.0617978 28:0 29:0.0280899 30:0.0983146 31:0.0674157 32:0.57052 33:0.2 34:0 35:0 36:0 37:0 38:0.260274 39:0.452055 40:0 41:0.0958904 42:0.191781 43:0 44:0 45:0 46:0 47:0 48:0 49:0.25 50:0.145417 51:0 52:0 53:0.25 54:0.259266 55:0.25 56:0.334468 57:0.25 58:0.260849 59:0 60:0 61:0.142857 62:0 63:0.131868 64:0.164835 65:0.230769 66:0 67:0.0659341 68:0.0989011 69:0.164835 70:0 71:0 72:0 73:0 74:0 
-12.87926059838049 -14.52188706796601 -12.0294030762524 -0 -0 13.29948931553934 25.2589505934693 12.60810755481836 12.43018863042753 24.57434111198304 17.79005374015811 21.05052580974901 11.67499506357335 0 0 11.31117153426647 1:0.604895 2:0.217631 3:0.501377 4:0.280992 5:0.220386 6:0.550964 7:0.22865 8:0.192837 9:0.22865 10:0.366391 11:0.212121 12:0.62259 13:0.38843 14:0.506887 15:0.498623 16:0 17:0 18:0.146006 19:0 20:0.0716253 21:0.121212 22:0.176309 23:0.0440771 24:0.0909091 25:0.118457 26:0 27:0.0606061 28:0 29:0.0192837 30:0.0853994 31:0.0661157 32:0.57052 33:0.4 34:0 35:0 36:0 37:0 38:0.231884 39:0.463768 40:0 41:0.115942 42:0.188406 43:0.125 44:0.0876828 45:0 46:0 47:0 48:0 49:0.125 50:0.0875949 51:0.125 52:0.071006 53:0.125 54:0.141016 55:0.375 56:0.466013 57:0.125 58:0.146687 59:0 60:0 61:0.06875 62:0 63:0.03125 64:0.075 65:0.11875 66:0 67:0.2375 68:0.29375 69:0.16875 70:0 71:0 72:0 73:0.00625 74:0 
-0 -0 -0 -17.60154474463952 -9.350478908398449 0 0 0 0 0 0 0 0 0 0 0 1:0.6 2:0.195402 3:0.502874 4:0.301724 5:0.204023 6:0.551724 7:0.244253 8:0.195402 9:0.204023 10:0.356322 11:0.244253 12:0.571839 13:0.431034 14:0.511494 15:0.494253 16:0 17:0 18:0.135057 19:0 20:0.0632184 21:0.132184 22:0.175287 23:0.045977 24:0.0689655 25:0.103448 26:0 27:0.0775862 28:0 29:0.0316092 30:0.0948276 31:0.0718391 32:0.568704 33:0.4 34:0 35:0 36:0 37:0 38:0.202899 39:0.449275 40:0 41:0.130435 42:0.217391 43:0.125 44:0.0868921 45:0 46:0 47:0 48:0 49:0.125 50:0.0872708 51:0.125 52:0.0716205 53:0.125 54:0.142178 55:0.375 56:0.463567 57:0.125 58:0.148472 59:0 60:0 61:0.109677 62:0 63:0.0967742 64:0.0580645 65:0.122581 66:0 67:0.116129 68:0.296774 69:0.180645 70:0 71:0 72:0 73:0.0193548 74:0 
-0 -0 -0 -0 -9.350478908398449 13.29948931553934 0 0 0 0 0 0 0 10.57836365659758 10.27477865829115 11.31117153426647 1:0.608392 2:0.188732 3:0.512676 4:0.298592 5:0.185915 6:0.560563 7:0.253521 8:0.180282 9:0.222535 10:0.343662 11:0.253521 12:0.560563 13:0.44507 14:0.504225 15:0.498592 16:0 17:0 18:0.11831 19:0 20:0.0676056 21:0.112676 22:0.183099 23:0.0422535 24:0.0732394 25:0.123944 26:0 27:0.0760563 28:0 29:0.0253521 30:0.0985915 31:0.0788732 32:0.571377 33:0.4 34:0 35:0 36:0 37:0 38:0.210526 39:0.407895 40:0 41:0.144737 42:0.236842 43:0.125 44:0.0892885 45:0 46:0 47:0 48:0 49:0.125 50:0.0875736 51:0.125 52:0.0727264 53:0.125 54:0.141197 55:0.375 56:0.460228 57:0.125 58:0.148987 59:0 60:0 61:0.060241 62:0 63:0.060241 64:0.0542169 65:0.144578 66:0 67:0.186747 68:0.26506 69:0.168675 70:0 71:0 72:0.0120482 73:0.0481928 74:0 
-12.87926059838049 -0 -12.0294030762524 -17.60154474463952 -0 13.29948931553934 25.2589505934693 12.60810755481836 12.43018863042753 0 17.79005374015811 21.05052580974901 11.67499506357335 0 0 0 1:0.604167 2:0.21345 3:0.48538 4:0.30117 5:0.195906 6:0.567251 7:0.236842 8:0.201754 9:0.210526 10:0.342105 11:0.245614 12:0.581871 13:0.426901 14:0.497076 15:0.508772 16:0 17:0 18:0.134503 19:0 20:0.0672515 21:0.134503 22:0.166667 23:0.0409357 24:0.0818713 25:0.102339 26:0 27:0.0760234 28:0 29:0.0263158 30:0.0964912 31:0.0730994 32:0.5628 33:0.4 34:0 35:0 36:0 37:0 38:0.242424 39:0.484848 40:0 41:0.121212 42:0.151515 43:0.125 44:0.0862855 45:0 46:0 47:0 48:0 49:0.125 50:0.0816959 51:0.125 52:0.0753619 53:0.125 54:0.144388 55:0.375 56:0.468359 57:0.125 58:0.14391 59:0 60:0 61:0.0878378 62:0 63:0.0675676 64:0.0608108 65:0.121622 66:0 67:0.148649 68:0.283784 69:0.202703 70:0 71:0 72:0.00675676 73:0.0202703 74:0 
-0 -14.52188706796601 -12.0294030762524 -0 -0 0 25.2589505934693 12.60810755481836 12.43018863042753 24.57434111198304 17.79005374015811 21.05052580974901 0 0 0 0 1:0.609155 2:0.234501 3:0.495957 4:0.269542 5:0.202156 6:0.557951 7:0.239892 8:0.204852 9:0.221024 10:0.331536 11:0.242588 12:0.61186 13:0.393531 14:0.479784 15:0.525606 16:0 17:0 18:0.126685 19:0 20:0.0781671 21:0.126685 22:0.167116 23:0.0377358 24:0.105121 25:0.0997305 26:0 27:0.0619946 28:0 29:0.0161725 30:0.113208 31:0.0673854 32:0.576281 33:0.4 34:0 35:0 36:0 37:0 38:0.16129 39:0.516129 40:0 41:0.112903 42:0.209677 43:0.125 44:0.0985161 45:0 46:0 47:0 48:0 49:0.125 50:0.0816527 51:0.125 52:0.072247 53:0.125 54:0.143422 55:0.375 56:0.458335 57:0.125 58:0.145827 59:0 60:0 61:0.0632184 62:0 63:0.0747126 64:0.0747126 65:0.114943 66:0 67:0.183908 68:0.275862 69:0.166667 70:0 71:0 72:0.00574713 73:0.0402299 74:0 
-12.87926059838049 -0 -0 -17.60154474463952 -9.350478908398449 13.29948931553934 0 0 0 0 0 0 11.67499506357335 10.57836365659758 10.27477865829115 11.31117153426647 1:0.597222 2:0.189602 3:0.522936 4:0.287462 5:0.214067 6:0.529052 7:0.256881 8:0.183486 9:0.217125 10:0.363914 11:0.235474 12:0.577982 13:0.431193 14:0.510703 15:0.495413 16:0 17:0 18:0.137615 19:0 20:0.058104 21:0.125382 22:0.17737 23:0.0489297 24:0.0764526 25:0.107034 26:0 27:0.0642202 28:0 29:0.0336391 30:0.100917 31:0.0703364 32:0.576095 33:0.4 34:0 35:0 36:0 37:0 38:0.26087 39:0.42029 40:0 41:0.115942 42:0.202899 43:0.125 44:0.0816635 45:0 46:0 47:0 48:0 49:0.125 50:0.0882531 51:0.125 52:0.0708805 53:0.125 54:0.140383 55:0.375 56:0.469347 57:0.125 58:0.149473 59:0 60:0 61:0.1 62:0 63:0.0916667 64:0.0666667 65:0.116667 66:0 67:0.116667 68:0.308333 69:0.166667 70:0 71:0 72:0 73:0.0333333 74:0 
-0 -0 -0 -0 -0 0 0 0 0 24.57434111198304 0 0 0 0 0 0 1:0.608392 2:0.200608 3:0.531915 4:0.267477 5:0.206687 6:0.547112 7:0.246201 8:0.203647 9:0.215805 10:0.349544 11:0.231003 12:0.595745 13:0.407295 14:0.50152 15:0.50152 16:0 17:0 18:0.142857 19:0 20:0.0668693 21:0.136778 22:0.167173 23:0.0395137 24:0.0759878 25:0.112462 26:0 27:0.0638298 28:0 29:0.0273556 30:0.100304 31:0.0668693 32:0.573427 33:0.4 34:0 35:0 36:0 37:0 38:0.177215 39:0.493671 40:0 41:0.113924 42:0.21519 43:0.125 44:0.0888014 45:0 46:0 47:0 48:0 49:0.125 50:0.0790617 51:0.125 52:0.0721627 53:0.125 54:0.141561 55:0.375 56:0.471053 57:0.125 58:0.14736 59:0 60:0 61:0.0584416 62:0 63:0.0909091 64:0.0519481 65:0.123377 66:0 67:0.162338 68:0.25974 69:0.214286 70:0 71:0 72:0 73:0.038961 74:0 
-0 -0 -11.35595051896269 -0 -0 -0 0 0 0 0 0 0 11.92076068210429 0 0 0 1:0.655303 2:0.382271 3:0.387812 4:0.229917 5:0.285319 6:0.534626 7:0.180055 8:0.310249 9:0.32687 10:0.207756 11:0.155125 12:0.581717 13:0.426593 14:0.429363 15:0.576177 16:0 17:0.0747922 18:0.0969529 19:0.0277008 20:0.0581717 21:0.177285 22:0 23:0.0831025 24:0.105263 25:0.124654 26:0.0803324 27:0.0747922 28:0.0110803 29:0.0858726 30:0 31:0 32:0.695156 33:0.2 34:0 35:0.185185 36:0.0864198 37:0 38:0.617284 39:0.111111 40:0 41:0 42:0 43:0 44:0 45:0 46:0 47:0 48:0 49:0 50:0 51:0.5 52:0.474401 53:0.25 54:0.316955 55:0.25 56:0.208644 57:0 58:0 59:0 60:0 61:0 62:0 63:0 64:0.123077 65:0.0923077 66:0 67:0.230769 68:0.4 69:0.0153846 70:0 71:0 72:0.138462 73:0 74:0 
-28.39994627260305 -10.93826045301236 -11.35595051896269 -37.19231191190027 -0 -13.29948931553934 0 15.62304832903186 19.61834467597465 10.27293138556337 15.60350476785703 14.14119477101982 11.92076068210429 10.21143148859506 10.15975720327776 10.8049604801599 1:0.655303 2:0.390533 3:0.393491 4:0.215976 5:0.286982 6:0.526627 7:0.186391 8:0.322485 9:0.331361 10:0.195266 11:0.150888 12:0.591716 13:0.414201 14:0.423077 15:0.58284 16:0 17:0.0857988 18:0.0976331 19:0.035503 20:0.0591716 21:0.177515 22:0 23:0.0621302 24:0.10355 25:0.130178 26:0.0828402 27:0.0680473 28:0.0118343 29:0.0857988 30:0 31:0 32:0.694303 33:0.2 34:0 35:0.166667 36:0.0833333 37:0.142857 38:0.47619 39:0.130952 40:0 41:0 42:0 43:0 44:0 45:0 46:0 47:0 48:0 49:0 50:0 51:0.5 52:0.472315 53:0.25 54:0.315896 55:0.25 56:0.211789 57:0 58:0 59:0 60:0 61:0 62:0 63:0 64:0.1 65:0.133333 66:0 67:0.283333 68:0.333333 69:0 70:0 71:0 72:0.15 73:0 74:0 
-0 -0 -0 -0 -0 -13.29948931553934 16.20701277311005 0 19.61834467597465 1.612450796228904 0 0 0 0 0 0 1:0.651515 2:0.391185 3:0.349862 4:0.258953 5:0.256198 6:0.567493 7:0.176309 8:0.278237 9:0.349862 10:0.198347 11:0.173554 12:0.561983 13:0.446281 14:0.418733 15:0.586777 16:0 17:0.0688705 18:0.0853994 19:0.0330579 20:0.0716253 21:0.137741 22:0 23:0.0798898 24:0.115702 25:0.143251 26:0.077135 27:0.0964187 28:0.0110193 29:0.0798898 30:0 31:0 32:0.700584 33:0.2 34:0 35:0.1 36:0.0857143 37:0.0428571 38:0.585714 39:0.185714 40:0 41:0 42:0 43:0 44:0 45:0 46:0 47:0 48:0 49:0 50:0 51:0.5 52:0.471674 53:0.25 54:0.314469 55:0.25 56:0.213857 57:0 58:0 59:0 60:0 61:0 62:0 63:0 64:0.0769231 65:0.0769231 66:0 67:0.230769 68:0.492308 69:0.0153846 70:0 71:0 72:0.107692 73:0 74:0 
-0 -10.93826045301236 -0 -12.25376329936882 -9.131168303165905 -13.29948931553934 16.20701277311005 15.62304832903186 0 10.27293138556337 15.60350476785703 14.14119477101982 0 0 0 10.8049604801599 1:0.657895 2:0.391566 3:0.364458 4:0.243976 5:0.283133 6:0.527108 7:0.189759 8:0.301205 9:0.334337 10:0.216867 11:0.14759 12:0.569277 13:0.436747 14:0.436747 15:0.566265 16:0 17:0.0873494 18:0.0993976 19:0.0240964 20:0.0662651 21:0.14759 22:0 23:0.0933735 24:0.0963855 25:0.135542 26:0.0753012 27:0.0722892 28:0.0180723 29:0.0843373 30:0 31:0 32:0.693199 33:0.2 34:0 35:0.123077 36:0.0307692 37:0.0461538 38:0.6 39:0.2 40:0 41:0 42:0 43:0 44:0 45:0 46:0 47:0 48:0 49:0 50:0 51:0.5 52:0.46955 53:0.25 54:0.316033 55:0.25 56:0.214417 57:0 58:0 59:0 60:0 61:0 62:0 63:0 64:0.116883 65:0.0779221 66:0 67:0.25974 68:0.441558 69:0 70:0 71:0 72:0.103896 73:0 74:0 
-0 -10.93826045301236 -11.35595051896269 -37.19231191190027 -9.131168303165905 -13.29948931553934 16.20701277311005 15.62304832903186 19.61834467597465 10.27293138556337 15.60350476785703 14.14119477101982 11.92076068210429 10.21143148859506 10.15975720327776 10.8049604801599 1:0.659091 2:0.414085 3:0.352113 4:0.233803 5:0.270423 6:0.521127 7:0.208451 8:0.323944 9:0.323944 10:0.197183 11:0.15493 12:0.560563 13:0.44507 14:0.419718 15:0.585915 16:0 17:0.084507 18:0.0929577 19:0.0309859 20:0.0732394 21:0.166197 22:0 23:0.0732394 24:0.0873239 25:0.11831 26:0.0788732 27:0.0760563 28:0.028169 29:0.0901408 30:0 31:0 32:0.718437 33:0.2 34:0 35:0.144737 36:0.0657895 37:0.0789474 38:0.552632 39:0.157895 40:0 41:0 42:0 43:0 44:0 45:0 46:0 47:0 48:0 49:0 50:0 51:0.5 52:0.467675 53:0.25 54:0.320021 55:0.25 56:0.212304 57:0 58:0 59:0 60:0 61:0 62:0 63:0 64:0.134328 65:0.104478 66:0 67:0.268657 68:0.313433 69:0.0298507 70:0 71:0 72:0.149254 73:0 74:0 
-28.39994627260305 -10.93826045301236 -0 -37.19231191190027 -9.131168303165905 -13.29948931553934 0 0 19.61834467597465 10.27293138556337 15.60350476785703 14.14119477101982 0 10.21143148859506 10.15975720327776 10.8049604801599 1:0.641791 2:0.380282 3:0.388732 4:0.230986 5:0.287324 6:0.521127 7:0.191549 8:0.304225 9:0.329577 10:0.211268 11:0.15493 12:0.583099 13:0.419718 14:0.419718 15:0.583099 16:0 17:0.0760563 18:0.104225 19:0.0338028 20:0.0788732 21:0.149296 22:0 23:0.0732394 24:0.084507 25:0.146479 26:0.0788732 27:0.0760563 28:0.0197183 29:0.0788732 30:0 31:0 32:0.699286 33:0.2 34:0 35:0.140845 36:0.084507 37:0 38:0.577465 39:0.197183 40:0 41:0 42:0 43:0 44:0 45:0 46:0 47:0 48:0 49:0 50:0 51:0.5 52:0.470986 53:0.25 54:0.316682 55:0.25 56:0.212332 57:0 58:0 59:0 60:0 61:0 62:0 63:0 64:0.0921053 65:0.0921053 66:0 67:0.210526 68:0.434211 69:0.0394737 70:0 71:0 72:0.131579 73:0 74:0 
-28.39994627260305 -10.93826045301236 -11.35595051896269 -37.19231191190027 -0 -0 16.20701277311005 15.62304832903186 19.61834467597465 8.660480589334465 15.60350476785703 14.14119477101982 11.92076068210429 10.21143148859506 10.15975720327776 0 1:0.641791 2:0.39071 3:0.371585 4:0.237705 5:0.273224 6:0.54918 7:0.177596 8:0.303279 9:0.346995 10:0.191257 11:0.15847 12:0.601093 13:0.407104 14:0.412568 15:0.587432 16:0 17:0.079235 18:0.0819672 19:0.0327869 20:0.0655738 21:0.15847 22:0 23:0.0765027 24:0.131148 25:0.128415 26:0.0765027 27:0.0819672 28:0.00819672 29:0.079235 30:0 31:0 32:0.676269 33:0.2 34:0 35:0.123288 36:0.0958904 37:0 38:0.616438 39:0.164384 40:0 41:0 42:0 43:0 44:0 45:0 46:0 47:0 48:0 49:0 50:0 51:0.5 52:0.470872 53:0.25 54:0.323574 55:0.25 56:0.205554 57:0 58:0 59:0 60:0 61:0 62:0 63:0 64:0.0882353 65:0.0882353 66:0 67:0.264706 68:0.323529 69:0.0441176 70:0 71:0 72:0.191176 73:0 74:0 
-28.39994627260305 -0 -11.35595051896269 -24.93854861253146 -9.131168303165905 -0 0 0 0 0 0 0 11.92076068210429 10.21143148859506 10.15975720327776 10.8049604801599 1:0.650376 2:0.349711 3:0.413295 4:0.236994 5:0.294798 6:0.526012 7:0.179191 8:0.323699 9:0.309249 10:0.199422 11:0.16763 12:0.583815 13:0.421965 14:0.459538 15:0.549133 16:0 17:0.0867052 18:0.0982659 19:0.0289017 20:0.0606936 21:0.176301 22:0 23:0.0722543 24:0.0924855 25:0.121387 26:0.083815 27:0.083815 28:0.0115607 29:0.083815 30:0 31:0 32:0.687137 33:0.2 34:0 35:0.2 36:0.05 37:0.075 38:0.5875 39:0.0875 40:0 41:0 42:0 43:0 44:0 45:0 46:0 47:0 48:0 49:0 50:0 51:0.5 52:0.476796 53:0.25 54:0.316355 55:0.25 56:0.206849 57:0 58:0 59:0 60:0 61:0 62:0 63:0 64:0.109375 65:0.125 66:0 67:0.265625 68:0.3125 69:0 70:0 71:0 72:0.1875 73:0 74:0 
-0 -0 -0 -0 -0 -0 16.20701277311005 15.62304832903186 0 0 0 0 0 0 0 0 1:0.651515 2:0.420054 3:0.349593 4:0.230352 5:0.268293 6:0.563686 7:0.168022 8:0.306233 9:0.344173 10:0.200542 11:0.149051 12:0.607046 13:0.398374 14:0.409214 15:0.596206 16:0 17:0.0758808 18:0.0948509 19:0.0271003 20:0.0731707 21:0.157182 22:0 23:0.0785908 24:0.130081 25:0.121951 26:0.0677507 27:0.0813008 28:0.00813008 29:0.0840108 30:0 31:0 32:0.69845 33:0.2 34:0 35:0.0958904 36:0.0684932 37:0.0821918 38:0.616438 39:0.136986 40:0 41:0 42:0 43:0 44:0 45:0 46:0 47:0 48:0 49:0 50:0 51:0.5 52:0.468276 53:0.25 54:0.318807 55:0.25 56:0.212917 57:0 58:0 59:0 60:0 61:0 62:0 63:0 64:0.102941 65:0.0735294 66:0 67:0.25 68:0.382353 69:0.0294118 70:0 71:0 72:0.161765 73:0 74:0 
-28.39994627260305 -0 -0 -0 -9.131168303165905 -0 0 0 0 0 0 0 0 0 0 0 1:0.654135 2:0.366925 3:0.403101 4:0.229974 5:0.29199 6:0.529716 7:0.178295 8:0.310078 9:0.315245 10:0.222222 11:0.152455 12:0.581395 13:0.423773 14:0.44186 15:0.560724 16:0 17:0.0852713 18:0.118863 19:0.0258398 20:0.0620155 21:0.162791 22:0.00258398 23:0.0749354 24:0.0826873 25:0.129199 26:0.0775194 27:0.0749354 28:0.0129199 29:0.0904393 30:0 31:0 32:0.688378 33:0.2 34:0 35:0.155172 36:0.0172414 37:0 38:0.706897 39:0.12069 40:0 41:0 42:0 43:0 44:0 45:0 46:0 47:0 48:0 49:0 50:0 51:0.5 52:0.472386 53:0.25 54:0.316202 55:0.25 56:0.211412 57:0 58:0 59:0 60:0 61:0 62:0 63:0.030303 64:0.0757576 65:0.0757576 66:0 67:0.212121 68:0.409091 69:0.030303 70:0 71:0 72:0.166667 73:0 74:0 
-0 -0 -0 -0 -7.692851505703419 -0 -0 0 0 0 0 0 0 0 0 0 1:0.69084 2:0.423684 3:0.365789 4:0.210526 5:0.105263 6:0.597368 7:0.297368 8:0.292105 9:0.368421 10:0.160526 11:0.178947 12:0.660526 13:0.344737 14:0.352632 15:0.657895 16:0 17:0.0289474 18:0.0315789 19:0 20:0.107895 21:0.155263 22:0.0789474 23:0.05 24:0.144737 25:0.171053 26:0 27:0.0763158 28:0.0368421 29:0.0157895 30:0.0657895 31:0.0368421 32:0.64863 33:0.4 34:0 35:0 36:0 37:0 38:0.660377 39:0.150943 40:0 41:0.150943 42:0.0377358 43:0 44:0 45:0 46:0 47:0 48:0 49:0 50:0 51:0 52:0 53:0.375 54:0.393175 55:0.375 56:0.420782 57:0.25 58:0.186043 59:0 60:0.0229885 61:0.045977 62:0 63:0.252874 64:0.103448 65:0.126437 66:0 67:0.16092 68:0.16092 69:0.126437 70:0 71:0 72:0 73:0 74:0 
-12.44957231377461 -0 -0 -6.373530898566532 -12.10715677646695 -0 -0 0 0 0 0 0 3.273530492227475 0.7957049908485269 0 0 1:0.69084 2:0.402145 3:0.383378 4:0.214477 5:0.112601 6:0.581769 7:0.30563 8:0.262735 9:0.372654 10:0.184987 11:0.179625 12:0.651475 13:0.359249 14:0.364611 15:0.643432 16:0 17:0.0268097 18:0.0402145 19:0 20:0.0938338 21:0.142091 22:0.0938338 23:0.0509383 24:0.152815 25:0.168901 26:0 27:0.080429 28:0.0348525 29:0.0160858 30:0.0697051 31:0.0294906 32:0.632621 33:0.4 34:0 35:0 36:0 37:0 38:0.617021 39:0.191489 40:0 41:0.0851064 42:0.106383 43:0 44:0 45:0 46:0 47:0 48:0 49:0 50:0 51:0 52:0 53:0.375 54:0.39748 55:0.375 56:0.418809 57:0.25 58:0.183712 59:0 60:0.0493827 61:0.0493827 62:0 63:0.246914 64:0.135802 65:0.0987654 66:0 67:0.135802 68:0.185185 69:0.0987654 70:0 71:0 72:0 73:0 74:0 
-12.44957231377461 -0 -0 -0 -12.10715677646695 -0 -16.20701277311005 0 0 0 0 0 0 0 0 0 1:0.687023 2:0.395225 3:0.403183 4:0.201592 5:0.116711 6:0.570292 7:0.312997 8:0.278515 9:0.371353 10:0.180371 11:0.169761 12:0.66313 13:0.34748 14:0.374005 15:0.636605 16:0 17:0.0291777 18:0.0397878 19:0 20:0.0901857 21:0.159151 22:0.0875332 23:0.0530504 24:0.145889 25:0.161804 26:0 27:0.0636605 28:0.0397878 29:0.0238727 30:0.0689655 31:0.0371353 32:0.639401 33:0.4 34:0 35:0 36:0 37:0 38:0.629032 39:0.225806 40:0 41:0.0806452 42:0.0645161 43:0 44:0 45:0 46:0 47:0 48:0 49:0 50:0 51:0 52:0 53:0.375 54:0.391619 55:0.375 56:0.415535 57:0.25 58:0.192846 59:0 60:0 61:0.0852713 62:0 63:0.255814 64:0.100775 65:0.0620155 66:0 67:0.0930233 68:0.294574 69:0.108527 70:0 71:0 72:0 73:0 74:0 
-0 -22.69463114597484 -0 -0 -12.10715677646695 -25.2589505934693 -0 37.77197520774656 19.14257825313814 35.40847274567253 26.71759883907261 30.14876698395812 0 0 0 0 1:0.683206 2:0.432836 3:0.373134 4:0.19403 5:0.109453 6:0.604478 7:0.28607 8:0.291045 9:0.378109 10:0.176617 11:0.154229 12:0.681592 13:0.330846 14:0.335821 15:0.674129 16:0 17:0.0223881 18:0.0348259 19:0 20:0.119403 21:0.149254 22:0.0920398 23:0.0497512 24:0.149254 25:0.174129 26:0 27:0.0621891 28:0.0373134 29:0.0174129 30:0.0597015 31:0.0323383 32:0.632456 33:0.4 34:0 35:0 36:0 37:0 38:0.472727 39:0.327273 40:0 41:0.127273 42:0.0727273 43:0 44:0 45:0 46:0 47:0 48:0 49:0 50:0 51:0 52:0 53:0.375 54:0.399189 55:0.375 56:0.413763 57:0.25 58:0.187047 59:0 60:0 61:0.0733945 62:0 63:0.201835 64:0.146789 65:0.0825688 66:0 67:0.100917 68:0.266055 69:0.12844 70:0 71:0 72:0 73:0 74:0 
-8.135176619842055 -22.69463114597484 -11.35765909454011 -15.04369386545154 -0 -25.2589505934693 -16.20701277311005 37.77197520774656 19.14257825313814 35.40847274567253 26.71759883907261 30.14876698395812 11.29624302995006 9.268260272782355 9.170374392918728 9.767563281374626 1:0.705426 2:0.416667 3:0.37963 4:0.203704 5:0.123457 6:0.595679 7:0.280864 8:0.280864 9:0.375 10:0.175926 11:0.16821 12:0.675926 13:0.333333 14:0.364198 15:0.643519 16:0 17:0.029321 18:0.0354938 19:0 20:0.0910494 21:0.160494 22:0.0895062 23:0.0509259 24:0.174383 25:0.165123 26:0 27:0.0679012 28:0.0231481 29:0.0123457 30:0.0679012 31:0.0324074 32:0.679606 33:0.4 34:0 35:0 36:0 37:0 38:0.4375 39:0.263889 40:0 41:0.159722 42:0.138889 43:0 44:0 45:0 46:0 47:0 48:0 49:0.125 50:0.0714415 51:0 52:0 53:0.375 54:0.385426 55:0.375 56:0.420424 57:0.125 58:0.122709 59:0 60:0.0283688 61:0.0248227 62:0 63:0.187943 64:0.166667 65:0.0567376 66:0 67:0.134752 68:0.27305 69:0.12766 70:0 71:0 72:0 73:0 74:0 
-12.44957231377461 -0 -11.35765909454011 -8.670162966885005 -0 -0 -16.20701277311005 37.77197520774656 0 0 0 0 11.29624302995006 8.472555281933827 9.170374392918728 9.767563281374626 1:0.703846 2:0.442254 3:0.360563 4:0.197183 5:0.11831 6:0.583099 7:0.298592 8:0.295775 9:0.374648 10:0.16338 11:0.166197 12:0.68169 13:0.326761 14:0.366197 15:0.639437 16:0 17:0.028169 18:0.0394366 19:0 20:0.101408 21:0.166197 22:0.0760563 23:0.0478873 24:0.183099 25:0.149296 26:0 27:0.0732394 28:0.028169 29:0.0140845 30:0.0647887 31:0.028169 32:0.665783 33:0.4 34:0 35:0 36:0 37:0 38:0.642857 39:0.214286 40:0 41:0.107143 42:0.0357143 43:0 44:0 45:0 46:0 47:0 48:0 49:0.125 50:0.0749304 51:0 52:0 53:0.375 54:0.383216 55:0.375 56:0.416322 57:0.125 58:0.125531 59:0 60:0.0434783 61:0.0173913 62:0 63:0.217391 64:0.0869565 65:0.026087 66:0 67:0.208696 68:0.226087 69:0.173913 70:0 71:0 72:0 73:0 74:0 
-0 -22.69463114597484 -0 -0 -0 -25.2589505934693 -0 0 19.14257825313814 35.40847274567253 26.71759883907261 30.14876698395812 0 0 0 0 1:0.693182 2:0.438356 3:0.361644 4:0.2 5:0.117808 6:0.60274 7:0.279452 8:0.293151 9:0.372603 10:0.164384 11:0.169863 12:0.682192 13:0.323288 14:0.361644 15:0.643836 16:0 17:0.0273973 18:0.0410959 19:0 20:0.10137 21:0.164384 22:0.0712329 23:0.0520548 24:0.167123 25:0.167123 26:0 27:0.0657534 28:0.0273973 29:0.0109589 30:0.0684932 31:0.0356164 32:0.64211 33:0.4 34:0 35:0 36:0 37:0 38:0.545455 39:0.295455 40:0 41:0.0681818 42:0.0909091 43:0 44:0 45:0 46:0 47:0 48:0 49:0 50:0 51:0 52:0 53:0.375 54:0.395812 55:0.375 56:0.411146 57:0.25 58:0.193042 59:0 60:0 61:0.0940171 62:0 63:0.162393 64:0.0940171 65:0.042735 66:0 67:0.222222 68:0.213675 69:0.17094 70:0 71:0 72:0 73:0 74:0 
-0 -22.69463114597484 -11.35765909454011 -15.04369386545154 -0 -25.2589505934693 -0 0 19.14257825313814 35.40847274567253 26.71759883907261 30.14876698395812 8.022712537722583 9.268260272782355 9.170374392918728 9.767563281374626 1:0.698473 2:0.425068 3:0.373297 4:0.201635 5:0.111717 6:0.599455 7:0.288828 8:0.294278 9:0.356948 10:0.179837 11:0.168937 12:0.683924 13:0.3297 14:0.356948 15:0.651226 16:0 17:0.027248 18:0.0408719 19:0 20:0.108992 21:0.158038 22:0.0871935 23:0.0517711 24:0.158038 25:0.155313 26:0 27:0.0681199 28:0.0299728 29:0.013624 30:0.0681199 31:0.0326975 32:0.646541 33:0.4 34:0 35:0 36:0 37:0 38:0.466667 39:0.383333 40:0 41:0.0666667 42:0.0833333 43:0 44:0 45:0 46:0 47:0 48:0 49:0 50:0 51:0 52:0 53:0.375 54:0.394413 55:0.375 56:0.415815 57:0.25 58:0.189771 59:0 60:0 61:0.0263158 62:0 63:0.25 64:0.184211 65:0.184211 66:0 67:0.105263 68:0.131579 69:0.118421 70:0 71:0 72:0 73:0 74:0 
-4.314395693932552 -0 -11.35765909454011 -15.04369386545154 -4.414305270763534 -0 -16.20701277311005 37.77197520774656 0 0 0 0 11.29624302995006 9.268260272782355 9.170374392918728 9.767563281374626 1:0.707692 2:0.417143 3:0.377143 4:0.205714 5:0.125714 6:0.577143 7:0.297143 8:0.308571 9:0.362857 10:0.154286 11:0.174286 12:0.671429 13:0.331429 14:0.368571 15:0.634286 16:0 17:0.0371429 18:0.0342857 19:0 20:0.0885714 21:0.182857 22:0.0628571 23:0.0571429 24:0.174286 25:0.157143 26:0 27:0.0828571 28:0.02 29:0.0114286 30:0.0685714 31:0.0228571 32:0.663682 33:0.4 34:0 35:0 36:0 37:0 38:0.706897 39:0.155172 40:0 41:0.12069 42:0.0172414 43:0 44:0 45:0 46:0 47:0 48:0 49:0.125 50:0.0705012 51:0 52:0 53:0.375 54:0.387658 55:0.375 56:0.419738 57:0.125 58:0.122103 59:0 60:0.105263 61:0 62:0 63:0.2 64:0.294737 65:0.0210526 66:0 67:0.105263 68:0.147368 69:0.126316 70:0 71:0 72:0 73:0 74:0 
-12.44957231377461 -22.69463114597484 -11.35765909454011 -15.04369386545154 -12.10715677646695 -25.2589505934693 -16.20701277311005 37.77197520774656 19.14257825313814 35.40847274567253 26.71759883907261 30.14876698395812 11.29624302995006 9.268260272782355 9.170374392918728 9.767563281374626 1:0.703846 2:0.421466 3:0.371728 4:0.206806 5:0.125654 6:0.58377 7:0.290576 8:0.28534 9:0.366492 10:0.17801 11:0.170157 12:0.664921 13:0.342932 14:0.379581 15:0.625654 16:0 17:0.0287958 18:0.039267 19:0 20:0.104712 21:0.151832 22:0.0837696 23:0.0549738 24:0.15445 25:0.170157 26:0 27:0.078534 28:0.026178 29:0.0157068 30:0.0628272 31:0.0287958 32:0.653788 33:0.4 34:0 35:0 36:0 37:0 38:0.545455 39:0.295455 40:0 41:0.0681818 42:0.0909091 43:0 44:0 45:0 46:0 47:0 48:0 49:0 50:0 51:0 52:0 53:0.375 54:0.395558 55:0.375 56:0.414641 57:0.25 58:0.1898 59:0 60:0.00862069 61:0.0603448 62:0 63:0.12931 64:0.103448 65:0.0689655 66:0 67:0.224138 68:0.232759 69:0.172414 70:0 71:0 72:0 73:0 74:0 
-0 -40.58252085280078 -9.500034894922399 -14.15729525474702 -8.429211878722267 -0 -10.47222043751185 -37.77197520774656 0 0 33.67478568403474 24.65594219735155 9.557678095769527 4.211527634488766 1.749747590901088 6.725305639395363 1:0.831633 2:0.471223 3:0.327338 4:0.201439 5:0.356115 6:0.460432 7:0.183453 8:0.386691 9:0.28777 10:0.210432 11:0.115108 12:0.705036 13:0.307554 14:0.402878 15:0.607914 16:0.0683453 17:0.0539568 18:0 19:0.00719424 20:0.118705 21:0.145683 22:0.127698 23:0.0755396 24:0.104317 25:0.129496 26:0.0539568 27:0.0611511 28:0.0323741 29:0.0215827 30:0 31:0 32:0.724239 33:0.4 34:0 35:0.116883 36:0.025974 37:0 38:0.558442 39:0.142857 40:0 41:0.116883 42:0.038961 43:0 44:0 45:0 46:0 47:0 48:0 49:0 50:0 51:0 52:0 53:0.625 54:0.644444 55:0.375 56:0.355556 57:0 58:0 59:0 60:0 61:0 62:0 63:0.222973 64:0.216216 65:0.108108 66:0 67:0.202703 68:0.243243 69:0.00675676 70:0 71:0 72:0 73:0 74:0 
-0 -22.49614038040691 -9.500034894922399 -0 -0 -12.60810755481836 -15.62304832903186 -37.77197520774656 0 21.6337842194169 0 0 0 0 0 0 1:0.840206 2:0.47079 3:0.328179 4:0.201031 5:0.33677 6:0.477663 7:0.185567 8:0.38488 9:0.302405 10:0.194158 11:0.118557 12:0.699313 13:0.310997 14:0.383162 15:0.627148 16:0.0670103 17:0.0446735 18:0 19:0 20:0.11512 21:0.158076 22:0.109966 23:0.0841924 24:0.101375 25:0.149485 26:0.056701 27:0.0618557 28:0.0257732 29:0.0257732 30:0 31:0 32:0.748451 33:0.4 34:0 35:0.0985915 36:0.028169 37:0 38:0.56338 39:0.169014 40:0 41:0.0985915 42:0.0422535 43:0 44:0 45:0 46:0 47:0 48:0 49:0 50:0 51:0 52:0 53:0.625 54:0.646433 55:0.375 56:0.353567 57:0 58:0 59:0 60:0 61:0 62:0 63:0.1 64:0.18125 65:0.1125 66:0 67:0.25625 68:0.3 69:0.05 70:0 71:0 72:0 73:0 74:0 
-13.44057585715991 -0 -0 -0 -0 -0 -0 -0 28.13561166748351 0 0 0 0 0 0 0 1:0.831633 2:0.47417 3:0.339483 4:0.186347 5:0.335793 6:0.487085 7:0.177122 8:0.404059 9:0.298893 10:0.186347 11:0.110701 12:0.708487 13:0.298893 14:0.385609 15:0.627306 16:0.0719557 17:0.0553506 18:0 19:0 20:0.108856 21:0.167897 22:0.103321 23:0.0830258 24:0.108856 25:0.140221 26:0.0516605 27:0.0590406 28:0.0258303 29:0.0239852 30:0 31:0 32:0.723004 33:0.4 34:0 35:0.0909091 36:0.0519481 37:0 38:0.532468 39:0.168831 40:0 41:0.103896 42:0.0519481 43:0 44:0 45:0 46:0 47:0 48:0 49:0 50:0 51:0 52:0 53:0.75 54:0.740676 55:0.25 56:0.259324 57:0 58:0 59:0 60:0 61:0 62:0 63:0.028169 64:0.0633803 65:0.056338 66:0 67:0.429577 68:0.394366 69:0.028169 70:0 71:0 72:0 73:0 74:0 
-13.44057585715991 -0 -9.500034894922399 -0 -10.18502509708081 -2.543499430880418 -15.62304832903186 -37.77197520774656 0 21.6337842194169 0 24.65594219735155 9.557678095769527 8.25487907385795 8.104355442770265 8.686692626870373 1:0.826531 2:0.489011 3:0.311355 4:0.199634 5:0.369963 6:0.435897 7:0.194139 8:0.40293 9:0.274725 10:0.195971 11:0.126374 12:0.70696 13:0.302198 14:0.40293 15:0.608059 16:0.0714286 17:0.0567766 18:0 19:0 20:0.130037 21:0.144689 22:0.120879 23:0.0750916 24:0.102564 25:0.122711 26:0.0659341 27:0.0604396 28:0.025641 29:0.0238095 30:0 31:0 32:0.748793 33:0.4 34:0 35:0.0657895 36:0.0789474 37:0 38:0.552632 39:0.157895 40:0 41:0.105263 42:0.0394737 43:0 44:0 45:0 46:0 47:0 48:0 49:0 50:0 51:0 52:0 53:0.625 54:0.653117 55:0.25 56:0.249048 57:0.125 58:0.0978349 59:0 60:0 61:0 62:0 63:0.0691244 64:0.16129 65:0.078341 66:0 67:0.299539 68:0.327189 69:0.0599078 70:0 71:0.00460829 72:0 73:0 74:0 
-13.44057585715991 -0 -0 -0 -10.18502509708081 -0 -0 -0 28.13561166748351 0 33.67478568403474 0 0 0 0 0 1:0.826531 2:0.46223 3:0.332734 4:0.205036 5:0.361511 6:0.444245 7:0.194245 8:0.426259 9:0.269784 10:0.188849 11:0.115108 12:0.694245 13:0.31295 14:0.402878 15:0.611511 16:0.0701439 17:0.0557554 18:0 19:0 20:0.122302 21:0.178058 22:0.102518 23:0.0863309 24:0.0899281 25:0.127698 26:0.0629496 27:0.0521583 28:0.0251799 29:0.0269784 30:0 31:0 32:0.738377 33:0.4 34:0 35:0.0740741 36:0.0617284 37:0 38:0.54321 39:0.17284 40:0 41:0.0987654 42:0.0493827 43:0 44:0 45:0 46:0 47:0 48:0 49:0 50:0 51:0 52:0 53:0.75 54:0.737809 55:0.25 56:0.262191 57:0 58:0 59:0 60:0 61:0 62:0 63:0.209945 64:0.265193 65:0.104972 66:0 67:0.198895 68:0.160221 69:0.0552486 70:0 71:0.00552486 72:0 73:0 74:0 
-0 -40.58252085280078 -9.500034894922399 -14.15729525474702 -1.755813218358547 -12.60810755481836 -0 -37.77197520774656 28.13561166748351 21.6337842194169 33.67478568403474 24.65594219735155 9.557678095769527 8.25487907385795 6.354607851869177 8.686692626870373 1:0.826531 2:0.465116 3:0.348837 4:0.186047 5:0.368515 6:0.450805 7:0.18068 8:0.436494 9:0.255814 10:0.187835 11:0.119857 12:0.724508 13:0.284436 14:0.411449 15:0.602862 16:0.0679785 17:0.0554562 18:0 19:0 20:0.118068 21:0.194991 22:0.116279 23:0.0715564 24:0.0912343 25:0.119857 26:0.059034 27:0.0608229 28:0.0214669 29:0.0232558 30:0 31:0 32:0.733367 33:0.4 34:0 35:0.0526316 36:0.0657895 37:0 38:0.328947 39:0.5 40:0 41:0.0263158 42:0.0263158 43:0 44:0 45:0 46:0 47:0 48:0 49:0 50:0 51:0 52:0 53:0.625 54:0.650146 55:0.375 56:0.349854 57:0 58:0 59:0 60:0 61:0 62:0 63:0.191176 64:0.279412 65:0.176471 66:0 67:0.176471 68:0.147059 69:0.0245098 70:0 71:0.00490196 72:0 73:0 74:0 
-2.40105852869083 -40.58252085280078 -0 -14.15729525474702 -0 -10.06460812393794 -15.62304832903186 -0 0 0 0 0 9.557678095769527 8.25487907385795 8.104355442770265 8.686692626870373 1:0.826531 2:0.47619 3:0.291209 4:0.232601 5:0.388278 6:0.42674 7:0.184982 8:0.386447 9:0.252747 10:0.225275 11:0.135531 12:0.679487 13:0.327839 14:0.435897 15:0.57326 16:0.0695971 17:0.0494505 18:0.00549451 19:0.014652 20:0.122711 21:0.144689 22:0.122711 23:0.0824176 24:0.0934066 25:0.10989 26:0.0659341 27:0.0695971 28:0.0274725 29:0.021978 30:0 31:0 32:0.734694 33:0.4 34:0 35:0.0789474 36:0.0526316 37:0 38:0.565789 39:0.144737 40:0 41:0.118421 42:0.0394737 43:0 44:0 45:0 46:0 47:0 48:0 49:0 50:0 51:0 52:0 53:0.625 54:0.657015 55:0.375 56:0.342985 57:0 58:0 59:0 60:0 61:0 62:0 63:0.147239 64:0.159509 65:0.0858896 66:0 67:0.312883 68:0.245399 69:0.0490798 70:0 71:0 72:0 73:0 74:0 
-11.03951732846908 -0 -0 -0 -10.18502509708081 -0 -0 -0 0 0 0 0 0 0 0 0 1:0.826531 2:0.455856 3:0.354955 4:0.189189 5:0.363964 6:0.441441 7:0.194595 8:0.410811 9:0.266667 10:0.196396 11:0.126126 12:0.706306 13:0.300901 14:0.401802 15:0.614414 16:0.0684685 17:0.0576577 18:0 19:0 20:0.10991 21:0.174775 22:0.122523 23:0.0738739 24:0.0954955 25:0.120721 26:0.0720721 27:0.0540541 28:0.0234234 29:0.027027 30:0 31:0 32:0.735735 33:0.4 34:0 35:0.0657895 36:0.0789474 37:0 38:0.552632 39:0.157895 40:0 41:0.105263 42:0.0394737 43:0 44:0 45:0 46:0 47:0 48:0 49:0 50:0 51:0 52:0 53:0.75 54:0.739005 55:0.25 56:0.260995 57:0 58:0 59:0 60:0 61:0 62:0 63:0.0760234 64:0.222222 65:0.0994152 66:0 67:0.345029 68:0.204678 69:0.0526316 70:0 71:0 72:0 73:0 74:0 
-13.44057585715991 -18.08638047239387 -9.500034894922399 -14.15729525474702 -10.18502509708081 -12.60810755481836 -15.62304832903186 -37.77197520774656 28.13561166748351 21.6337842194169 33.67478568403474 24.65594219735155 9.557678095769527 8.25487907385795 8.104355442770265 8.686692626870373 1:0.826531 2:0.457961 3:0.355993 4:0.186047 5:0.305903 6:0.486583 7:0.207513 8:0.456172 9:0.264758 10:0.146691 11:0.132379 12:0.690519 13:0.316637 14:0.366726 15:0.649374 16:0.0644007 17:0.0465116 18:0 19:0 20:0.123435 21:0.221825 22:0.0733453 23:0.0733453 24:0.0966011 25:0.116279 26:0.0715564 27:0.0608229 28:0.0250447 29:0.0268336 30:0 31:0 32:0.722421 33:0.4 34:0 35:0.1125 36:0.05 37:0 38:0.4875 39:0.2125 40:0 41:0.0875 42:0.05 43:0 44:0 45:0 46:0 47:0 48:0 49:0 50:0 51:0.125 52:0.07804 53:0.5 54:0.567742 55:0.25 56:0.26048 57:0.125 58:0.0937382 59:0 60:0 61:0 62:0 63:0.0526316 64:0.0684211 65:0.0789474 66:0 67:0.273684 68:0.384211 69:0.110526 70:0 71:0.0315789 72:0 73:0 74:0 
-0 -40.58252085280078 -0 -14.15729525474702 -0 -12.60810755481836 -5.150827891520007 -0 28.13561166748351 21.6337842194169 33.67478568403474 24.65594219735155 0 4.043351439369183 8.104355442770265 1.96138698747501 1:0.818182 2:0.500928 3:0.309833 4:0.189239 5:0.339518 6:0.463822 7:0.19666 8:0.445269 9:0.28757 10:0.137291 11:0.12987 12:0.699443 13:0.307978 14:0.363636 15:0.651206 16:0.0909091 17:0.0667904 18:0 19:0 20:0.116883 21:0.170686 22:0.0686456 23:0.0686456 24:0.109462 25:0.12616 26:0.0630798 27:0.0667904 28:0.0222635 29:0.0296846 30:0 31:0 32:0.722769 33:0.4 34:0 35:0.0952381 36:0.107143 37:0 38:0.321429 39:0.392857 40:0 41:0.0357143 42:0.047619 43:0 44:0 45:0 46:0 47:0 48:0 49:0 50:0 51:0 52:0 53:0.625 54:0.652926 55:0.375 56:0.347074 57:0 58:0 59:0.00497512 60:0 61:0 62:0 63:0.079602 64:0.238806 65:0.0995025 66:0 67:0.293532 68:0.218905 69:0.0497512 70:0 71:0.0149254 72:0 73:0 74:0 
-0 -0 -0 -0 -0 -0 -0 -0 -0 25.57312394848706 43.89049336346891 0 0 0 0 0 1:0.620301 2:0.403579 3:0.397614 4:0.198807 5:0.182903 6:0.632207 7:0.184891 8:0.33002 9:0.373757 10:0.168986 11:0.127237 12:0.640159 13:0.367793 14:0.347913 15:0.656064 16:0 17:0.027833 18:0.0715706 19:0.0437376 20:0.127237 21:0.17495 22:0 23:0.0536779 24:0.11332 25:0.180915 26:0.0516899 27:0.0596421 28:0 29:0.0795229 30:0.0159046 31:0 32:0.600301 33:0.4 34:0 35:0.0617284 36:0.185185 37:0 38:0.185185 39:0.567901 40:0 41:0 42:0 43:0 44:0 45:0 46:0 47:0 48:0 49:0 50:0 51:0.25 52:0.237647 53:0.625 54:0.689151 55:0.125 56:0.0732023 57:0 58:0 59:0 60:0 61:0 62:0 63:0.138889 64:0.0625 65:0.159722 66:0 67:0.180556 68:0.333333 69:0.0486111 70:0 71:0 72:0.0763889 73:0 74:0 
-21.48168999837708 -15.8149662403317 -0 -18.21317549268132 -9.897589554717444 -12.43018863042753 -0 -0 -0 25.57312394848706 52.98011314801243 25.80928496186614 0 7.547838257356736 7.674451374934802 7.899765569223 1:0.621212 2:0.367188 3:0.421875 4:0.210938 5:0.207031 6:0.572266 7:0.220703 8:0.265625 9:0.408203 10:0.205078 11:0.121094 12:0.601562 13:0.40625 14:0.392578 15:0.615234 16:0 17:0.0253906 18:0.0976562 19:0.0390625 20:0.101562 21:0.138672 22:0 23:0.0683594 24:0.130859 25:0.197266 26:0.0507812 27:0.0605469 28:0 29:0.0800781 30:0.00976562 31:0 32:0.613964 33:0.4 34:0 35:0.114943 36:0.149425 37:0 38:0.195402 39:0.54023 40:0 41:0 42:0 43:0 44:0 45:0 46:0 47:0 48:0 49:0 50:0 51:0.25 52:0.2424 53:0.625 54:0.682181 55:0.125 56:0.0754183 57:0 58:0 59:0 60:0 61:0 62:0 63:0.14881 64:0.119048 65:0.0952381 66:0 67:0.142857 68:0.315476 69:0.0714286 70:0 71:0 72:0.107143 73:0 74:0 
-0 -0 -0 -0 -0 -12.43018863042753 -0 -0 -0 25.57312394848706 52.98011314801243 25.80928496186614 0 0 0 0 1:0.621212 2:0.375 3:0.40121 4:0.22379 5:0.195565 6:0.572581 7:0.231855 8:0.260081 9:0.407258 10:0.181452 11:0.15121 12:0.594758 13:0.415323 14:0.385081 15:0.622984 16:0 17:0.0241935 18:0.078629 19:0.0423387 20:0.0967742 21:0.139113 22:0 23:0.0604839 24:0.141129 25:0.185484 26:0.0564516 27:0.0766129 28:0 29:0.0806452 30:0.0181452 31:0 32:0.610025 33:0.4 34:0 35:0.0537634 36:0.11828 37:0 38:0.215054 39:0.612903 40:0 41:0 42:0 43:0 44:0 45:0 46:0 47:0 48:0 49:0 50:0 51:0.25 52:0.242513 53:0.625 54:0.684836 55:0.125 56:0.0726515 57:0 58:0 59:0 60:0 61:0 62:0 63:0.112245 64:0.0714286 65:0.142857 66:0 67:0.173469 68:0.367347 69:0.0612245 70:0 71:0 72:0.0714286 73:0 74:0 
-21.48168999837708 -15.8149662403317 -8.585092874341843 -18.21317549268132 -9.897589554717444 -12.43018863042753 -19.61834467597465 -19.14257825313814 -28.13561166748351 25.57312394848706 9.089619784543512 0 8.223023040783502 7.547838257356736 7.674451374934802 7.899765569223 1:0.625 2:0.368635 3:0.425662 4:0.205703 5:0.189409 6:0.602851 7:0.207739 8:0.305499 9:0.389002 10:0.179226 11:0.126273 12:0.610998 13:0.397149 14:0.360489 15:0.647658 16:0 17:0.0305499 18:0.0753564 19:0.0427699 20:0.11609 21:0.158859 22:0 23:0.0610998 24:0.120163 25:0.175153 26:0.0529532 27:0.0590631 28:0 29:0.0936864 30:0.0142566 31:0 32:0.606278 33:0.4 34:0 35:0.1125 36:0.125 37:0 38:0.2875 39:0.475 40:0 41:0 42:0 43:0 44:0 45:0 46:0 47:0 48:0 49:0 50:0 51:0.25 52:0.242749 53:0.625 54:0.685492 55:0.125 56:0.0717587 57:0 58:0 59:0 60:0 61:0 62:0 63:0.216216 64:0.0472973 65:0.135135 66:0 67:0.155405 68:0.277027 69:0.0675676 70:0 71:0 72:0.101351 73:0 74:0 
-21.48168999837708 -0 -0 -0 -0 -1.146240166685239 -19.61834467597465 -0 -0 0 0 0 0 0 0 0 1:0.625 2:0.365112 3:0.421907 4:0.212982 5:0.182556 6:0.614604 7:0.20284 8:0.310345 9:0.37931 10:0.178499 11:0.131846 12:0.604462 13:0.403651 14:0.371197 15:0.636917 16:0 17:0.030426 18:0.0649087 19:0.0446247 20:0.109533 21:0.170385 22:0.0020284 23:0.0669371 24:0.107505 25:0.186613 26:0.0527383 27:0.0669371 28:0 29:0.0851927 30:0.0121704 31:0 32:0.610756 33:0.4 34:0 35:0.060241 36:0.192771 37:0 38:0.240964 39:0.506024 40:0 41:0 42:0 43:0 44:0 45:0 46:0 47:0 48:0 49:0 50:0 51:0.25 52:0.240109 53:0.625 54:0.682478 55:0.125 56:0.077413 57:0 58:0 59:0 60:0 61:0 62:0 63:0.12426 64:0.0710059 65:0.153846 66:0 67:0.130178 68:0.366864 69:0.0473373 70:0 71:0 72:0.106509 73:0 74:0 
-0 -15.8149662403317 -8.585092874341843 -18.21317549268132 -0 -12.43018863042753 -0 -0 -0 0 52.98011314801243 25.80928496186614 8.223023040783502 0 0 0 1:0.616541 2:0.380392 3:0.407843 4:0.211765 5:0.2 6:0.603922 7:0.196078 8:0.343137 9:0.347059 10:0.176471 11:0.133333 12:0.627451 13:0.376471 14:0.376471 15:0.629412 16:0 17:0.0254902 18:0.0823529 19:0.0372549 20:0.12549 21:0.192157 22:0 23:0.0568627 24:0.107843 25:0.158824 26:0.0470588 27:0.0705882 28:0 29:0.0803922 30:0.0156863 31:0 32:0.605438 33:0.4 34:0 35:0.0978261 36:0.163043 37:0 38:0.217391 39:0.521739 40:0 41:0 42:0 43:0 44:0 45:0 46:0 47:0 48:0 49:0 50:0 51:0.25 52:0.243794 53:0.625 54:0.68102 55:0.125 56:0.0751859 57:0 58:0 59:0 60:0 61:0 62:0 63:0.146199 64:0.122807 65:0.122807 66:0 67:0.140351 68:0.298246 69:0.0643275 70:0 71:0 72:0.105263 73:0 74:0 
-21.48168999837708 -0 -8.585092874341843 -18.21317549268132 -9.897589554717444 -11.28394846374229 -19.61834467597465 -19.14257825313814 -28.13561166748351 0 0 25.80928496186614 8.223023040783502 7.547838257356736 7.674451374934802 7.899765569223 1:0.629771 2:0.372671 3:0.42029 4:0.207039 5:0.198758 6:0.610766 7:0.190476 8:0.300207 9:0.401656 10:0.173913 11:0.124224 12:0.623188 13:0.387164 14:0.364389 15:0.643892 16:0 17:0.0351967 18:0.0786749 19:0.0455487 20:0.0952381 21:0.169772 22:0.00207039 23:0.047619 24:0.124224 25:0.190476 26:0.047619 27:0.0641822 28:0 29:0.0869565 30:0.0124224 31:0 32:0.607265 33:0.4 34:0 35:0.122222 36:0.111111 37:0 38:0.366667 39:0.4 40:0 41:0 42:0 43:0 44:0 45:0 46:0 47:0 48:0 49:0 50:0 51:0.25 52:0.245448 53:0.625 54:0.680045 55:0.125 56:0.0745066 57:0 58:0 59:0 60:0 61:0 62:0 63:0.155556 64:0.0740741 65:0.125926 66:0 67:0.162963 68:0.296296 69:0.0592593 70:0 71:0 72:0.125926 73:0 74:0 
-0 -15.8149662403317 -8.585092874341843 -0 -9.897589554717444 -0 -19.61834467597465 -19.14257825313814 -28.13561166748351 0 0 0 8.223023040783502 7.547838257356736 7.674451374934802 7.899765569223 1:0.621212 2:0.391714 3:0.39548 4:0.212806 5:0.184557 6:0.619586 7:0.195857 8:0.335217 9:0.357815 10:0.173258 11:0.13371 12:0.623352 13:0.386064 14:0.372881 15:0.634652 16:0 17:0.0263653 18:0.0715631 19:0.039548 20:0.13371 21:0.175141 22:0 23:0.0621469 24:0.109228 25:0.169492 26:0.0508475 27:0.0715631 28:0 29:0.079096 30:0.0112994 31:0 32:0.618063 33:0.4 34:0 35:0.104651 36:0.139535 37:0 38:0.27907 39:0.476744 40:0 41:0 42:0 43:0 44:0 45:0 46:0 47:0 48:0 49:0 50:0 51:0.25 52:0.24385 53:0.625 54:0.683283 55:0.125 56:0.0728673 57:0 58:0 59:0 60:0 61:0 62:0 63:0.181818 64:0.10303 65:0.10303 66:0 67:0.133333 68:0.333333 69:0.0484848 70:0 71:0 72:0.0969697 73:0 74:0 
-21.48168999837708 -0 -0 -0 -0 -0 -19.61834467597465 -19.14257825313814 -28.13561166748351 25.57312394848706 0 0 0 0 0 0 1:0.629771 2:0.390438 3:0.406375 4:0.203187 5:0.197211 6:0.609562 7:0.193227 8:0.304781 9:0.390438 10:0.181275 11:0.123506 12:0.623506 13:0.380478 14:0.356574 15:0.651394 16:0 17:0.0278884 18:0.0856574 19:0.0378486 20:0.111554 21:0.165339 22:0 23:0.0577689 24:0.129482 25:0.171315 26:0.0498008 27:0.059761 28:0 29:0.0896414 30:0.0139442 31:0 32:0.620723 33:0.4 34:0 35:0.107143 36:0.119048 37:0 38:0.261905 39:0.511905 40:0 41:0 42:0 43:0 44:0 45:0 46:0 47:0 48:0 49:0 50:0 51:0.25 52:0.243087 53:0.625 54:0.685312 55:0.125 56:0.0716011 57:0 58:0 59:0 60:0 61:0 62:0 63:0.135135 64:0.0608108 65:0.148649 66:0 67:0.175676 68:0.324324 69:0.0608108 70:0 71:0 72:0.0945946 73:0 74:0 
-0 -15.8149662403317 -8.585092874341843 -18.21317549268132 -9.897589554717444 -0 -0 -19.14257825313814 -28.13561166748351 0 52.98011314801243 25.80928496186614 8.223023040783502 7.547838257356736 7.674451374934802 7.899765569223 1:0.616541 2:0.392982 3:0.394737 4:0.212281 5:0.201754 6:0.6 7:0.198246 8:0.335088 9:0.357895 10:0.189474 11:0.117544 12:0.645614 13:0.366667 14:0.377193 15:0.631579 16:0 17:0.0280702 18:0.0859649 19:0.0368421 20:0.124561 21:0.182456 22:0 23:0.0666667 24:0.110526 25:0.180702 26:0.0473684 27:0.0561404 28:0 29:0.0666667 30:0.0140351 31:0 32:0.619828 33:0.4 34:0 35:0.145833 36:0.166667 37:0 38:0.208333 39:0.479167 40:0 41:0 42:0 43:0 44:0 45:0 46:0 47:0 48:0 49:0 50:0 51:0.25 52:0.239381 53:0.625 54:0.679943 55:0.125 56:0.0806761 57:0 58:0 59:0 60:0 61:0 62:0 63:0.149701 64:0.137725 65:0.131737 66:0 67:0.113772 68:0.317365 69:0.0658683 70:0 71:0 72:0.0838323 73:0 74:0 
-0 -0 -0 -0 -0 -0 -0 -0 -0 -25.57312394848706 0 0 0 0 0 0 1:0.596429 2:0.432612 3:0.399334 4:0.168053 5:0.131448 6:0.524126 7:0.344426 8:0.212978 9:0.409318 10:0.249584 11:0.12812 12:0.618968 13:0.400998 14:0.356073 15:0.650582 16:0 17:0 18:0.0831947 19:0 20:0.116473 21:0.0965058 22:0.108153 23:0.0582363 24:0.111481 25:0.178037 26:0 27:0.0349418 28:0.0615641 29:0.0582363 30:0.0549085 31:0.0382696 32:0.556145 33:0.6 34:0 35:0 36:0 37:0 38:0.108434 39:0.674699 40:0 41:0.060241 42:0.156627 43:0 44:0 45:0 46:0 47:0 48:0 49:0 50:0 51:0 52:0 53:0.5 54:0.503253 55:0.333333 56:0.356386 57:0.166667 58:0.140361 59:0 60:0 61:0.0434783 62:0 63:0.0942029 64:0.076087 65:0.0688406 66:0 67:0.192029 68:0.26087 69:0.210145 70:0 71:0.0434783 72:0.0108696 73:0 74:0 
-11.24092913186934 -19.1365300900011 -7.743573192775081 -11.56145990753432 -9.883472024852987 -24.57434111198304 -10.27293138556337 -35.40847274567253 -21.6337842194169 -25.57312394848706 47.55945493149792 65.70610437764172 7.516801809349801 0.6026798819748592 0 7.637952857406419 1:0.604317 2:0.418819 3:0.391144 4:0.190037 5:0.142066 6:0.51107 7:0.346863 8:0.204797 9:0.402214 10:0.260148 11:0.132841 12:0.612546 13:0.402214 14:0.365314 15:0.643911 16:0 17:0 18:0.0848708 19:0 20:0.108856 21:0.095941 22:0.107011 23:0.0682657 24:0.101476 25:0.186347 26:0 27:0.0387454 28:0.0608856 29:0.0535055 30:0.0535055 31:0.0405904 32:0.563415 33:0.6 34:0 35:0 36:0 37:0 38:0.180851 39:0.595745 40:0 41:0.0638298 42:0.159574 43:0 44:0 45:0 46:0 47:0 48:0 49:0 50:0 51:0 52:0 53:0.5 54:0.503247 55:0.333333 56:0.359361 57:0.166667 58:0.137392 59:0 60:0 61:0.0451128 62:0 63:0.0902256 64:0.12406 65:0.0714286 66:0 67:0.176692 68:0.24812 69:0.172932 70:0 71:0.0526316 72:0.018797 73:0 74:0 
-0 -0 -7.743573192775081 -0 -0 -24.57434111198304 -10.27293138556337 -35.40847274567253 -21.6337842194169 -25.57312394848706 0 0 0 0 0 0 1:0.6 2:0.43058 3:0.393673 4:0.175747 5:0.126538 6:0.530756 7:0.342707 8:0.210896 9:0.397188 10:0.253076 11:0.13884 12:0.634446 13:0.381371 14:0.356766 15:0.650264 16:0 17:0 18:0.0702988 19:0 20:0.114236 21:0.0966608 22:0.128295 23:0.0544815 24:0.115993 25:0.163445 26:0 27:0.0439367 28:0.056239 29:0.0615114 30:0.0544815 31:0.0404218 32:0.56134 33:0.6 34:0 35:0 36:0 37:0 38:0.125 39:0.6 40:0 41:0.1 42:0.175 43:0 44:0 45:0 46:0 47:0 48:0 49:0 50:0 51:0 52:0 53:0.5 54:0.499793 55:0.333333 56:0.360758 57:0.166667 58:0.139449 59:0 60:0 61:0.026087 62:0 63:0.0913043 64:0.0521739 65:0.0826087 66:0 67:0.2 68:0.269565 69:0.186957 70:0 71:0.0608696 72:0.0304348 73:0 74:0 
-0 -0 -0 -0 -0 -0 -0 -0 -0 -0 47.55945493149792 0 0 0 0 0 1:0.600719 2:0.416667 3:0.420068 4:0.163265 5:0.142857 6:0.498299 7:0.358844 8:0.180272 9:0.437075 10:0.253401 11:0.129252 12:0.630952 13:0.387755 14:0.357143 15:0.653061 16:0 17:0 18:0.0867347 19:0 20:0.079932 21:0.10034 22:0.119048 23:0.047619 24:0.113946 25:0.195578 26:0 27:0.037415 28:0.0629252 29:0.0646259 30:0.0561224 31:0.0357143 32:0.560413 33:0.6 34:0 35:0 36:0 37:0 38:0.125 39:0.666667 40:0 41:0.0833333 42:0.125 43:0 44:0 45:0 46:0 47:0 48:0 49:0 50:0 51:0 52:0 53:0.5 54:0.497745 55:0.333333 56:0.365224 57:0.166667 58:0.137031 59:0 60:0 61:0.0434783 62:0 63:0.0942029 64:0.144928 65:0.0724638 66:0 67:0.184783 68:0.202899 69:0.188406 70:0 71:0.0543478 72:0.0144928 73:0 74:0 
-0 -19.1365300900011 -0 -0 -0 -0 -0 -0 -0 -0 0 0 0 0 0 0 1:0.603571 2:0.435754 3:0.392924 4:0.171322 5:0.150838 6:0.510242 7:0.33892 8:0.204842 9:0.39851 10:0.260708 11:0.13594 12:0.638734 13:0.376164 14:0.359404 15:0.651769 16:0 17:0 18:0.0912477 19:0 20:0.113594 21:0.0912477 22:0.113594 23:0.0558659 24:0.117318 25:0.162011 26:0 27:0.0372439 28:0.0633147 29:0.0558659 30:0.0614525 31:0.0372439 32:0.565141 33:0.6 34:0 35:0 36:0 37:0 38:0.0909091 39:0.651515 40:0 41:0.106061 42:0.151515 43:0 44:0 45:0 46:0 47:0 48:0 49:0 50:0 51:0 52:0 53:0.5 54:0.504549 55:0.333333 56:0.356493 57:0.166667 58:0.138959 59:0 60:0 61:0.025 62:0 63:0.0875 64:0.0958333 65:0.0958333 66:0 67:0.2 68:0.154167 69:0.2625 70:0 71:0.0625 72:0.0166667 73:0 74:0 
-11.24092913186934 -19.1365300900011 -7.743573192775081 -11.56145990753432 -9.883472024852987 -24.57434111198304 -10.27293138556337 -35.40847274567253 -21.6337842194169 -25.57312394848706 47.55945493149792 65.70610437764172 7.516801809349801 7.506363648483077 7.544835983327103 7.637952857406419 1:0.603571 2:0.417563 3:0.392473 4:0.189964 5:0.150538 6:0.512545 7:0.336918 8:0.22043 9:0.376344 10:0.263441 11:0.139785 12:0.621864 13:0.396057 14:0.38172 15:0.62724 16:0 17:0 18:0.0913978 19:0 20:0.125448 21:0.0949821 22:0.111111 23:0.0609319 24:0.09319 25:0.155914 26:0 27:0.0394265 28:0.0716846 29:0.0555556 30:0.0555556 31:0.0448029 32:0.566387 33:0.6 34:0 35:0 36:0 37:0 38:0.152778 39:0.597222 40:0 41:0.0694444 42:0.180556 43:0 44:0 45:0 46:0 47:0 48:0 49:0 50:0 51:0 52:0 53:0.5 54:0.507495 55:0.333333 56:0.360531 57:0.166667 58:0.131974 59:0 60:0 61:0.0421941 62:0 63:0.113924 64:0.130802 65:0.126582 66:0 67:0.172996 68:0.168776 69:0.177215 70:0 71:0.0464135 72:0.021097 73:0 74:0 
-0 -0 -7.743573192775081 -0 -0 -24.57434111198304 -0 -0 -0 -0 0 0 7.516801809349801 6.903683766508218 7.544835983327103 7.637952857406419 1:0.590909 2:0.416667 3:0.402174 4:0.181159 5:0.126812 6:0.536232 7:0.336957 8:0.213768 9:0.393116 10:0.251812 11:0.141304 12:0.610507 13:0.407609 14:0.36413 15:0.641304 16:0 17:0 18:0.0815217 19:0 20:0.105072 21:0.108696 22:0.108696 23:0.0615942 24:0.106884 25:0.157609 26:0 27:0.0362319 28:0.0597826 29:0.0688406 30:0.0597826 31:0.0452899 32:0.56165 33:0.6 34:0 35:0 36:0 37:0 38:0.057971 39:0.550725 40:0 41:0.144928 42:0.246377 43:0 44:0 45:0 46:0 47:0 48:0 49:0 50:0 51:0 52:0 53:0.5 54:0.501791 55:0.333333 56:0.362732 57:0.166667 58:0.135477 59:0 60:0 61:0.0366667 62:0 63:0.0766667 64:0.14 65:0.106667 66:0 67:0.193333 68:0.186667 69:0.193333 70:0 71:0.05 72:0.0166667 73:0 74:0 
-11.24092913186934 -19.1365300900011 -0 -11.56145990753432 -9.883472024852987 -24.57434111198304 -0 -0 -21.6337842194169 -0 47.55945493149792 65.70610437764172 7.516801809349801 7.506363648483077 7.544835983327103 7.637952857406419 1:0.59507 2:0.415027 3:0.415027 4:0.169946 5:0.202147 6:0.447227 7:0.350626 8:0.223614 9:0.391771 10:0.252236 11:0.132379 12:0.647585 13:0.368515 14:0.368515 15:0.635063 16:0 17:0 18:0.100179 19:0.00357782 20:0.105546 21:0.118068 22:0.0966011 23:0.0518784 24:0.103757 25:0.184258 26:0 27:0.0375671 28:0.0554562 29:0.0483005 30:0.0608229 31:0.0339893 32:0.557876 33:0.6 34:0 35:0 36:0 37:0 38:0.116883 39:0.61039 40:0 41:0.0909091 42:0.181818 43:0 44:0 45:0 46:0 47:0 48:0 49:0 50:0 51:0 52:0 53:0.5 54:0.510794 55:0.333333 56:0.358433 57:0.166667 58:0.130772 59:0 60:0 61:0.0216606 62:0 63:0.0722022 64:0.140794 65:0.122744 66:0 67:0.202166 68:0.194946 69:0.184116 70:0 71:0.0469314 72:0.0144404 73:0 74:0 
-11.24092913186934 -19.1365300900011 -7.743573192775081 -11.56145990753432 -9.883472024852987 -0 -10.27293138556337 -35.40847274567253 -21.6337842194169 -25.57312394848706 47.55945493149792 65.70610437764172 7.516801809349801 7.506363648483077 7.544835983327103 7.637952857406419 1:0.57931 2:0.434629 3:0.383392 4:0.181979 5:0.171378 6:0.461131 7:0.367491 8:0.208481 9:0.424028 10:0.229682 11:0.137809 12:0.623675 13:0.392226 14:0.348057 15:0.65371 16:0 17:0 18:0.0795053 19:0.00176678 20:0.107774 21:0.100707 22:0.0883392 23:0.0600707 24:0.127208 25:0.176678 26:0 27:0.040636 28:0.0636042 29:0.0565371 30:0.0565371 31:0.040636 32:0.542478 33:0.6 34:0 35:0 36:0 37:0 38:0.196429 39:0.607143 40:0 41:0.107143 42:0.0892857 43:0 44:0 45:0 46:0 47:0 48:0 49:0 50:0 51:0 52:0 53:0.5 54:0.506146 55:0.333333 56:0.355833 57:0.166667 58:0.138021 59:0 60:0 61:0.0582524 62:0 63:0.121359 64:0.126214 65:0.15534 66:0 67:0.150485 68:0.199029 69:0.106796 70:0 71:0.0582524 72:0.0242718 73:0 74:0 
-11.24092913186934 -0 -0 -11.56145990753432 -9.883472024852987 -0 -10.27293138556337 -35.40847274567253 -0 -0 0 65.70610437764172 0 7.506363648483077 7.544835983327103 0 1:0.583333 2:0.438406 3:0.394928 4:0.166667 5:0.17029 6:0.449275 7:0.380435 8:0.208333 9:0.416667 10:0.240942 11:0.134058 12:0.623188 13:0.393116 14:0.351449 15:0.657609 16:0 17:0 18:0.0851449 19:0 20:0.106884 21:0.101449 22:0.101449 23:0.0543478 24:0.13587 25:0.143116 26:0 27:0.0362319 28:0.0652174 29:0.0724638 30:0.0615942 31:0.0362319 32:0.541667 33:0.6 34:0 35:0 36:0 37:0 38:0.177778 39:0.6 40:0 41:0.0555556 42:0.166667 43:0 44:0 45:0 46:0 47:0 48:0 49:0 50:0 51:0 52:0 53:0.5 54:0.502239 55:0.333333 56:0.35978 57:0.166667 58:0.137981 59:0 60:0 61:0.0441767 62:0 63:0.0682731 64:0.0803213 65:0.0963855 66:0 67:0.236948 68:0.176707 69:0.232932 70:0 71:0.0441767 72:0.0200803 73:0 74:0 
-15.73500407156863 -0 -0 -0 -10.03358849570026 -0 -0 -0 -33.67478568403474 -52.98011314801243 -0 0 0 0 0 0 1:0.59375 2:0.432133 3:0.401662 4:0.166205 5:0.33241 6:0.443213 7:0.224377 8:0.360111 9:0.368421 10:0.155125 11:0.116343 12:0.684211 13:0.319945 14:0.414127 15:0.598338 16:0.0720222 17:0.0858726 18:0.0623269 19:0.0277008 20:0.0734072 21:0.128809 22:0.0235457 23:0.0415512 24:0.120499 25:0.184211 26:0.0360111 27:0.0554017 28:0 29:0.0637119 30:0.0249307 31:0 32:0.578125 33:0.6 34:0 35:0.072 36:0.152 37:0 38:0.2 39:0.576 40:0 41:0 42:0 43:0 44:0 45:0 46:0 47:0 48:0 49:0 50:0 51:0.166667 52:0.147826 53:0.583333 54:0.619558 55:0.25 56:0.232616 57:0 58:0 59:0.0455764 60:0.0348525 61:0 62:0 63:0.176944 64:0.22252 65:0.158177 66:0 67:0.077748 68:0.171582 69:0.0455764 70:0 71:0 72:0.0670241 73:0 74:0 
-15.73500407156863 -0 -8.484098651345557 -0 -10.03358849570026 -17.79005374015811 -0 -0 -0 -43.64355766222085 -47.55945493149792 69.66718226721673 8.429224216889081 8.654455566078809 8.543901962062447 8.564368103308116 1:0.602362 2:0.450079 3:0.366086 4:0.183835 5:0.347068 6:0.424723 7:0.228209 8:0.366086 9:0.337559 10:0.167987 11:0.128368 12:0.641838 13:0.362916 14:0.429477 15:0.581616 16:0.0729002 17:0.088748 18:0.0633914 19:0.0253566 20:0.0903328 21:0.114105 22:0.0253566 23:0.0538827 24:0.128368 25:0.139461 26:0.0459588 27:0.0602219 28:0 29:0.0697306 30:0.022187 31:0 32:0.563259 33:0.6 34:0 35:0.08 36:0.11 37:0 38:0.16 39:0.65 40:0 41:0 42:0 43:0 44:0 45:0 46:0 47:0 48:0 49:0 50:0 51:0.166667 52:0.158723 53:0.5 54:0.508453 55:0.25 56:0.217385 57:0.0833333 58:0.11544 59:0.0708955 60:0.0261194 61:0 62:0 63:0.126866 64:0.16791 65:0.201493 66:0 67:0.11194 68:0.149254 69:0.0858209 70:0 71:0 72:0.0597015 73:0 74:0 
-15.73500407156863 -23.65869698340338 -8.484098651345557 -20.4330765073493 -0 -17.79005374015811 -15.60350476785703 -26.71759883907261 -33.67478568403474 -0 -47.55945493149792 69.66718226721673 8.429224216889081 8.654455566078809 8.543901962062447 8.564368103308116 1:0.597656 2:0.449848 3:0.361702 4:0.18845 5:0.349544 6:0.445289 7:0.205167 8:0.332827 9:0.369301 10:0.170213 11:0.12766 12:0.662614 13:0.343465 14:0.43465 15:0.577508 16:0.0820669 17:0.0881459 18:0.0683891 19:0.0303951 20:0.0759878 21:0.0866261 22:0.0167173 23:0.0547112 24:0.129179 25:0.174772 26:0.0410334 27:0.0668693 28:0 29:0.0653495 30:0.0197568 31:0 32:0.585478 33:0.6 34:0 35:0.0964912 36:0.0877193 37:0 38:0.22807 39:0.526316 40:0 41:0 42:0.0614035 43:0 44:0 45:0 46:0 47:0 48:0 49:0 50:0 51:0.166667 52:0.14988 53:0.5 54:0.507164 55:0.333333 56:0.342956 57:0 58:0 59:0.0646259 60:0.0204082 61:0 62:0 63:0.204082 64:0.163265 65:0.14966 66:0 67:0.0782313 68:0.176871 69:0.0578231 70:0 71:0 72:0.085034 73:0 74:0 
